{"learner":{"attributes":{"scikit_learn":"{\"_estimator_type\": \"regressor\"}"},"feature_names":["point_idx","hour","day_of_week","is_weekend","weather_penalty","port_pressure","congestion_ratio","horizon_hours"],"feature_types":["int","int","int","int","float","float","float","int"],"gradient_booster":{"model":{"cats":{"enc":[],"feature_segments":[],"sorted_idx":[]},"gbtree_model_param":{"num_parallel_tree":"1","num_trees":"200"},"iteration_indptr":[0,1,2,3,4,5,6,7,8,9,10,11,12,13,14,15,16,17,18,19,20,21,22,23,24,25,26,27,28,29,30,31,32,33,34,35,36,37,38,39,40,41,42,43,44,45,46,47,48,49,50,51,52,53,54,55,56,57,58,59,60,61,62,63,64,65,66,67,68,69,70,71,72,73,74,75,76,77,78,79,80,81,82,83,84,85,86,87,88,89,90,91,92,93,94,95,96,97,98,99,100,101,102,103,104,105,106,107,108,109,110,111,112,113,114,115,116,117,118,119,120,121,122,123,124,125,126,127,128,129,130,131,132,133,134,135,136,137,138,139,140,141,142,143,144,145,146,147,148,149,150,151,152,153,154,155,156,157,158,159,160,161,162,163,164,165,166,167,168,169,170,171,172,173,174,175,176,177,178,179,180,181,182,183,184,185,186,187,188,189,190,191,192,193,194,195,196,197,198,199,200],"tree_info":[0,0,0,0,0,0,0,0,0,0,0,0,0,0,0,0,0,0,0,0,0,0,0,0,0,0,0,0,0,0,0,0,0,0,0,0,0,0,0,0,0,0,0,0,0,0,0,0,0,0,0,0,0,0,0,0,0,0,0,0,0,0,0,0,0,0,0,0,0,0,0,0,0,0,0,0,0,0,0,0,0,0,0,0,0,0,0,0,0,0,0,0,0,0,0,0,0,0,0,0,0,0,0,0,0,0,0,0,0,0,0,0,0,0,0,0,0,0,0,0,0,0,0,0,0,0,0,0,0,0,0,0,0,0,0,0,0,0,0,0,0,0,0,0,0,0,0,0,0,0,0,0,0,0,0,0,0,0,0,0,0,0,0,0,0,0,0,0,0,0,0,0,0,0,0,0,0,0,0,0,0,0,0,0,0,0,0,0,0,0,0,0,0,0,0,0,0,0,0,0],"trees":[{"base_weights":[3.5162666E-9,2.8577553E-2,-7.7898145E-2,6.6562645E-2,-6.377006E-2,-9.398654E-2,-6.2233943E-2,-1.0152818E-2,8.276598E-2,-9.497843E-2,6.656852E-2,-9.968491E-2,-7.1185544E-2,-5.0509688E-2,-8.478128E-2,-9.199646E-2,1.18022926E-1,1.07975036E-1,-1.8207822E-2,-3.998405E-2,-1.04154885E-1,9.4346926E-2,-5.1812425E-2,-8.610936E-2,-1.1758483E-1,-9.866014E-2,-9.908933E-3,-3.5986025E-2,-6.676213E-2,-1.0117749E-1,-1.9186562E-2,-7.639982E-2,-1.0758448E-1,6.093783E-2,1.4655562E-1,5.3841498E-2,1.4299153E-1,1.8633005E-1,-9.8013066E-2,8.435762E-2,-8.143729E-2,-1.17662996E-1,-9.328646E-2,-2.4245553E-2,1.1450027E-1,-9.798726E-2,-3.858358E-2,-6.747903E-2,-1.0260715E-1,-1.300367E-1,-1.04272805E-1,-4.3934897E-2,-1.3880001E-1,-9.237028E-2,7.2091594E-2,-2.0662094E-2,-5.8965944E-2,-5.7368E-2,-1.1812574E-1,-9.0074666E-2,-1.2363983E-1,-9.291935E-2,5.8515426E-2,-4.460238E-3,-8.985362E-3,-1.0064228E-2,-6.0677426E-3,-2.4578042E-4,5.8989814E-3,1.5657604E-2,7.7887103E-3,7.784739E-4,5.4942593E-3,1.2462034E-2,3.3772264E-3,1.7716581E-2,6.7486092E-3,-1.0109348E-2,-6.181679E-3,7.969883E-5,1.0974489E-2,-9.479839E-3,-4.4855224E-3,-1.0258815E-2,-6.858428E-3,-6.9947895E-3,-1.0117954E-2,1.8637651E-3,-9.537273E-3,1.183248E-2,6.485899E-3,-8.828289E-3,-1.873309E-3,-2.764069E-3,-1.3125085E-2,-6.6536614E-3,-1.8608954E-3,-8.858497E-3,-7.2880713E-3,-1.2607864E-2,-9.844896E-3,-7.1263323E-3,-9.593523E-3,-7.344817E-3,-1.2624817E-3,-1.1954726E-2,-1.0362322E-2,-5.5640345E-3,-9.417936E-3,9.781657E-3,1.591207E-3,-2.9819345E-3,2.320501E-3,-3.0234212E-3,-9.777759E-3,-3.1676015E-3,-6.627786E-3,-1.2523283E-2,-6.6040438E-3,-9.434945E-3,-6.6962326E-3,-1.1204427E-2,-4.8302794E-3,-6.1101518E-3,-1.0196654E-2,-3.8601812E-3,1.10252695E-2],"categories":[],"categories_nodes":[],"categories_segments":[],"categories_sizes":[],"default_left":[0,0,0,0,0,0,0,0,0,0,0,0,0,0,0,0,0,0,0,0,0,0,0,0,0,0,0,0,0,0,0,0,0,0,0,0,0,0,0,0,0,0,0,0,0,0,0,0,0,0,0,0,0,0,0,0,0,0,0,0,0,0,0,0,0,0,0,0,0,0,0,0,0,0,0,0,0,0,0,0,0,0,0,0,0,0,0,0,0,0,0,0,0,0,0,0,0,0,0,0,0,0,0,0,0,0,0,0,0,0,0,0,0,0,0,0,0,0,0,0,0,0,0,0,0,0,0],"id":0,"left_children":[1,3,5,7,9,11,13,15,17,19,21,23,25,27,29,31,33,35,37,39,41,43,45,47,49,51,53,55,57,59,61,63,65,67,69,71,73,75,77,79,81,83,85,87,89,91,93,95,97,99,101,103,105,107,109,111,113,115,117,119,121,123,125,-1,-1,-1,-1,-1,-1,-1,-1,-1,-1,-1,-1,-1,-1,-1,-1,-1,-1,-1,-1,-1,-1,-1,-1,-1,-1,-1,-1,-1,-1,-1,-1,-1,-1,-1,-1,-1,-1,-1,-1,-1,-1,-1,-1,-1,-1,-1,-1,-1,-1,-1,-1,-1,-1,-1,-1,-1,-1,-1,-1,-1,-1,-1,-1],"loss_changes":[8.599572E2,9.9138446E2,2.6122925E1,2.4892206E2,3.3505496E2,6.6382446E0,1.3883667E1,3.663451E2,4.2084448E2,3.353357E1,5.2333725E1,9.93277E0,1.7221745E1,8.156731E0,1.9325943E1,5.173401E0,2.2157288E1,2.5077747E2,5.391897E2,4.899911E1,8.350342E0,3.0807953E1,1.8440094E0,7.1462555E0,2.911255E0,1.5508942E1,2.1428276E1,6.427498E0,7.8635483E0,3.5744324E0,2.0601852E1,7.896721E0,6.1524353E0,3.7173615E0,2.1926071E1,3.400952E1,1.0349011E2,3.3190094E1,1.3964478E1,1.0466841E1,6.695797E0,8.560272E0,6.1189575E0,8.459634E0,1.2289993E1,6.1803675E-1,1.1850083E0,7.5839767E0,1.1435242E0,1.7326508E0,2.0178146E0,4.0286994E0,3.8228607E-1,9.059572E-1,4.159835E0,9.039175E0,9.776516E0,6.241886E0,3.4323578E0,1.6988602E0,4.9273834E0,1.0444202E0,1.4831886E1,0E0,0E0,0E0,0E0,0E0,0E0,0E0,0E0,0E0,0E0,0E0,0E0,0E0,0E0,0E0,0E0,0E0,0E0,0E0,0E0,0E0,0E0,0E0,0E0,0E0,0E0,0E0,0E0,0E0,0E0,0E0,0E0,0E0,0E0,0E0,0E0,0E0,0E0,0E0,0E0,0E0,0E0,0E0,0E0,0E0,0E0,0E0,0E0,0E0,0E0,0E0,0E0,0E0,0E0,0E0,0E0,0E0,0E0,0E0,0E0,0E0,0E0,0E0,0E0],"parents":[2147483647,0,0,1,1,2,2,3,3,4,4,5,5,6,6,7,7,8,8,9,9,10,10,11,11,12,12,13,13,14,14,15,15,16,16,17,17,18,18,19,19,20,20,21,21,22,22,23,23,24,24,25,25,26,26,27,27,28,28,29,29,30,30,31,31,32,32,33,33,34,34,35,35,36,36,37,37,38,38,39,39,40,40,41,41,42,42,43,43,44,44,45,45,46,46,47,47,48,48,49,49,50,50,51,51,52,52,53,53,54,54,55,55,56,56,57,57,58,58,59,59,60,60,61,61,62,62],"right_children":[2,4,6,8,10,12,14,16,18,20,22,24,26,28,30,32,34,36,38,40,42,44,46,48,50,52,54,56,58,60,62,64,66,68,70,72,74,76,78,80,82,84,86,88,90,92,94,96,98,100,102,104,106,108,110,112,114,116,118,120,122,124,126,-1,-1,-1,-1,-1,-1,-1,-1,-1,-1,-1,-1,-1,-1,-1,-1,-1,-1,-1,-1,-1,-1,-1,-1,-1,-1,-1,-1,-1,-1,-1,-1,-1,-1,-1,-1,-1,-1,-1,-1,-1,-1,-1,-1,-1,-1,-1,-1,-1,-1,-1,-1,-1,-1,-1,-1,-1,-1,-1,-1,-1,-1,-1,-1],"split_conditions":[5E0,1.7E1,1.22003704E-1,3E0,1.2E1,1.2E1,1.5E1,6E0,1.2E1,1.8E1,4E0,1.4E1,1.8E1,6E0,1.2E1,9E0,1E0,2.7312168E-1,7E0,2E0,1.3794588E-1,1.8E1,4E0,6E0,2E1,6E0,6E0,6E0,3E-1,1.5E-1,6E0,3E0,3E0,3E0,9E0,2E0,1.6E1,6E0,3.3467495E-1,3.9304793E-1,4.0032282E-1,6E0,3E-1,1.2E1,9E0,2.3E1,4.5E-1,1.3E1,8.408128E-2,3E0,1E1,2E0,6E0,2.1E1,1E1,1.2E1,1.2E1,9E0,6.4210266E-1,4E0,7.3551947E-1,1.2E1,1.8E1,-4.460238E-3,-8.985362E-3,-1.0064228E-2,-6.0677426E-3,-2.4578042E-4,5.8989814E-3,1.5657604E-2,7.7887103E-3,7.784739E-4,5.4942593E-3,1.2462034E-2,3.3772264E-3,1.7716581E-2,6.7486092E-3,-1.0109348E-2,-6.181679E-3,7.969883E-5,1.0974489E-2,-9.479839E-3,-4.4855224E-3,-1.0258815E-2,-6.858428E-3,-6.9947895E-3,-1.0117954E-2,1.8637651E-3,-9.537273E-3,1.183248E-2,6.485899E-3,-8.828289E-3,-1.873309E-3,-2.764069E-3,-1.3125085E-2,-6.6536614E-3,-1.8608954E-3,-8.858497E-3,-7.2880713E-3,-1.2607864E-2,-9.844896E-3,-7.1263323E-3,-9.593523E-3,-7.344817E-3,-1.2624817E-3,-1.1954726E-2,-1.0362322E-2,-5.5640345E-3,-9.417936E-3,9.781657E-3,1.591207E-3,-2.9819345E-3,2.320501E-3,-3.0234212E-3,-9.777759E-3,-3.1676015E-3,-6.627786E-3,-1.2523283E-2,-6.6040438E-3,-9.434945E-3,-6.6962326E-3,-1.1204427E-2,-4.8302794E-3,-6.1101518E-3,-1.0196654E-2,-3.8601812E-3,1.10252695E-2],"split_indices":[2,1,6,1,7,7,1,7,7,1,2,1,1,2,7,0,1,6,1,7,6,1,0,2,1,1,2,7,4,4,2,2,2,0,0,7,1,1,6,6,6,7,4,0,0,1,4,0,6,0,0,1,2,1,0,1,1,0,6,0,6,0,1,0,0,0,0,0,0,0,0,0,0,0,0,0,0,0,0,0,0,0,0,0,0,0,0,0,0,0,0,0,0,0,0,0,0,0,0,0,0,0,0,0,0,0,0,0,0,0,0,0,0,0,0,0,0,0,0,0,0,0,0,0,0,0,0],"split_type":[0,0,0,0,0,0,0,0,0,0,0,0,0,0,0,0,0,0,0,0,0,0,0,0,0,0,0,0,0,0,0,0,0,0,0,0,0,0,0,0,0,0,0,0,0,0,0,0,0,0,0,0,0,0,0,0,0,0,0,0,0,0,0,0,0,0,0,0,0,0,0,0,0,0,0,0,0,0,0,0,0,0,0,0,0,0,0,0,0,0,0,0,0,0,0,0,0,0,0,0,0,0,0,0,0,0,0,0,0,0,0,0,0,0,0,0,0,0,0,0,0,0,0,0,0,0,0],"sum_hessian":[3.86298E5,2.82618E5,1.0368E5,2.0025E5,8.2368E4,5.1145E4,5.2535E4,3.492E4,1.6533E5,6.6456E4,1.5912E4,4.0916E4,1.0229E4,3.4565E4,1.797E4,2.1312E4,1.3608E4,1.323E5,3.303E4,9.504E3,5.6952E4,1.2888E4,3.024E3,2.3272E4,1.7644E4,7.062E3,3.167E3,1.8255E4,1.631E4,1.4376E4,3.594E3,1.0656E4,1.0656E4,4.536E3,9.072E3,5.1966E4,8.0334E4,9.27E3,2.376E4,2.376E3,7.128E3,2.5388E4,3.1564E4,1.872E3,1.1016E4,6.72E2,2.352E3,1.0932E4,1.234E4,9.112E3,8.532E3,2.989E3,4.073E3,1.579E3,1.588E3,1.0953E4,7.302E3,1.379E4,2.52E3,9.624E3,4.752E3,1.844E3,1.75E3,6.768E3,3.888E3,6.768E3,3.888E3,7.56E2,3.78E3,4.536E3,4.536E3,1.308E4,3.8886E4,7.129E4,9.044E3,6.894E3,2.376E3,1.0036E4,1.3724E4,9.22E2,1.454E3,2.895E3,4.233E3,1.9071E4,6.317E3,2.6836E4,4.728E3,1.248E3,6.24E2,5.508E3,5.508E3,5.76E2,9.6E1,2.28E3,7.2E1,8.068E3,2.864E3,7.228E3,5.112E3,1.836E3,7.276E3,4.332E3,4.2E3,1.106E3,1.883E3,1.89E3,2.183E3,8.33E2,7.46E2,8.09E2,7.79E2,8.208E3,2.745E3,5.472E3,1.83E3,8.125E3,5.665E3,1.21E3,1.31E3,1.788E3,7.836E3,3.772E3,9.8E2,1.249E3,5.95E2,7.46E2,1.004E3],"tree_param":{"num_deleted":"0","num_feature":"8","num_nodes":"127","size_leaf_vector":"1"}},{"base_weights":[-5.264853E-7,2.6291268E-2,-7.166805E-2,6.1237786E-2,-5.8669105E-2,-8.646954E-2,-5.725682E-2,2.9834922E-2,9.4830886E-2,-8.7380715E-2,6.124204E-2,-9.171168E-2,-6.5494075E-2,-4.647014E-2,-7.800109E-2,-2.5281794E-2,4.3651704E-2,1.2720902E-1,-3.4874152E-2,-3.6785632E-2,-9.5823094E-2,8.6799994E-2,-4.7676217E-2,-7.969278E-2,-1.090847E-1,-9.077171E-2,-9.117355E-3,-3.3107884E-2,-6.1422925E-2,-9.3085535E-2,-1.765418E-2,-9.389961E-2,8.30159E-2,5.254096E-2,-3.5756186E-2,2.1020896E-3,1.390435E-1,1.6760193E-1,-7.4892975E-2,7.761366E-2,-7.492427E-2,-1.2142726E-1,-9.069981E-2,1.3871233E-2,1.1625278E-1,-9.0164185E-2,-3.550364E-2,-6.220219E-2,-9.506304E-2,-1.2276225E-1,-9.5932946E-2,-4.0422983E-2,-1.2770149E-1,-8.499014E-2,6.6331424E-2,-1.9009188E-2,-5.4250427E-2,-4.4010293E-2,-8.501137E-2,-8.287038E-2,-1.1375202E-1,-8.549463E-2,5.3838275E-2,-7.982871E-3,-4.445697E-3,4.4230614E-3,1.1513056E-2,6.0393065E-3,1.8431339E-3,-1.977993E-3,-6.3983337E-3,-4.34542E-3,4.789527E-3,1.2933574E-2,5.692775E-3,1.9282638E-3,1.440915E-2,-1.3505552E-3,-6.5420615E-3,-6.491734E-4,9.734741E-3,-9.098476E-3,-4.3348516E-3,-8.14189E-3,-1.2855197E-2,-5.3674583E-3,-8.514769E-3,4.315818E-3,-2.8981376E-3,1.2204167E-2,4.942167E-3,-8.123251E-3,-1.7249888E-3,-3.408556E-3,2.7976315E-3,-6.499955E-3,-2.4052204E-3,-6.7070425E-3,-8.263875E-3,-1.1949442E-2,-9.304546E-3,-6.556357E-3,-8.826225E-3,-6.7577627E-3,-1.1615363E-3,-1.0998854E-2,-9.533715E-3,-5.1194453E-3,-8.665509E-3,9.486554E-3,1.8760615E-3,-2.7434092E-3,2.1349287E-3,-2.7815923E-3,-8.995966E-3,-5.8935117E-3,-2.1089471E-3,-7.825635E-3,-4.3782424E-3,-8.680572E-3,-6.160603E-3,-1.030831E-2,-4.444252E-3,-5.62173E-3,-9.38229E-3,-3.5517805E-3,1.0144125E-2],"categories":[],"categories_nodes":[],"categories_segments":[],"categories_sizes":[],"default_left":[0,0,0,0,0,0,0,0,0,0,0,0,0,0,0,0,0,0,0,0,0,0,0,0,0,0,0,0,0,0,0,0,0,0,0,0,0,0,0,0,0,0,0,0,0,0,0,0,0,0,0,0,0,0,0,0,0,0,0,0,0,0,0,0,0,0,0,0,0,0,0,0,0,0,0,0,0,0,0,0,0,0,0,0,0,0,0,0,0,0,0,0,0,0,0,0,0,0,0,0,0,0,0,0,0,0,0,0,0,0,0,0,0,0,0,0,0,0,0,0,0,0,0,0,0,0,0],"id":1,"left_children":[1,3,5,7,9,11,13,15,17,19,21,23,25,27,29,31,33,35,37,39,41,43,45,47,49,51,53,55,57,59,61,63,65,67,69,71,73,75,77,79,81,83,85,87,89,91,93,95,97,99,101,103,105,107,109,111,113,115,117,119,121,123,125,-1,-1,-1,-1,-1,-1,-1,-1,-1,-1,-1,-1,-1,-1,-1,-1,-1,-1,-1,-1,-1,-1,-1,-1,-1,-1,-1,-1,-1,-1,-1,-1,-1,-1,-1,-1,-1,-1,-1,-1,-1,-1,-1,-1,-1,-1,-1,-1,-1,-1,-1,-1,-1,-1,-1,-1,-1,-1,-1,-1,-1,-1,-1,-1],"loss_changes":[7.278927E2,8.391189E2,2.2111023E1,2.1124591E2,2.835888E2,5.6178284E0,1.1751923E1,7.882081E1,4.063205E2,2.8383087E1,4.43016E1,8.534973E0,1.4577641E1,6.9043503E0,1.6357353E1,1.5417445E2,5.8417435E1,1.14631836E2,1.5662454E2,4.1476433E1,7.459961E0,2.7683372E1,1.5612931E0,6.496933E0,2.9974823E0,1.3127548E1,1.814088E1,5.440756E0,6.6957893E0,3.0257187E0,1.7440641E1,2.8597183E0,1.35797E1,5.0389694E1,4.0626717E0,2.1813852E1,1.0863074E2,5.723358E0,6.442566E0,8.981534E0,5.7312355E0,7.308975E0,1.7621979E1,7.448701E0,1.8145378E1,5.230503E-1,1.1794004E0,6.924923E0,1.1813507E0,1.39048E0,1.7079544E0,3.4104738E0,3.236313E-1,7.670088E-1,3.5574303E0,7.651063E0,8.275867E0,4.9109573E0,2.6812515E0,1.4383316E0,4.170307E0,8.844576E-1,1.2556074E1,0E0,0E0,0E0,0E0,0E0,0E0,0E0,0E0,0E0,0E0,0E0,0E0,0E0,0E0,0E0,0E0,0E0,0E0,0E0,0E0,0E0,0E0,0E0,0E0,0E0,0E0,0E0,0E0,0E0,0E0,0E0,0E0,0E0,0E0,0E0,0E0,0E0,0E0,0E0,0E0,0E0,0E0,0E0,0E0,0E0,0E0,0E0,0E0,0E0,0E0,0E0,0E0,0E0,0E0,0E0,0E0,0E0,0E0,0E0,0E0,0E0,0E0,0E0,0E0],"parents":[2147483647,0,0,1,1,2,2,3,3,4,4,5,5,6,6,7,7,8,8,9,9,10,10,11,11,12,12,13,13,14,14,15,15,16,16,17,17,18,18,19,19,20,20,21,21,22,22,23,23,24,24,25,25,26,26,27,27,28,28,29,29,30,30,31,31,32,32,33,33,34,34,35,35,36,36,37,37,38,38,39,39,40,40,41,41,42,42,43,43,44,44,45,45,46,46,47,47,48,48,49,49,50,50,51,51,52,52,53,53,54,54,55,55,56,56,57,57,58,58,59,59,60,60,61,61,62,62],"right_children":[2,4,6,8,10,12,14,16,18,20,22,24,26,28,30,32,34,36,38,40,42,44,46,48,50,52,54,56,58,60,62,64,66,68,70,72,74,76,78,80,82,84,86,88,90,92,94,96,98,100,102,104,106,108,110,112,114,116,118,120,122,124,126,-1,-1,-1,-1,-1,-1,-1,-1,-1,-1,-1,-1,-1,-1,-1,-1,-1,-1,-1,-1,-1,-1,-1,-1,-1,-1,-1,-1,-1,-1,-1,-1,-1,-1,-1,-1,-1,-1,-1,-1,-1,-1,-1,-1,-1,-1,-1,-1,-1,-1,-1,-1,-1,-1,-1,-1,-1,-1,-1,-1,-1,-1,-1,-1],"split_conditions":[5E0,1.7E1,1.22003704E-1,2.961785E-1,1.2E1,1.2E1,1.5E1,2E0,1.2E1,1.8E1,4E0,1.5E1,1.8E1,6E0,1.2E1,6E0,1.7E1,5E0,7E0,2E0,3E0,1.9E1,4E0,6E0,2E1,6E0,6E0,6E0,9E0,1.5E-1,6E0,1.5610568E-1,1.157649E-1,7E0,1.2E1,3E0,6E0,1E0,8E0,3.708482E-1,3.746286E-1,2E0,9E0,1E1,2.2E1,2.3E1,5.864926E-1,1.1E1,9E0,3E0,1E1,2E0,6E0,2.1E1,9E0,1.2E1,1.2E1,4E0,1.2E1,4E0,7.3551947E-1,1.2E1,1.8E1,-7.982871E-3,-4.445697E-3,4.4230614E-3,1.1513056E-2,6.0393065E-3,1.8431339E-3,-1.977993E-3,-6.3983337E-3,-4.34542E-3,4.789527E-3,1.2933574E-2,5.692775E-3,1.9282638E-3,1.440915E-2,-1.3505552E-3,-6.5420615E-3,-6.491734E-4,9.734741E-3,-9.098476E-3,-4.3348516E-3,-8.14189E-3,-1.2855197E-2,-5.3674583E-3,-8.514769E-3,4.315818E-3,-2.8981376E-3,1.2204167E-2,4.942167E-3,-8.123251E-3,-1.7249888E-3,-3.408556E-3,2.7976315E-3,-6.499955E-3,-2.4052204E-3,-6.7070425E-3,-8.263875E-3,-1.1949442E-2,-9.304546E-3,-6.556357E-3,-8.826225E-3,-6.7577627E-3,-1.1615363E-3,-1.0998854E-2,-9.533715E-3,-5.1194453E-3,-8.665509E-3,9.486554E-3,1.8760615E-3,-2.7434092E-3,2.1349287E-3,-2.7815923E-3,-8.995966E-3,-5.8935117E-3,-2.1089471E-3,-7.825635E-3,-4.3782424E-3,-8.680572E-3,-6.160603E-3,-1.030831E-2,-4.444252E-3,-5.62173E-3,-9.38229E-3,-3.5517805E-3,1.0144125E-2],"split_indices":[2,1,6,6,7,7,1,1,7,1,2,1,1,2,7,7,0,1,1,7,0,1,0,2,1,1,2,7,0,4,2,6,6,1,7,7,7,1,1,6,6,0,0,0,1,1,6,0,0,0,0,1,2,1,0,1,1,0,1,0,6,0,1,0,0,0,0,0,0,0,0,0,0,0,0,0,0,0,0,0,0,0,0,0,0,0,0,0,0,0,0,0,0,0,0,0,0,0,0,0,0,0,0,0,0,0,0,0,0,0,0,0,0,0,0,0,0,0,0,0,0,0,0,0,0,0,0],"split_type":[0,0,0,0,0,0,0,0,0,0,0,0,0,0,0,0,0,0,0,0,0,0,0,0,0,0,0,0,0,0,0,0,0,0,0,0,0,0,0,0,0,0,0,0,0,0,0,0,0,0,0,0,0,0,0,0,0,0,0,0,0,0,0,0,0,0,0,0,0,0,0,0,0,0,0,0,0,0,0,0,0,0,0,0,0,0,0,0,0,0,0,0,0,0,0,0,0,0,0,0,0,0,0,0,0,0,0,0,0,0,0,0,0,0,0,0,0,0,0,0,0,0,0,0,0,0,0],"sum_hessian":[3.86298E5,2.82618E5,1.0368E5,2.0025E5,8.2368E4,5.1145E4,5.2535E4,1.035E5,9.675E4,6.6456E4,1.5912E4,4.0916E4,1.0229E4,3.4565E4,1.797E4,2.0745E4,8.2755E4,7.7423E4,1.9327E4,9.504E3,5.6952E4,1.2888E4,3.024E3,2.4188E4,1.6728E4,7.062E3,3.167E3,1.8255E4,1.631E4,1.4376E4,3.594E3,1.2699E4,8.046E3,7.4424E4,8.331E3,6.691E3,7.0732E4,3.189E3,1.6138E4,2.376E3,7.128E3,9.492E3,4.746E4,3.708E3,9.18E3,6.72E2,2.352E3,1.1316E4,1.2872E4,8.196E3,8.532E3,2.989E3,4.073E3,1.579E3,1.588E3,1.0953E4,7.302E3,9.385E3,6.925E3,9.624E3,4.752E3,1.844E3,1.75E3,1.1007E4,1.692E3,5.53E3,2.516E3,4.1859E4,3.2565E4,6.669E3,1.662E3,3.385E3,3.306E3,5.3049E4,1.7683E4,2.56E2,2.933E3,1.712E3,1.4426E4,8.07E2,1.569E3,2.481E3,4.647E3,6.328E3,3.164E3,1.8984E4,2.8476E4,2.06E3,1.648E3,5.508E3,3.672E3,5.76E2,9.6E1,2.137E3,2.15E2,7.104E3,4.212E3,5.452E3,7.42E3,1.596E3,6.6E3,4.332E3,4.2E3,1.106E3,1.883E3,1.89E3,2.183E3,8.33E2,7.46E2,7.15E2,8.73E2,8.208E3,2.745E3,5.472E3,1.83E3,3.5E3,5.885E3,4.865E3,2.06E3,1.788E3,7.836E3,3.772E3,9.8E2,1.249E3,5.95E2,7.46E2,1.004E3],"tree_param":{"num_deleted":"0","num_feature":"8","num_nodes":"127","size_leaf_vector":"1"}},{"base_weights":[-9.0518273E-7,2.4187963E-2,-6.593616E-2,5.6338914E-2,-5.397596E-2,-7.819782E-2,-5.1058277E-2,-9.958201E-3,7.0341766E-2,-8.039085E-2,5.634318E-2,-9.7565204E-2,-7.369362E-2,-4.1035324E-2,-7.0720084E-2,-8.151409E-2,1.02105916E-1,9.191717E-2,-1.6077604E-2,-3.3843245E-2,-8.815786E-2,7.985743E-2,-4.386558E-2,-7.199987E-2,-1.3220948E-1,-2.8116379E-2,-8.091114E-2,-3.009825E-2,-5.7437193E-2,-8.49342E-2,-1.3854745E-2,-6.734593E-2,-9.56746E-2,7.472473E-2,1.5683976E-1,4.03043E-2,1.1909679E-1,1.6392569E-1,-8.63101E-2,7.140838E-2,-6.893222E-2,-1.0166905E-1,-7.9439E-2,1.2761909E-2,1.0695442E-1,-9.089353E-2,-3.442767E-2,-9.486201E-2,-3.690752E-2,-1.362369E-1,-1.1596789E-1,-6.4038545E-2,9.6122804E-4,-1.1876146E-1,-7.615053E-2,-5.1672757E-2,1.0575059E-2,-4.5937244E-2,-1.08663805E-1,-7.306004E-2,-1.0465495E-1,-7.707139E-2,5.465642E-2,-3.8576536E-3,-8.049367E-3,-8.9945495E-3,-5.31865E-3,3.7513485E-3,8.671802E-3,9.237756E-3,1.6441606E-2,-3.498371E-4,4.4280663E-3,1.0430515E-2,2.0285666E-3,1.5748052E-2,5.468063E-3,-9.852337E-3,-5.512162E-3,-8.2550227E-4,8.858025E-3,-2.4829663E-3,-7.029542E-3,-8.968576E-3,-5.611431E-3,-5.986004E-3,-8.686957E-3,3.97072E-3,-2.666428E-3,1.122801E-2,4.5469007E-3,-5.359744E-3,-1.10406205E-2,-2.4702703E-3,-1.2242193E-2,-8.030471E-3,-5.814545E-3,-4.9083796E-3,-1.6462841E-3,-1.1269383E-2,-9.463265E-3,-1.05346395E-2,-5.056672E-3,-5.938987E-3,-1.854733E-3,-1.0076737E-3,4.4104145E-3,-9.740358E-3,-8.533283E-3,-1.6617218E-3,-6.7044E-3,-2.5316316E-3,-6.0655754E-3,3.8557355E-3,-8.9454773E-4,-7.813614E-4,-4.597884E-3,-1.0835688E-2,-6.5428815E-3,-6.525591E-3,-4.7092577E-3,-9.572355E-3,-4.3834564E-3,-4.869164E-3,-8.826873E-3,-2.710316E-3,9.817656E-3],"categories":[],"categories_nodes":[],"categories_segments":[],"categories_sizes":[],"default_left":[0,0,0,0,0,0,0,0,0,0,0,0,0,0,0,0,0,0,0,0,0,0,0,0,0,0,0,0,0,0,0,0,0,0,0,0,0,0,0,0,0,0,0,0,0,0,0,0,0,0,0,0,0,0,0,0,0,0,0,0,0,0,0,0,0,0,0,0,0,0,0,0,0,0,0,0,0,0,0,0,0,0,0,0,0,0,0,0,0,0,0,0,0,0,0,0,0,0,0,0,0,0,0,0,0,0,0,0,0,0,0,0,0,0,0,0,0,0,0,0,0,0,0,0,0,0,0],"id":2,"left_children":[1,3,5,7,9,11,13,15,17,19,21,23,25,27,29,31,33,35,37,39,41,43,45,47,49,51,53,55,57,59,61,63,65,67,69,71,73,75,77,79,81,83,85,87,89,91,93,95,97,99,101,103,105,107,109,111,113,115,117,119,121,123,125,-1,-1,-1,-1,-1,-1,-1,-1,-1,-1,-1,-1,-1,-1,-1,-1,-1,-1,-1,-1,-1,-1,-1,-1,-1,-1,-1,-1,-1,-1,-1,-1,-1,-1,-1,-1,-1,-1,-1,-1,-1,-1,-1,-1,-1,-1,-1,-1,-1,-1,-1,-1,-1,-1,-1,-1,-1,-1,-1,-1,-1,-1,-1,-1],"loss_changes":[6.161096E2,7.102371E2,1.8910278E1,1.8590338E2,2.4003339E2,4.950897E0,9.228996E0,2.8003445E2,3.0826672E2,2.402359E1,3.749984E1,9.485992E0,1.516777E1,5.5648766E0,1.2782745E1,4.2695465E0,2.038379E1,1.8558948E2,4.175948E2,3.510852E1,6.7011414E0,2.3431953E1,1.3395033E0,4.947407E0,2.8189087E-1,6.586871E0,7.1644897E0,1.6338844E1,7.3075485E0,2.955284E0,1.3707643E1,6.7764015E0,5.205597E0,8.498226E0,9.112869E0,3.0680504E1,9.167041E1,2.9160538E1,1.5231461E1,7.6390686E0,5.113201E0,7.341675E0,4.647827E0,6.305166E0,1.5358559E1,5.593214E-1,1.0564766E0,4.5002365E-1,9.7118354E-1,2.8588867E-1,7.4700546E-1,1.1736927E0,2.5607312E0,1.4796066E-1,1.4989807E1,5.881069E0,5.2833343E0,4.23015E0,1.6265774E0,9.495659E-1,3.548214E0,8.806639E-1,9.1578E0,0E0,0E0,0E0,0E0,0E0,0E0,0E0,0E0,0E0,0E0,0E0,0E0,0E0,0E0,0E0,0E0,0E0,0E0,0E0,0E0,0E0,0E0,0E0,0E0,0E0,0E0,0E0,0E0,0E0,0E0,0E0,0E0,0E0,0E0,0E0,0E0,0E0,0E0,0E0,0E0,0E0,0E0,0E0,0E0,0E0,0E0,0E0,0E0,0E0,0E0,0E0,0E0,0E0,0E0,0E0,0E0,0E0,0E0,0E0,0E0,0E0,0E0,0E0,0E0],"parents":[2147483647,0,0,1,1,2,2,3,3,4,4,5,5,6,6,7,7,8,8,9,9,10,10,11,11,12,12,13,13,14,14,15,15,16,16,17,17,18,18,19,19,20,20,21,21,22,22,23,23,24,24,25,25,26,26,27,27,28,28,29,29,30,30,31,31,32,32,33,33,34,34,35,35,36,36,37,37,38,38,39,39,40,40,41,41,42,42,43,43,44,44,45,45,46,46,47,47,48,48,49,49,50,50,51,51,52,52,53,53,54,54,55,55,56,56,57,57,58,58,59,59,60,60,61,61,62,62],"right_children":[2,4,6,8,10,12,14,16,18,20,22,24,26,28,30,32,34,36,38,40,42,44,46,48,50,52,54,56,58,60,62,64,66,68,70,72,74,76,78,80,82,84,86,88,90,92,94,96,98,100,102,104,106,108,110,112,114,116,118,120,122,124,126,-1,-1,-1,-1,-1,-1,-1,-1,-1,-1,-1,-1,-1,-1,-1,-1,-1,-1,-1,-1,-1,-1,-1,-1,-1,-1,-1,-1,-1,-1,-1,-1,-1,-1,-1,-1,-1,-1,-1,-1,-1,-1,-1,-1,-1,-1,-1,-1,-1,-1,-1,-1,-1,-1,-1,-1,-1,-1,-1,-1,-1,-1,-1,-1],"split_conditions":[5E0,1.7E1,1.3379265E-1,3E0,1.2E1,3E0,1.5E1,6E0,1.2E1,1.8E1,4E0,2E0,6E0,6E0,1.2E1,9E0,2E0,2.527287E-1,7E0,2E0,1.246588E-1,1.9E1,3E0,1E0,1.2E1,4E0,7E0,1.1E1,1.3E1,1.5E-1,6E0,3E0,3E0,1.03777856E-1,1.157649E-1,2E0,1.6E1,6E0,2.961785E-1,3.6429253E-1,3E0,6E0,3E-1,1E1,2.2E1,2E0,4.5E-1,1.2E1,3E0,9.577598E-2,1.9E1,1.2E1,1.2E1,1.2E1,9E0,6E0,6E0,4E0,1.2E1,2E1,7.1967226E-1,1.2E1,1.8E1,-3.8576536E-3,-8.049367E-3,-8.9945495E-3,-5.31865E-3,3.7513485E-3,8.671802E-3,9.237756E-3,1.6441606E-2,-3.498371E-4,4.4280663E-3,1.0430515E-2,2.0285666E-3,1.5748052E-2,5.468063E-3,-9.852337E-3,-5.512162E-3,-8.2550227E-4,8.858025E-3,-2.4829663E-3,-7.029542E-3,-8.968576E-3,-5.611431E-3,-5.986004E-3,-8.686957E-3,3.97072E-3,-2.666428E-3,1.122801E-2,4.5469007E-3,-5.359744E-3,-1.10406205E-2,-2.4702703E-3,-1.2242193E-2,-8.030471E-3,-5.814545E-3,-4.9083796E-3,-1.6462841E-3,-1.1269383E-2,-9.463265E-3,-1.05346395E-2,-5.056672E-3,-5.938987E-3,-1.854733E-3,-1.0076737E-3,4.4104145E-3,-9.740358E-3,-8.533283E-3,-1.6617218E-3,-6.7044E-3,-2.5316316E-3,-6.0655754E-3,3.8557355E-3,-8.9454773E-4,-7.813614E-4,-4.597884E-3,-1.0835688E-2,-6.5428815E-3,-6.525591E-3,-4.7092577E-3,-9.572355E-3,-4.3834564E-3,-4.869164E-3,-8.826873E-3,-2.710316E-3,9.817656E-3],"split_indices":[2,1,6,1,7,0,1,7,7,1,2,0,0,7,7,0,1,6,1,7,6,1,0,0,7,0,0,1,1,4,2,2,2,6,6,7,1,1,6,6,7,7,4,0,1,0,4,7,7,6,1,7,7,7,0,2,0,1,7,1,6,0,1,0,0,0,0,0,0,0,0,0,0,0,0,0,0,0,0,0,0,0,0,0,0,0,0,0,0,0,0,0,0,0,0,0,0,0,0,0,0,0,0,0,0,0,0,0,0,0,0,0,0,0,0,0,0,0,0,0,0,0,0,0,0,0,0],"split_type":[0,0,0,0,0,0,0,0,0,0,0,0,0,0,0,0,0,0,0,0,0,0,0,0,0,0,0,0,0,0,0,0,0,0,0,0,0,0,0,0,0,0,0,0,0,0,0,0,0,0,0,0,0,0,0,0,0,0,0,0,0,0,0,0,0,0,0,0,0,0,0,0,0,0,0,0,0,0,0,0,0,0,0,0,0,0,0,0,0,0,0,0,0,0,0,0,0,0,0,0,0,0,0,0,0,0,0,0,0,0,0,0,0,0,0,0,0,0,0,0,0,0,0,0,0,0,0],"sum_hessian":[3.86298E5,2.82618E5,1.0368E5,2.0025E5,8.2368E4,5.6835E4,4.6845E4,3.492E4,1.6533E5,6.6456E4,1.5912E4,1.072E4,4.6115E4,3.103E4,1.5815E4,2.1312E4,1.3608E4,1.323E5,3.303E4,9.504E3,5.6952E4,1.2888E4,3.024E3,6.17E3,4.55E3,6.305E3,3.981E4,1.8618E4,1.2412E4,1.2652E4,3.163E3,1.0656E4,1.0656E4,9.072E3,4.536E3,4.5638E4,8.6662E4,9.27E3,2.376E4,2.376E3,7.128E3,2.2333E4,3.4619E4,3.708E3,9.18E3,5.04E2,2.52E3,3.735E3,2.435E3,3.64E3,9.1E2,2.82E3,3.485E3,4.445E3,3.5365E4,1.2165E4,6.453E3,1.0138E4,2.274E3,7.9E3,4.752E3,1.645E3,1.518E3,6.768E3,3.888E3,6.768E3,3.888E3,4.968E3,4.104E3,2.454E3,2.082E3,1.1498E4,3.414E4,7.735E4,9.312E3,6.894E3,2.376E3,7.622E3,1.6138E4,7.72E2,1.604E3,2.376E3,4.752E3,1.6776E4,5.557E3,2.9891E4,4.728E3,2.06E3,1.648E3,5.508E3,3.672E3,3.36E2,1.68E2,2.448E3,7.2E1,2.988E3,7.47E2,9.74E2,1.461E3,2.888E3,7.52E2,7E2,2.1E2,2.256E3,5.64E2,2.788E3,6.97E2,3.556E3,8.89E2,4.295E3,3.107E4,6.651E3,5.514E3,2.364E3,4.089E3,2.452E3,7.686E3,1.137E3,1.137E3,4.936E3,2.964E3,3.652E3,1.1E3,1.108E3,5.37E2,6.6E2,8.58E2],"tree_param":{"num_deleted":"0","num_feature":"8","num_nodes":"127","size_leaf_vector":"1"}},{"base_weights":[-1.2429275E-6,2.2252891E-2,-6.0662705E-2,5.183197E-2,-4.9658425E-2,-7.098307E-2,-4.550518E-2,-9.161206E-3,6.471456E-2,-7.396004E-2,5.1834844E-2,-8.898543E-2,-6.6886514E-2,-3.358734E-2,-6.255977E-2,-7.49942E-2,9.394025E-2,8.4563926E-2,-1.4791224E-2,-3.113594E-2,-8.110575E-2,7.347016E-2,-4.036661E-2,-6.671202E-2,-1.2191493E-1,-2.6453726E-2,-7.350594E-2,-1.8310715E-2,-5.0276827E-2,-7.045309E-2,-1.9658042E-2,-9.434417E-2,-6.526413E-2,6.874813E-2,1.4429823E-1,3.2551434E-2,1.0749776E-1,1.5081392E-1,-7.940595E-2,6.569909E-2,-6.341898E-2,-1.0452846E-1,-7.64191E-2,-2.4439376E-2,9.010909E-2,-7.691708E-2,-2.9895365E-2,-8.858197E-2,-3.4225263E-2,-1.2550311E-1,-1.0744177E-1,-5.923995E-2,1.2784943E-4,-1.0985143E-1,-6.913797E-2,-5.4347035E-2,-6.2122004E-4,-6.099861E-2,-3.0278882E-2,-6.1716728E-2,-1.1195749E-1,4.672476E-3,-5.442015E-2,-9.141815E-3,-6.748637E-3,-6.2510436E-3,-3.521712E-3,3.5764922E-3,8.147373E-3,1.5078954E-2,8.0036735E-3,-1.0312069E-3,3.8299307E-3,1.0919657E-2,5.8827936E-3,1.4488391E-2,5.030802E-3,-9.0642525E-3,-5.071218E-3,-3.8221187E-5,8.610734E-3,-7.432063E-3,-3.1917049E-3,-6.9298493E-3,-1.1224037E-2,-4.3935357E-3,-7.259995E-3,1.2369233E-3,-8.33106E-3,9.585474E-3,4.830672E-3,-6.326735E-4,-7.070791E-3,-2.9348128E-3,2.9959567E-3,-7.4632256E-3,-5.5725854E-3,-4.254374E-3,-1.7251511E-3,-9.541949E-3,-1.08361365E-2,-9.740397E-3,-4.7091353E-3,-5.4045073E-3,-2.0736214E-3,-1.0257612E-3,4.150197E-3,-9.290346E-3,-8.45007E-3,-1.7624472E-3,-6.081022E-3,-8.318241E-3,-3.6482129E-3,1.0611889E-3,-1.9974408E-3,-4.286268E-3,-6.1939424E-3,-1.4307149E-3,-4.3190573E-3,-3.9203507E-3,-6.82758E-3,-1.0205111E-2,-3.952299E-3,2.144933E-3,-2.720187E-3,2.313253E-5,-7.267082E-3],"categories":[],"categories_nodes":[],"categories_segments":[],"categories_sizes":[],"default_left":[0,0,0,0,0,0,0,0,0,0,0,0,0,0,0,0,0,0,0,0,0,0,0,0,0,0,0,0,0,0,0,0,0,0,0,0,0,0,0,0,0,0,0,0,0,0,0,0,0,0,0,0,0,0,0,0,0,0,0,0,0,0,0,0,0,0,0,0,0,0,0,0,0,0,0,0,0,0,0,0,0,0,0,0,0,0,0,0,0,0,0,0,0,0,0,0,0,0,0,0,0,0,0,0,0,0,0,0,0,0,0,0,0,0,0,0,0,0,0,0,0,0,0,0,0,0,0],"id":3,"left_children":[1,3,5,7,9,11,13,15,17,19,21,23,25,27,29,31,33,35,37,39,41,43,45,47,49,51,53,55,57,59,61,63,65,67,69,71,73,75,77,79,81,83,85,87,89,91,93,95,97,99,101,103,105,107,109,111,113,115,117,119,121,123,125,-1,-1,-1,-1,-1,-1,-1,-1,-1,-1,-1,-1,-1,-1,-1,-1,-1,-1,-1,-1,-1,-1,-1,-1,-1,-1,-1,-1,-1,-1,-1,-1,-1,-1,-1,-1,-1,-1,-1,-1,-1,-1,-1,-1,-1,-1,-1,-1,-1,-1,-1,-1,-1,-1,-1,-1,-1,-1,-1,-1,-1,-1,-1,-1],"loss_changes":[5.2149274E2,6.011532E2,1.6215698E1,1.5734778E2,2.0316292E2,4.5429077E0,8.5347595E0,2.3703253E2,2.609167E2,2.0333893E1,3.1746338E1,8.375946E0,1.3447311E1,6.303196E0,5.8489075E0,4.0065765E0,1.7254776E1,1.578111E2,3.5346124E2,2.9718018E1,6.2439575E0,2.0999794E1,1.1554556E0,4.8431816E0,2.2598267E-1,6.1624513E0,6.8476562E0,8.230268E0,2.531664E0,5.283745E0,2.2720194E0,1.409111E0,3.8758354E0,7.214344E0,8.853027E0,2.819048E1,9.041528E1,2.4681458E1,1.289238E1,6.5965376E0,4.9401875E0,6.068199E0,1.4618286E1,5.95786E0,9.722221E0,5.3189826E-1,1.0773015E0,3.5668564E-1,6.578369E-1,2.1244812E-1,6.345949E-1,8.7554646E-1,2.618273E0,1.10580444E-1,1.2483231E1,1.8401575E0,2.928455E0,9.3325424E-1,1.2115664E0,3.6170502E0,2.4694366E0,1.3546096E0,2.2036479E0,0E0,0E0,0E0,0E0,0E0,0E0,0E0,0E0,0E0,0E0,0E0,0E0,0E0,0E0,0E0,0E0,0E0,0E0,0E0,0E0,0E0,0E0,0E0,0E0,0E0,0E0,0E0,0E0,0E0,0E0,0E0,0E0,0E0,0E0,0E0,0E0,0E0,0E0,0E0,0E0,0E0,0E0,0E0,0E0,0E0,0E0,0E0,0E0,0E0,0E0,0E0,0E0,0E0,0E0,0E0,0E0,0E0,0E0,0E0,0E0,0E0,0E0,0E0,0E0],"parents":[2147483647,0,0,1,1,2,2,3,3,4,4,5,5,6,6,7,7,8,8,9,9,10,10,11,11,12,12,13,13,14,14,15,15,16,16,17,17,18,18,19,19,20,20,21,21,22,22,23,23,24,24,25,25,26,26,27,27,28,28,29,29,30,30,31,31,32,32,33,33,34,34,35,35,36,36,37,37,38,38,39,39,40,40,41,41,42,42,43,43,44,44,45,45,46,46,47,47,48,48,49,49,50,50,51,51,52,52,53,53,54,54,55,55,56,56,57,57,58,58,59,59,60,60,61,61,62,62],"right_children":[2,4,6,8,10,12,14,16,18,20,22,24,26,28,30,32,34,36,38,40,42,44,46,48,50,52,54,56,58,60,62,64,66,68,70,72,74,76,78,80,82,84,86,88,90,92,94,96,98,100,102,104,106,108,110,112,114,116,118,120,122,124,126,-1,-1,-1,-1,-1,-1,-1,-1,-1,-1,-1,-1,-1,-1,-1,-1,-1,-1,-1,-1,-1,-1,-1,-1,-1,-1,-1,-1,-1,-1,-1,-1,-1,-1,-1,-1,-1,-1,-1,-1,-1,-1,-1,-1,-1,-1,-1,-1,-1,-1,-1,-1,-1,-1,-1,-1,-1,-1,-1,-1,-1,-1,-1,-1],"split_conditions":[5E0,1.7E1,1.4531969E-1,3E0,1.2E1,3E0,1.5E-1,6E0,1.2E1,1.8E1,4E0,2E0,6E0,8E0,7.742198E-1,2E0,2E0,2.349319E-1,7E0,2E0,3E0,1.8E1,4E0,1E0,1.2E1,4E0,7E0,4E0,1.5E1,1.8E1,6E0,1E0,1.22003704E-1,1.0964411E-1,9E0,2E0,9E0,6E0,2.961785E-1,3.9304793E-1,4.1709444E-1,2E0,9E0,1.2E1,9E0,1.8E1,5.864926E-1,1.2E1,3E0,1.5E1,1.9E1,1.2E1,1.2E1,3E0,9E0,1E0,6E0,1.5E1,1.5E1,6E0,1.2E1,1E1,3E0,-9.141815E-3,-6.748637E-3,-6.2510436E-3,-3.521712E-3,3.5764922E-3,8.147373E-3,1.5078954E-2,8.0036735E-3,-1.0312069E-3,3.8299307E-3,1.0919657E-2,5.8827936E-3,1.4488391E-2,5.030802E-3,-9.0642525E-3,-5.071218E-3,-3.8221187E-5,8.610734E-3,-7.432063E-3,-3.1917049E-3,-6.9298493E-3,-1.1224037E-2,-4.3935357E-3,-7.259995E-3,1.2369233E-3,-8.33106E-3,9.585474E-3,4.830672E-3,-6.326735E-4,-7.070791E-3,-2.9348128E-3,2.9959567E-3,-7.4632256E-3,-5.5725854E-3,-4.254374E-3,-1.7251511E-3,-9.541949E-3,-1.08361365E-2,-9.740397E-3,-4.7091353E-3,-5.4045073E-3,-2.0736214E-3,-1.0257612E-3,4.150197E-3,-9.290346E-3,-8.45007E-3,-1.7624472E-3,-6.081022E-3,-8.318241E-3,-3.6482129E-3,1.0611889E-3,-1.9974408E-3,-4.286268E-3,-6.1939424E-3,-1.4307149E-3,-4.3190573E-3,-3.9203507E-3,-6.82758E-3,-1.0205111E-2,-3.952299E-3,2.144933E-3,-2.720187E-3,2.313253E-5,-7.267082E-3],"split_indices":[2,1,6,1,7,0,4,7,7,1,2,0,0,0,6,7,1,6,1,7,0,1,0,0,7,0,0,0,0,1,2,1,6,6,0,7,0,1,6,6,6,0,0,0,0,1,6,7,7,1,1,7,7,7,0,0,0,1,1,2,7,0,7,0,0,0,0,0,0,0,0,0,0,0,0,0,0,0,0,0,0,0,0,0,0,0,0,0,0,0,0,0,0,0,0,0,0,0,0,0,0,0,0,0,0,0,0,0,0,0,0,0,0,0,0,0,0,0,0,0,0,0,0,0,0,0,0],"split_type":[0,0,0,0,0,0,0,0,0,0,0,0,0,0,0,0,0,0,0,0,0,0,0,0,0,0,0,0,0,0,0,0,0,0,0,0,0,0,0,0,0,0,0,0,0,0,0,0,0,0,0,0,0,0,0,0,0,0,0,0,0,0,0,0,0,0,0,0,0,0,0,0,0,0,0,0,0,0,0,0,0,0,0,0,0,0,0,0,0,0,0,0,0,0,0,0,0,0,0,0,0,0,0,0,0,0,0,0,0,0,0,0,0,0,0,0,0,0,0,0,0,0,0,0,0,0,0],"sum_hessian":[3.86298E5,2.82618E5,1.0368E5,2.0025E5,8.2368E4,6.168E4,4.2E4,3.492E4,1.6533E5,6.6456E4,1.5912E4,1.143E4,5.025E4,2.4725E4,1.7275E4,2.1312E4,1.3608E4,1.323E5,3.303E4,9.504E3,5.6952E4,1.2888E4,3.024E3,6.82E3,4.61E3,7.07E3,4.318E4,1.291E4,1.1815E4,1.459E4,2.685E3,7.128E3,1.4184E4,9.072E3,4.536E3,4.0485E4,9.1815E4,9.27E3,2.376E4,2.376E3,7.128E3,9.492E3,4.746E4,1.872E3,1.1016E4,6.72E2,2.352E3,4.075E3,2.745E3,3.688E3,9.22E2,3.165E3,3.905E3,4.63E3,3.855E4,4.25E3,8.66E3,7.69E3,4.125E3,1.2055E4,2.535E3,1.58E3,1.105E3,2.376E3,4.752E3,8.83E3,5.354E3,5.256E3,3.816E3,2.268E3,2.268E3,1.0209E4,3.0276E4,4.9526E4,4.2289E4,6.894E3,2.376E3,7.622E3,1.6138E4,9.22E2,1.454E3,3.162E3,3.966E3,6.328E3,3.164E3,1.8984E4,2.8476E4,1.248E3,6.24E2,5.508E3,5.508E3,9.6E1,5.76E2,2.137E3,2.15E2,3.26E3,8.15E2,1.098E3,1.647E3,2.276E3,1.412E3,7.11E2,2.11E2,2.532E3,6.33E2,3.124E3,7.81E2,1.852E3,2.778E3,4.91E3,3.364E4,6.35E2,3.615E3,5.515E3,3.145E3,5.3E3,2.39E3,2.71E3,1.415E3,7.84E3,4.215E3,2.028E3,5.07E2,1.005E3,5.75E2,4.42E2,6.63E2],"tree_param":{"num_deleted":"0","num_feature":"8","num_nodes":"127","size_leaf_vector":"1"}},{"base_weights":[-1.5162586E-6,2.0472666E-2,-5.5811096E-2,5.071949E-2,-3.9980438E-2,-6.5305784E-2,-4.1866243E-2,1.9374331E-2,7.905914E-2,-5.791837E-2,3.4524646E-2,-8.18713E-2,-6.1536193E-2,-3.0901534E-2,-5.7556883E-2,-1.6077818E-2,4.3388803E-2,1.0535207E-1,-2.6274884E-2,-7.882015E-3,-7.461781E-2,-4.183943E-2,6.0788568E-2,-6.1377846E-2,-1.1216929E-1,-2.4338042E-2,-6.762606E-2,-1.684686E-2,-4.6256054E-2,-6.947698E-2,-3.3055298E-2,-7.886723E-2,3.4424234E-2,7.27652E-2,-9.697279E-3,-2.9671148E-3,1.16251945E-1,1.3477688E-1,-6.298873E-2,6.7339994E-2,-8.3103195E-2,-8.5525975E-2,-6.584157E-2,-3.285739E-2,-1.2243534E-1,8.290168E-2,-3.318788E-2,-8.149861E-2,-3.1489428E-2,-1.2041472E-1,-1.066308E-1,-5.450312E-2,1.1842704E-4,-1.0106714E-1,-6.360714E-2,-5.000208E-2,-5.7163805E-4,-5.612009E-2,-2.7857957E-2,-6.1448775E-2,-1.07241645E-1,-9.344546E-3,-5.791342E-2,-7.032556E-3,-4.625191E-3,-1.5582335E-3,3.761661E-3,3.4160204E-3,1.006514E-2,2.5286914E-3,-7.3840856E-3,-4.134847E-3,3.7494716E-3,1.1339712E-2,6.753877E-3,1.3508262E-2,7.087997E-3,-6.489022E-4,-5.6242677E-3,-1.075853E-4,1.0023944E-2,-8.952511E-3,-5.225533E-3,-7.561458E-3,-4.669419E-3,-4.8798067E-3,-7.4653765E-3,-5.0408305E-3,-4.6486082E-4,-1.2068814E-2,-7.2963866E-3,7.1836677E-3,-2.7403608E-3,-6.5061077E-3,-1.5520427E-3,-5.9218225E-3,-7.408249E-3,-3.1099129E-3,-1.5476193E-4,-9.432381E-3,-1.4378094E-2,-8.931585E-3,-7.166864E-3,-4.972318E-3,-1.9079938E-3,-9.437261E-4,3.8186067E-3,-7.98457E-3,-9.646982E-3,4.051643E-4,-5.409073E-3,-7.6538282E-3,-3.356436E-3,9.763082E-4,-1.8376963E-3,-3.9434317E-3,-5.698635E-3,-7.744561E-4,-3.525109E-3,-9.303083E-3,-4.518096E-3,-9.94549E-3,-3.103713E-3,2.1519086E-3,-2.6806712E-3,-1.5356769E-3,-7.6826047E-3],"categories":[],"categories_nodes":[],"categories_segments":[],"categories_sizes":[],"default_left":[0,0,0,0,0,0,0,0,0,0,0,0,0,0,0,0,0,0,0,0,0,0,0,0,0,0,0,0,0,0,0,0,0,0,0,0,0,0,0,0,0,0,0,0,0,0,0,0,0,0,0,0,0,0,0,0,0,0,0,0,0,0,0,0,0,0,0,0,0,0,0,0,0,0,0,0,0,0,0,0,0,0,0,0,0,0,0,0,0,0,0,0,0,0,0,0,0,0,0,0,0,0,0,0,0,0,0,0,0,0,0,0,0,0,0,0,0,0,0,0,0,0,0,0,0,0,0],"id":4,"left_children":[1,3,5,7,9,11,13,15,17,19,21,23,25,27,29,31,33,35,37,39,41,43,45,47,49,51,53,55,57,59,61,63,65,67,69,71,73,75,77,79,81,83,85,87,89,91,93,95,97,99,101,103,105,107,109,111,113,115,117,119,121,123,125,-1,-1,-1,-1,-1,-1,-1,-1,-1,-1,-1,-1,-1,-1,-1,-1,-1,-1,-1,-1,-1,-1,-1,-1,-1,-1,-1,-1,-1,-1,-1,-1,-1,-1,-1,-1,-1,-1,-1,-1,-1,-1,-1,-1,-1,-1,-1,-1,-1,-1,-1,-1,-1,-1,-1,-1,-1,-1,-1,-1,-1,-1,-1,-1],"loss_changes":[4.4140784E2,5.167749E2,1.3724823E1,1.6733044E2,1.2596269E2,3.8466187E0,7.2242126E0,7.615015E1,2.739878E2,6.3470886E1,3.6683327E1,7.090744E0,1.1381821E1,5.335163E0,5.04335E0,1.1454218E2,8.315831E1,9.347003E1,1.16857834E2,1.07563995E2,5.446594E0,3.3846245E0,2.828378E1,4.099432E0,1.9773102E-1,5.216504E0,5.7969666E0,6.966858E0,2.1427956E0,3.516697E0,3.3331327E0,3.0592422E0,1.3594095E1,5.4744934E1,6.482117E1,1.7578062E1,5.835486E1,5.7583694E0,6.4596825E0,3.7838844E1,4.861496E0,6.1948395E0,4.195343E0,3.4354901E0,4.025817E-1,8.9014435E0,1.7194018E0,3.3151627E-1,5.992329E-1,2.5347137E-1,2.2647667E-1,7.410183E-1,2.216526E0,1.0186386E-1,1.0606384E1,1.5582104E0,2.478759E0,7.9003334E-1,1.2150059E0,2.607483E0,2.3749294E0,2.53716E0,4.0730495E0,0E0,0E0,0E0,0E0,0E0,0E0,0E0,0E0,0E0,0E0,0E0,0E0,0E0,0E0,0E0,0E0,0E0,0E0,0E0,0E0,0E0,0E0,0E0,0E0,0E0,0E0,0E0,0E0,0E0,0E0,0E0,0E0,0E0,0E0,0E0,0E0,0E0,0E0,0E0,0E0,0E0,0E0,0E0,0E0,0E0,0E0,0E0,0E0,0E0,0E0,0E0,0E0,0E0,0E0,0E0,0E0,0E0,0E0,0E0,0E0,0E0,0E0,0E0,0E0],"parents":[2147483647,0,0,1,1,2,2,3,3,4,4,5,5,6,6,7,7,8,8,9,9,10,10,11,11,12,12,13,13,14,14,15,15,16,16,17,17,18,18,19,19,20,20,21,21,22,22,23,23,24,24,25,25,26,26,27,27,28,28,29,29,30,30,31,31,32,32,33,33,34,34,35,35,36,36,37,37,38,38,39,39,40,40,41,41,42,42,43,43,44,44,45,45,46,46,47,47,48,48,49,49,50,50,51,51,52,52,53,53,54,54,55,55,56,56,57,57,58,58,59,59,60,60,61,61,62,62],"right_children":[2,4,6,8,10,12,14,16,18,20,22,24,26,28,30,32,34,36,38,40,42,44,46,48,50,52,54,56,58,60,62,64,66,68,70,72,74,76,78,80,82,84,86,88,90,92,94,96,98,100,102,104,106,108,110,112,114,116,118,120,122,124,126,-1,-1,-1,-1,-1,-1,-1,-1,-1,-1,-1,-1,-1,-1,-1,-1,-1,-1,-1,-1,-1,-1,-1,-1,-1,-1,-1,-1,-1,-1,-1,-1,-1,-1,-1,-1,-1,-1,-1,-1,-1,-1,-1,-1,-1,-1,-1,-1,-1,-1,-1,-1,-1,-1,-1,-1,-1,-1,-1,-1,-1,-1,-1,-1],"split_conditions":[5E0,1.6E1,1.4531969E-1,2.6025227E-1,1.2E1,3E0,1.5E-1,3E0,1.2E1,1.8E1,1.8E1,2E0,6E0,8E0,6.323712E-1,4E0,6E0,5E0,7E0,3E0,1.3794588E-1,1.5E-1,4E0,1E0,3E0,4E0,7E0,4E0,1.5E1,1.8E1,9E0,1.1953053E-1,1.1953053E-1,1.22003704E-1,1.2E1,3E0,9E0,9E0,8E0,4.5319492E-1,4.1709444E-1,6E0,3E-1,4.389578E-1,9.301676E-1,1.7E1,4E0,1.5E1,1.2E1,2.3E1,1.9E1,1.2E1,1.2E1,1.2979324E-1,8E0,1E0,6E0,1.5E1,6E0,2.4234919E-1,1.2E1,3E0,1.2E1,-7.032556E-3,-4.625191E-3,-1.5582335E-3,3.761661E-3,3.4160204E-3,1.006514E-2,2.5286914E-3,-7.3840856E-3,-4.134847E-3,3.7494716E-3,1.1339712E-2,6.753877E-3,1.3508262E-2,7.087997E-3,-6.489022E-4,-5.6242677E-3,-1.075853E-4,1.0023944E-2,-8.952511E-3,-5.225533E-3,-7.561458E-3,-4.669419E-3,-4.8798067E-3,-7.4653765E-3,-5.0408305E-3,-4.6486082E-4,-1.2068814E-2,-7.2963866E-3,7.1836677E-3,-2.7403608E-3,-6.5061077E-3,-1.5520427E-3,-5.9218225E-3,-7.408249E-3,-3.1099129E-3,-1.5476193E-4,-9.432381E-3,-1.4378094E-2,-8.931585E-3,-7.166864E-3,-4.972318E-3,-1.9079938E-3,-9.437261E-4,3.8186067E-3,-7.98457E-3,-9.646982E-3,4.051643E-4,-5.409073E-3,-7.6538282E-3,-3.356436E-3,9.763082E-4,-1.8376963E-3,-3.9434317E-3,-5.698635E-3,-7.744561E-4,-3.525109E-3,-9.303083E-3,-4.518096E-3,-9.94549E-3,-3.103713E-3,2.1519086E-3,-2.6806712E-3,-1.5356769E-3,-7.6826047E-3],"split_indices":[2,1,6,6,7,0,4,7,7,1,1,0,0,0,6,1,1,1,1,7,6,4,2,0,7,0,0,0,0,1,0,6,6,6,7,7,0,0,1,6,6,7,4,6,6,0,0,1,7,1,1,7,7,6,0,0,0,1,2,6,7,7,1,0,0,0,0,0,0,0,0,0,0,0,0,0,0,0,0,0,0,0,0,0,0,0,0,0,0,0,0,0,0,0,0,0,0,0,0,0,0,0,0,0,0,0,0,0,0,0,0,0,0,0,0,0,0,0,0,0,0,0,0,0,0,0,0],"split_type":[0,0,0,0,0,0,0,0,0,0,0,0,0,0,0,0,0,0,0,0,0,0,0,0,0,0,0,0,0,0,0,0,0,0,0,0,0,0,0,0,0,0,0,0,0,0,0,0,0,0,0,0,0,0,0,0,0,0,0,0,0,0,0,0,0,0,0,0,0,0,0,0,0,0,0,0,0,0,0,0,0,0,0,0,0,0,0,0,0,0,0,0,0,0,0,0,0,0,0,0,0,0,0,0,0,0,0,0,0,0,0,0,0,0,0,0,0,0,0,0,0,0,0,0,0,0,0],"sum_hessian":[3.86298E5,2.82618E5,1.0368E5,1.8837E5,9.4248E4,6.168E4,4.2E4,8.9443E4,9.8927E4,7.596E4,1.8288E4,1.143E4,5.025E4,2.4725E4,1.7275E4,3.612E4,5.3323E4,7.9166E4,1.9761E4,1.9008E4,5.6952E4,4.68E3,1.3608E4,6.82E3,4.61E3,7.07E3,4.318E4,1.291E4,1.1815E4,1.162E4,5.655E3,1.6101E4,2.0019E4,3.4327E4,1.8996E4,7.238E3,7.1928E4,3.668E3,1.6093E4,9.504E3,9.504E3,2.5388E4,3.1564E4,4.212E3,4.68E2,1.1016E4,2.592E3,4.075E3,2.745E3,1.844E3,2.766E3,3.165E3,3.905E3,4.63E3,3.855E4,4.25E3,8.66E3,7.69E3,4.125E3,9.585E3,2.035E3,2.895E3,2.76E3,1.1262E4,4.839E3,3.792E3,1.6227E4,2.1911E4,1.2416E4,1.2664E4,6.332E3,3.66E3,3.578E3,3.9936E4,3.1992E4,2.109E3,1.559E3,1.893E3,1.42E4,4.35E3,5.154E3,3.626E3,5.878E3,1.9071E4,6.317E3,2.6836E4,4.728E3,1.991E3,2.221E3,2.43E2,2.25E2,1.0404E4,6.12E2,5.76E2,2.016E3,2.44E3,1.635E3,2.196E3,5.49E2,1.772E3,7.2E1,2.133E3,6.33E2,2.532E3,6.33E2,3.124E3,7.81E2,4.355E3,2.75E2,2.125E3,3.6425E4,6.35E2,3.615E3,5.515E3,3.145E3,5.3E3,2.39E3,1.945E3,2.18E3,7.95E2,8.79E3,1.628E3,4.07E2,1.158E3,1.737E3,1.37E3,1.39E3],"tree_param":{"num_deleted":"0","num_feature":"8","num_nodes":"127","size_leaf_vector":"1"}},{"base_weights":[-1.8413813E-6,2.2024881E-2,-4.4033572E-2,4.666209E-2,-4.511763E-2,-6.0024474E-2,2.1711666E-2,2.1587117E-2,7.726039E-2,-3.098689E-2,-5.9247065E-2,-7.25994E-2,-2.1439187E-2,-4.391999E-2,4.4092953E-2,-2.0113837E-2,3.204018E-2,1.0180321E-1,-2.1077655E-2,-4.0850528E-2,-5.339846E-3,-4.4791654E-2,-7.369905E-2,-9.167679E-2,-6.843802E-2,2.7929122E-2,-7.088729E-2,-7.8522846E-2,-1.9252684E-2,7.626994E-2,-1.4950573E-3,-7.112299E-2,6.0391735E-2,5.494382E-2,1.0315336E-2,1.2581271E-1,4.7857612E-2,1.2240929E-1,-5.3937957E-2,-4.4407338E-2,2.8341187E-2,3.5613442E-3,-4.0927928E-2,-7.0448056E-2,-3.195845E-2,-1.0409952E-1,-6.500611E-2,-7.692323E-2,-1.155754E-1,-5.2501682E-2,-7.800782E-2,1.3616832E-1,-1.8935077E-2,-5.857383E-2,-9.613208E-2,-9.249303E-2,-6.335811E-2,-2.6749698E-2,8.471091E-2,1.03052326E-1,4.9473718E-2,-4.7845997E-2,9.118952E-2,-6.761769E-3,-4.7201854E-3,3.4048078E-3,9.228624E-3,9.4416196E-4,6.6157156E-3,-5.04045E-3,2.142174E-3,1.1430138E-2,5.966821E-3,-4.5988447E-5,6.6589764E-3,2.876009E-3,1.1130041E-2,-3.3273827E-4,-4.87051E-3,-2.7765231E-3,-5.2357083E-3,-3.194206E-3,5.2402904E-3,-6.1350446E-3,7.136968E-4,6.426855E-3,-6.510147E-3,-4.160233E-3,-8.583367E-3,-8.417107E-4,-4.2711976E-3,-6.4853313E-3,-1.0166256E-2,-4.8128525E-3,-7.5225844E-3,-7.607181E-3,-4.4746916E-3,-9.71548E-3,-7.473386E-3,-5.425652E-3,-3.4664655E-3,-8.032643E-3,-5.677511E-3,1.60248E-2,5.7564727E-3,1.3359418E-3,-5.690586E-3,-2.9857E-3,-6.3850167E-3,-8.556834E-3,-2.3353638E-3,-5.1234732E-3,-8.370246E-3,-5.8120517E-3,4.073047E-3,-1.0730735E-3,-9.014544E-3,1.8370291E-3,3.543172E-2,3.4631516E-3,1.20666325E-2,-3.8501612E-4,5.1985304E-3,-2.4428766E-3,-5.2110064E-3,1.0717201E-2,3.8674977E-3],"categories":[],"categories_nodes":[],"categories_segments":[],"categories_sizes":[],"default_left":[0,0,0,0,0,0,0,0,0,0,0,0,0,0,0,0,0,0,0,0,0,0,0,0,0,0,0,0,0,0,0,0,0,0,0,0,0,0,0,0,0,0,0,0,0,0,0,0,0,0,0,0,0,0,0,0,0,0,0,0,0,0,0,0,0,0,0,0,0,0,0,0,0,0,0,0,0,0,0,0,0,0,0,0,0,0,0,0,0,0,0,0,0,0,0,0,0,0,0,0,0,0,0,0,0,0,0,0,0,0,0,0,0,0,0,0,0,0,0,0,0,0,0,0,0,0,0],"id":5,"left_children":[1,3,5,7,9,11,13,15,17,19,21,23,25,27,29,31,33,35,37,39,41,43,45,47,49,51,53,55,57,59,61,63,65,67,69,71,73,75,77,79,81,83,85,87,89,91,93,95,97,99,101,103,105,107,109,111,113,115,117,119,121,123,125,-1,-1,-1,-1,-1,-1,-1,-1,-1,-1,-1,-1,-1,-1,-1,-1,-1,-1,-1,-1,-1,-1,-1,-1,-1,-1,-1,-1,-1,-1,-1,-1,-1,-1,-1,-1,-1,-1,-1,-1,-1,-1,-1,-1,-1,-1,-1,-1,-1,-1,-1,-1,-1,-1,-1,-1,-1,-1,-1,-1,-1,-1,-1,-1],"loss_changes":[3.746626E2,4.2594476E2,1.3542152E2,1.445263E2,1.3798813E1,5.0270294E1,3.7020218E1,4.513008E1,2.0476529E2,8.742783E0,7.21682E0,6.197296E0,6.2173683E1,5.4689493E0,2.7567276E1,8.521871E1,4.1189438E1,8.793341E1,7.99074E1,6.144211E0,3.0415149E0,5.687584E0,4.560074E0,4.9238358E0,9.779724E0,6.465213E1,3.9496307E0,5.591545E-1,2.9196227E0,7.901436E0,3.341449E1,2.0580597E0,7.884199E0,4.8246544E1,5.1280994E1,4.106012E1,3.5834908E1,4.559166E0,4.7657013E0,4.843151E0,3.1003344E0,3.304483E0,9.429005E0,3.9095573E0,5.2925186E0,2.0226097E0,1.8847504E0,3.2941399E0,6.827316E-1,3.379036E0,6.3125916E0,1.584668E1,1.654602E1,3.8585854E0,3.0195045E0,4.7179794E-1,1.3650146E0,4.000371E0,5.5633793E0,1.5724457E1,4.6381693E0,1.5499744E0,4.745846E0,0E0,0E0,0E0,0E0,0E0,0E0,0E0,0E0,0E0,0E0,0E0,0E0,0E0,0E0,0E0,0E0,0E0,0E0,0E0,0E0,0E0,0E0,0E0,0E0,0E0,0E0,0E0,0E0,0E0,0E0,0E0,0E0,0E0,0E0,0E0,0E0,0E0,0E0,0E0,0E0,0E0,0E0,0E0,0E0,0E0,0E0,0E0,0E0,0E0,0E0,0E0,0E0,0E0,0E0,0E0,0E0,0E0,0E0,0E0,0E0,0E0,0E0,0E0,0E0],"parents":[2147483647,0,0,1,1,2,2,3,3,4,4,5,5,6,6,7,7,8,8,9,9,10,10,11,11,12,12,13,13,14,14,15,15,16,16,17,17,18,18,19,19,20,20,21,21,22,22,23,23,24,24,25,25,26,26,27,27,28,28,29,29,30,30,31,31,32,32,33,33,34,34,35,35,36,36,37,37,38,38,39,39,40,40,41,41,42,42,43,43,44,44,45,45,46,46,47,47,48,48,49,49,50,50,51,51,52,52,53,53,54,54,55,55,56,56,57,57,58,58,59,59,60,60,61,61,62,62],"right_children":[2,4,6,8,10,12,14,16,18,20,22,24,26,28,30,32,34,36,38,40,42,44,46,48,50,52,54,56,58,60,62,64,66,68,70,72,74,76,78,80,82,84,86,88,90,92,94,96,98,100,102,104,106,108,110,112,114,116,118,120,122,124,126,-1,-1,-1,-1,-1,-1,-1,-1,-1,-1,-1,-1,-1,-1,-1,-1,-1,-1,-1,-1,-1,-1,-1,-1,-1,-1,-1,-1,-1,-1,-1,-1,-1,-1,-1,-1,-1,-1,-1,-1,-1,-1,-1,-1,-1,-1,-1,-1,-1,-1,-1,-1,-1,-1,-1,-1,-1,-1,-1,-1,-1,-1,-1,-1],"split_conditions":[1.6E1,5E0,1.2E1,2.9926923E-1,6E0,3.708482E-1,1.8E1,2E0,1.2E1,1.3E1,9E0,3E0,3E0,3.5774103E-1,4E0,6E0,1E1,1.5E-1,7E0,6.781591E-1,1.2E1,3E0,1.1E1,2E0,9E0,1.7E1,3E-1,2.1393555E-1,5E0,9E0,6E0,8.408128E-2,1.272078E-1,3E0,1.1E1,6E0,6.2164056E-1,2E0,8E0,9E0,6E0,1E0,4E0,2E0,6E0,1E1,1.7E1,1E0,2.5033882E-1,2E1,1.1E1,2E0,1.9E1,6E0,2.3E1,6E0,6E0,1.5E-1,4.5E-1,4E0,1.1E1,5E0,9E0,-6.761769E-3,-4.7201854E-3,3.4048078E-3,9.228624E-3,9.4416196E-4,6.6157156E-3,-5.04045E-3,2.142174E-3,1.1430138E-2,5.966821E-3,-4.5988447E-5,6.6589764E-3,2.876009E-3,1.1130041E-2,-3.3273827E-4,-4.87051E-3,-2.7765231E-3,-5.2357083E-3,-3.194206E-3,5.2402904E-3,-6.1350446E-3,7.136968E-4,6.426855E-3,-6.510147E-3,-4.160233E-3,-8.583367E-3,-8.417107E-4,-4.2711976E-3,-6.4853313E-3,-1.0166256E-2,-4.8128525E-3,-7.5225844E-3,-7.607181E-3,-4.4746916E-3,-9.71548E-3,-7.473386E-3,-5.425652E-3,-3.4664655E-3,-8.032643E-3,-5.677511E-3,1.60248E-2,5.7564727E-3,1.3359418E-3,-5.690586E-3,-2.9857E-3,-6.3850167E-3,-8.556834E-3,-2.3353638E-3,-5.1234732E-3,-8.370246E-3,-5.8120517E-3,4.073047E-3,-1.0730735E-3,-9.014544E-3,1.8370291E-3,3.543172E-2,3.4631516E-3,1.20666325E-2,-3.8501612E-4,5.1985304E-3,-2.4428766E-3,-5.2110064E-3,1.0717201E-2,3.8674977E-3],"split_indices":[1,2,7,6,2,6,1,1,7,0,0,0,7,6,2,7,0,4,1,6,7,0,0,0,0,1,4,6,2,0,2,6,6,0,0,7,6,1,1,0,1,1,1,0,0,0,0,0,6,1,0,7,1,7,1,0,2,4,4,0,0,2,0,0,0,0,0,0,0,0,0,0,0,0,0,0,0,0,0,0,0,0,0,0,0,0,0,0,0,0,0,0,0,0,0,0,0,0,0,0,0,0,0,0,0,0,0,0,0,0,0,0,0,0,0,0,0,0,0,0,0,0,0,0,0,0,0],"split_type":[0,0,0,0,0,0,0,0,0,0,0,0,0,0,0,0,0,0,0,0,0,0,0,0,0,0,0,0,0,0,0,0,0,0,0,0,0,0,0,0,0,0,0,0,0,0,0,0,0,0,0,0,0,0,0,0,0,0,0,0,0,0,0,0,0,0,0,0,0,0,0,0,0,0,0,0,0,0,0,0,0,0,0,0,0,0,0,0,0,0,0,0,0,0,0,0,0,0,0,0,0,0,0,0,0,0,0,0,0,0,0,0,0,0,0,0,0,0,0,0,0,0,0,0,0,0,0],"sum_hessian":[3.86298E5,2.5749E5,1.28808E5,1.8837E5,6.912E4,1.03608E5,2.52E4,1.0353E5,8.484E4,3.456E4,3.456E4,7.8141E4,2.5467E4,6.408E3,1.8792E4,2.075E4,8.278E4,6.7895E4,1.6945E4,2.496E4,9.6E3,1.728E4,1.728E4,1.3989E4,6.4152E4,1.2744E4,1.2723E4,2.666E3,3.742E3,1.1016E4,7.776E3,1.2702E4,8.048E3,4.0296E4,4.2484E4,4.6983E4,2.0912E4,3.157E3,1.3788E4,2.374E4,1.22E3,7.68E3,1.92E3,5.76E3,1.152E4,3.84E3,1.344E4,8.652E3,5.337E3,2.4072E4,4.008E4,3.85E3,8.894E3,8.554E3,4.169E3,1.385E3,1.281E3,3.491E3,2.51E2,5.508E3,5.508E3,5.184E3,2.592E3,6.03E3,6.672E3,6.078E3,1.97E3,1.5775E4,2.4521E4,7.789E3,3.4695E4,3.5242E4,1.1741E4,8.828E3,1.2084E4,5.12E2,2.645E3,1.688E3,1.21E4,1.625E4,7.49E3,4.3E2,7.9E2,4.8E2,7.2E3,4.8E2,1.44E3,3.84E3,1.92E3,5.76E3,5.76E3,1.92E3,1.92E3,1.152E4,1.92E3,4.636E3,4.016E3,4.216E3,1.121E3,9.012E3,1.506E4,9.58E3,3.05E4,1.925E3,1.925E3,5.286E3,3.608E3,4.277E3,4.277E3,3.588E3,5.81E2,4.16E2,9.69E2,1.185E3,9.6E1,3.023E3,4.68E2,2.15E2,3.6E1,2.448E3,3.06E3,1.224E3,4.284E3,2.592E3,2.592E3,1.296E3,1.296E3],"tree_param":{"num_deleted":"0","num_feature":"8","num_nodes":"127","size_leaf_vector":"1"}},{"base_weights":[-1.786112E-6,1.7393462E-2,-4.741865E-2,4.292933E-2,-3.3644043E-2,-5.5733137E-2,-3.5477262E-2,2.1320606E-2,7.3027715E-2,-4.8781175E-2,2.9227922E-2,-7.046969E-2,-5.2371133E-2,-2.550973E-2,-5.0064176E-2,-1.0150078E-2,3.344377E-2,9.567239E-2,-1.771697E-2,-5.888172E-3,-6.309657E-2,-3.539152E-2,5.1452506E-2,-5.2460045E-2,-9.678342E-2,-1.9229338E-2,-5.776321E-2,-3.8483568E-2,-1.284314E-2,-5.6614947E-2,-1.4460176E-2,-6.446774E-2,7.49739E-2,6.030031E-2,1.09578315E-2,1.2049347E-1,4.49489E-2,1.1199499E-1,-4.7735855E-2,1.06923774E-1,-4.3497015E-2,-8.30799E-2,-5.9098233E-2,-2.270787E-3,-5.1945854E-2,7.0170194E-2,-2.809403E-2,-7.076488E-2,-2.5138993E-2,-1.0305482E-1,-9.086646E-2,-3.2937057E-2,3.0279959E-2,-8.942635E-2,-5.3934697E-2,-8.4331855E-2,-3.648495E-2,1.9912842E-4,-3.0873124E-2,-4.942423E-2,-9.0776876E-2,6.616793E-3,-4.4576116E-2,-6.0909283E-3,-4.241732E-3,4.1820104E-3,9.719087E-3,-1.0890965E-3,6.327374E-3,3.0314608E-3,-7.7420627E-3,1.1620735E-2,6.8485406E-3,4.672218E-5,6.1263023E-3,1.986502E-3,1.03619145E-2,-8.6747146E-5,-4.3512573E-3,3.5515807E-3,1.3523257E-2,9.088518E-4,-5.6739324E-3,-5.4335403E-3,-9.069611E-3,-3.2607757E-3,-5.705765E-3,5.697146E-3,-4.9184817E-3,-3.7058725E-3,-8.550529E-3,7.1256524E-3,2.5884246E-3,-5.7914304E-3,-1.2326081E-3,-6.447328E-3,-5.134653E-3,-2.8841447E-3,-7.001276E-4,-7.565294E-3,-9.229189E-3,-7.7895895E-3,-5.17626E-3,-3.292565E-3,-3.956038E-6,1.5040505E-3,6.0786945E-3,-7.605606E-3,-6.8504727E-3,-1.1225488E-3,-4.779104E-3,-5.877926E-3,-8.156875E-3,-2.059463E-3,-3.5773222E-3,-2.2101765E-3,1.6205184E-3,-1.4936245E-3,-3.9328113E-3,-3.0853325E-3,-5.5684512E-3,-8.225874E-3,-3.3986487E-3,-7.975004E-3,1.0783932E-3,3.5214412E-4,-6.174841E-3],"categories":[],"categories_nodes":[],"categories_segments":[],"categories_sizes":[],"default_left":[0,0,0,0,0,0,0,0,0,0,0,0,0,0,0,0,0,0,0,0,0,0,0,0,0,0,0,0,0,0,0,0,0,0,0,0,0,0,0,0,0,0,0,0,0,0,0,0,0,0,0,0,0,0,0,0,0,0,0,0,0,0,0,0,0,0,0,0,0,0,0,0,0,0,0,0,0,0,0,0,0,0,0,0,0,0,0,0,0,0,0,0,0,0,0,0,0,0,0,0,0,0,0,0,0,0,0,0,0,0,0,0,0,0,0,0,0,0,0,0,0,0,0,0,0,0,0],"id":6,"left_children":[1,3,5,7,9,11,13,15,17,19,21,23,25,27,29,31,33,35,37,39,41,43,45,47,49,51,53,55,57,59,61,63,65,67,69,71,73,75,77,79,81,83,85,87,89,91,93,95,97,99,101,103,105,107,109,111,113,115,117,119,121,123,125,-1,-1,-1,-1,-1,-1,-1,-1,-1,-1,-1,-1,-1,-1,-1,-1,-1,-1,-1,-1,-1,-1,-1,-1,-1,-1,-1,-1,-1,-1,-1,-1,-1,-1,-1,-1,-1,-1,-1,-1,-1,-1,-1,-1,-1,-1,-1,-1,-1,-1,-1,-1,-1,-1,-1,-1,-1,-1,-1,-1,-1,-1,-1,-1],"loss_changes":[3.186311E2,3.6833505E2,1.029216E1,1.22512634E2,8.969832E1,3.0245056E0,6.186901E0,4.1834866E1,1.6176425E2,4.6641968E1,2.6267393E1,5.374172E0,8.893143E0,4.1548615E0,4.0285263E0,1.4100102E2,4.7802414E1,7.931238E1,6.1223797E1,8.065464E1,4.545639E0,2.5664349E0,2.0264778E1,3.369444E0,1.6173935E-1,4.7285395E0,5.1842346E0,1.1415138E0,3.00901E0,3.5797768E0,1.7052407E0,2.4823608E0,1.2535812E1,5.0105835E1,1.2503282E2,3.6534485E1,2.9048756E1,4.511692E0,3.963892E0,1.8453678E1,2.145173E1,4.3516693E0,1.0636276E1,6.7963996E0,9.5904255E-1,7.87117E0,1.4561355E0,2.558651E-1,4.8360562E-1,2.2221947E-1,3.988266E-1,1.4749527E0,7.913145E-1,9.073639E-2,8.844208E0,9.223461E-2,1.0573349E0,4.145178E0,1.1976376E0,2.639038E0,1.4710083E0,1.1548094E0,1.766777E0,0E0,0E0,0E0,0E0,0E0,0E0,0E0,0E0,0E0,0E0,0E0,0E0,0E0,0E0,0E0,0E0,0E0,0E0,0E0,0E0,0E0,0E0,0E0,0E0,0E0,0E0,0E0,0E0,0E0,0E0,0E0,0E0,0E0,0E0,0E0,0E0,0E0,0E0,0E0,0E0,0E0,0E0,0E0,0E0,0E0,0E0,0E0,0E0,0E0,0E0,0E0,0E0,0E0,0E0,0E0,0E0,0E0,0E0,0E0,0E0,0E0,0E0,0E0,0E0],"parents":[2147483647,0,0,1,1,2,2,3,3,4,4,5,5,6,6,7,7,8,8,9,9,10,10,11,11,12,12,13,13,14,14,15,15,16,16,17,17,18,18,19,19,20,20,21,21,22,22,23,23,24,24,25,25,26,26,27,27,28,28,29,29,30,30,31,31,32,32,33,33,34,34,35,35,36,36,37,37,38,38,39,39,40,40,41,41,42,42,43,43,44,44,45,45,46,46,47,47,48,48,49,49,50,50,51,51,52,52,53,53,54,54,55,55,56,56,57,57,58,58,59,59,60,60,61,61,62,62],"right_children":[2,4,6,8,10,12,14,16,18,20,22,24,26,28,30,32,34,36,38,40,42,44,46,48,50,52,54,56,58,60,62,64,66,68,70,72,74,76,78,80,82,84,86,88,90,92,94,96,98,100,102,104,106,108,110,112,114,116,118,120,122,124,126,-1,-1,-1,-1,-1,-1,-1,-1,-1,-1,-1,-1,-1,-1,-1,-1,-1,-1,-1,-1,-1,-1,-1,-1,-1,-1,-1,-1,-1,-1,-1,-1,-1,-1,-1,-1,-1,-1,-1,-1,-1,-1,-1,-1,-1,-1,-1,-1,-1,-1,-1,-1,-1,-1,-1,-1,-1,-1,-1,-1,-1,-1,-1,-1],"split_conditions":[5E0,1.6E1,1.4386624E-1,3.1664497E-1,1.2E1,3E0,1.5E-1,3E0,1.2E1,1.8E1,1.8E1,2E0,6E0,1.8468256E-1,7.742198E-1,6E0,7E0,1.5E-1,7E0,2E0,3E0,6E0,4E0,1E0,6E0,5E0,7E0,1E0,8E0,1.8E1,6E0,8.88031E-2,1.157649E-1,2E0,1.2E1,9E0,6.2164056E-1,2E0,8E0,4.7250658E-1,3E0,2E0,9E0,2E0,1.5E-1,2.2E1,4E0,3E0,6E0,1.4E1,1.2E1,1.2E1,1.2E1,3E0,9E0,1.6093393E-1,8E0,5E0,6E0,6E0,1.2E1,1E0,3E0,-6.0909283E-3,-4.241732E-3,4.1820104E-3,9.719087E-3,-1.0890965E-3,6.327374E-3,3.0314608E-3,-7.7420627E-3,1.1620735E-2,6.8485406E-3,4.672218E-5,6.1263023E-3,1.986502E-3,1.03619145E-2,-8.6747146E-5,-4.3512573E-3,3.5515807E-3,1.3523257E-2,9.088518E-4,-5.6739324E-3,-5.4335403E-3,-9.069611E-3,-3.2607757E-3,-5.705765E-3,5.697146E-3,-4.9184817E-3,-3.7058725E-3,-8.550529E-3,7.1256524E-3,2.5884246E-3,-5.7914304E-3,-1.2326081E-3,-6.447328E-3,-5.134653E-3,-2.8841447E-3,-7.001276E-4,-7.565294E-3,-9.229189E-3,-7.7895895E-3,-5.17626E-3,-3.292565E-3,-3.956038E-6,1.5040505E-3,6.0786945E-3,-7.605606E-3,-6.8504727E-3,-1.1225488E-3,-4.779104E-3,-5.877926E-3,-8.156875E-3,-2.059463E-3,-3.5773222E-3,-2.2101765E-3,1.6205184E-3,-1.4936245E-3,-3.9328113E-3,-3.0853325E-3,-5.5684512E-3,-8.225874E-3,-3.3986487E-3,-7.975004E-3,1.0783932E-3,3.5214412E-4,-6.174841E-3],"split_indices":[2,1,6,6,7,0,4,1,7,1,1,0,0,6,6,7,1,4,1,7,0,0,2,0,2,0,0,0,0,1,2,6,6,7,7,0,6,1,1,6,7,0,0,2,4,1,0,7,7,1,7,7,7,7,0,6,0,0,7,2,7,1,7,0,0,0,0,0,0,0,0,0,0,0,0,0,0,0,0,0,0,0,0,0,0,0,0,0,0,0,0,0,0,0,0,0,0,0,0,0,0,0,0,0,0,0,0,0,0,0,0,0,0,0,0,0,0,0,0,0,0,0,0,0,0,0,0],"split_type":[0,0,0,0,0,0,0,0,0,0,0,0,0,0,0,0,0,0,0,0,0,0,0,0,0,0,0,0,0,0,0,0,0,0,0,0,0,0,0,0,0,0,0,0,0,0,0,0,0,0,0,0,0,0,0,0,0,0,0,0,0,0,0,0,0,0,0,0,0,0,0,0,0,0,0,0,0,0,0,0,0,0,0,0,0,0,0,0,0,0,0,0,0,0,0,0,0,0,0,0,0,0,0,0,0,0,0,0,0,0,0,0,0,0,0,0,0,0,0,0,0,0,0,0,0,0,0],"sum_hessian":[3.86298E5,2.82618E5,1.0368E5,1.8837E5,9.4248E4,6.112E4,4.256E4,1.0965E5,7.872E4,7.596E4,1.8288E4,1.135E4,4.977E4,2.5285E4,1.7275E4,3.0493E4,7.9157E4,6.2999E4,1.5721E4,1.9008E4,5.6952E4,4.68E3,1.3608E4,6.74E3,4.61E3,6.965E3,4.2805E4,1.249E4,1.2795E4,1.459E4,2.685E3,1.8615E4,1.1878E4,3.6072E4,4.3085E4,4.2299E4,2.07E4,2.954E3,1.2767E4,4.752E3,1.4256E4,9.492E3,4.746E4,1.56E3,3.12E3,1.1016E4,2.592E3,4.035E3,2.705E3,2.23E3,2.38E3,5.455E3,1.51E3,4.615E3,3.819E4,5.2E2,1.197E4,7.425E3,5.37E3,1.2055E4,2.535E3,1.58E3,1.105E3,9.215E3,9.4E3,7.984E3,3.894E3,7.312E3,2.876E4,3.4468E4,8.617E3,2.4736E4,1.7563E4,8.616E3,1.2084E4,4.95E2,2.459E3,1.594E3,1.1173E4,2.369E3,2.383E3,4.752E3,9.504E3,6.328E3,3.164E3,1.8984E4,2.8476E4,6.96E2,8.64E2,2.832E3,2.88E2,7.344E3,3.672E3,5.76E2,2.016E3,1.614E3,2.421E3,1.623E3,1.082E3,1.325E3,9.05E2,1.904E3,4.76E2,4.364E3,1.091E3,1.208E3,3.02E2,1.846E3,2.769E3,4.85E3,3.334E4,3.25E2,1.95E2,5.195E3,6.775E3,3.11E3,4.315E3,3.222E3,2.148E3,7.84E3,4.215E3,2.028E3,5.07E2,9.5E1,1.485E3,4.42E2,6.63E2],"tree_param":{"num_deleted":"0","num_feature":"8","num_nodes":"127","size_leaf_vector":"1"}},{"base_weights":[-1.9096992E-6,1.8736832E-2,-3.7460916E-2,3.9495178E-2,-3.7834823E-2,-5.1247258E-2,1.9220429E-2,1.200489E-2,6.026278E-2,-2.5077013E-2,-5.0591536E-2,-6.2328182E-2,-1.7757308E-2,-3.7407078E-2,3.8531154E-2,-2.2450557E-2,3.5378218E-2,8.080912E-2,-2.2051902E-2,-3.425103E-2,-1.2234868E-3,-3.7811473E-2,-6.336867E-2,-7.220379E-2,-5.6086224E-2,5.566085E-2,-4.225825E-2,-6.90223E-2,-1.4870289E-2,6.455746E-2,1.6569905E-3,-6.810085E-2,2.0652298E-2,5.8616884E-2,-1.7723525E-2,-6.655615E-3,8.953159E-2,1.09238856E-1,-5.2904755E-2,-3.702119E-2,3.7289176E-2,6.924032E-3,-3.38002E-2,-5.5896595E-2,-2.333906E-2,-9.1053315E-2,-5.545259E-2,-7.899207E-2,-5.1747143E-2,-7.515479E-2,-5.0630823E-2,1.2410523E-1,-3.5792075E-2,-6.9922553E-3,-5.9918106E-2,-8.1396304E-2,-5.559064E-2,-2.1777784E-2,8.090688E-2,7.084741E-2,-4.2312764E-2,-4.1179515E-2,8.731285E-2,-4.484298E-3,-6.39316E-3,-1.8191376E-3,2.6600747E-3,1.0496172E-3,6.747442E-3,1.2176733E-3,-6.6881655E-3,-4.177389E-3,3.194974E-3,8.3637675E-3,3.5585614E-3,1.1240309E-2,5.3771413E-3,-6.073341E-3,-3.3522146E-3,-2.283883E-3,-4.4378596E-3,-2.8470638E-3,6.6639017E-3,-1.0341161E-3,2.1418168E-3,6.2570656E-3,-5.6933123E-3,-3.4974094E-3,-5.444882E-3,8.353168E-4,-3.6685846E-3,-5.5999146E-3,-8.964824E-3,-4.0898887E-3,-6.8565626E-3,-7.263012E-3,-5.9922803E-3,-5.584868E-3,-2.0769436E-3,-6.6628903E-3,-5.1797335E-3,-1.3557243E-3,-4.545347E-3,1.3806063E-2,5.6097964E-3,-3.8115028E-4,-8.374772E-3,5.202965E-3,-3.0432686E-3,-3.9021687E-3,-6.6467514E-3,-7.9658795E-3,-5.167189E-3,-5.130964E-3,3.95822E-3,-7.9372E-4,-7.854227E-3,1.9348611E-3,3.278791E-2,7.177268E-3,2.6476427E-3,9.6895514E-5,-7.1142926E-3,-3.0589045E-3,-9.786993E-3,1.0045042E-2,3.919627E-3],"categories":[],"categories_nodes":[],"categories_segments":[],"categories_sizes":[],"default_left":[0,0,0,0,0,0,0,0,0,0,0,0,0,0,0,0,0,0,0,0,0,0,0,0,0,0,0,0,0,0,0,0,0,0,0,0,0,0,0,0,0,0,0,0,0,0,0,0,0,0,0,0,0,0,0,0,0,0,0,0,0,0,0,0,0,0,0,0,0,0,0,0,0,0,0,0,0,0,0,0,0,0,0,0,0,0,0,0,0,0,0,0,0,0,0,0,0,0,0,0,0,0,0,0,0,0,0,0,0,0,0,0,0,0,0,0,0,0,0,0,0,0,0,0,0,0,0],"id":7,"left_children":[1,3,5,7,9,11,13,15,17,19,21,23,25,27,29,31,33,35,37,39,41,43,45,47,49,51,53,55,57,59,61,63,65,67,69,71,73,75,77,79,81,83,85,87,89,91,93,95,97,99,101,103,105,107,109,111,113,115,117,119,121,123,125,-1,-1,-1,-1,-1,-1,-1,-1,-1,-1,-1,-1,-1,-1,-1,-1,-1,-1,-1,-1,-1,-1,-1,-1,-1,-1,-1,-1,-1,-1,-1,-1,-1,-1,-1,-1,-1,-1,-1,-1,-1,-1,-1,-1,-1,-1,-1,-1,-1,-1,-1,-1,-1,-1,-1,-1,-1,-1,-1,-1,-1,-1,-1,-1],"loss_changes":[2.7115735E2,3.0238193E2,1.0065599E2,1.07541626E2,1.1248016E1,3.844812E1,2.7559196E1,6.5286354E1,1.8148465E2,7.563032E0,5.641159E0,4.7948914E0,4.6339806E1,4.565422E0,1.8035503E1,6.447368E1,5.9605125E1,6.551312E1,8.683241E1,4.948097E0,2.5485256E0,4.521744E0,3.7821503E0,4.182144E0,4.958786E0,4.0352783E1,1.2028812E1,4.3873978E-1,2.4780576E0,7.4087143E0,2.8538946E1,2.2602692E0,9.214399E0,3.932379E1,3.1913834E1,1.6534836E1,5.2815308E1,5.349949E0,4.3912582E0,3.7553673E0,3.1246662E0,3.0267053E0,8.045951E0,1.1349678E0,7.3037496E0,1.6909866E0,1.7559967E0,1.084732E0,3.4980507E0,8.925476E-1,7.7287827E0,9.635208E0,5.8992167E0,1.4418371E1,3.3176384E0,4.169836E-1,1.154355E0,3.1621518E0,4.6918926E0,7.4087105E0,1.2438287E0,1.2338352E0,3.794283E0,0E0,0E0,0E0,0E0,0E0,0E0,0E0,0E0,0E0,0E0,0E0,0E0,0E0,0E0,0E0,0E0,0E0,0E0,0E0,0E0,0E0,0E0,0E0,0E0,0E0,0E0,0E0,0E0,0E0,0E0,0E0,0E0,0E0,0E0,0E0,0E0,0E0,0E0,0E0,0E0,0E0,0E0,0E0,0E0,0E0,0E0,0E0,0E0,0E0,0E0,0E0,0E0,0E0,0E0,0E0,0E0,0E0,0E0,0E0,0E0,0E0,0E0,0E0,0E0],"parents":[2147483647,0,0,1,1,2,2,3,3,4,4,5,5,6,6,7,7,8,8,9,9,10,10,11,11,12,12,13,13,14,14,15,15,16,16,17,17,18,18,19,19,20,20,21,21,22,22,23,23,24,24,25,25,26,26,27,27,28,28,29,29,30,30,31,31,32,32,33,33,34,34,35,35,36,36,37,37,38,38,39,39,40,40,41,41,42,42,43,43,44,44,45,45,46,46,47,47,48,48,49,49,50,50,51,51,52,52,53,53,54,54,55,55,56,56,57,57,58,58,59,59,60,60,61,61,62,62],"right_children":[2,4,6,8,10,12,14,16,18,20,22,24,26,28,30,32,34,36,38,40,42,44,46,48,50,52,54,56,58,60,62,64,66,68,70,72,74,76,78,80,82,84,86,88,90,92,94,96,98,100,102,104,106,108,110,112,114,116,118,120,122,124,126,-1,-1,-1,-1,-1,-1,-1,-1,-1,-1,-1,-1,-1,-1,-1,-1,-1,-1,-1,-1,-1,-1,-1,-1,-1,-1,-1,-1,-1,-1,-1,-1,-1,-1,-1,-1,-1,-1,-1,-1,-1,-1,-1,-1,-1,-1,-1,-1,-1,-1,-1,-1,-1,-1,-1,-1,-1,-1,-1,-1,-1,-1,-1,-1],"split_conditions":[1.6E1,5E0,1.2E1,2.3741291E-1,6E0,3.674092E-1,1.8E1,3E0,1.2E1,1.3E1,9E0,1.03777856E-1,2E0,3.5774103E-1,4E0,4E0,6E0,5E0,7E0,7.3551947E-1,1.2E1,4E0,1.1E1,6E0,4E0,1.8E1,3E0,2.1393555E-1,5E0,1.7E1,6E0,9E0,1.1953053E-1,2E0,1.2E1,3E0,6E0,9E0,3.3467495E-1,9E0,6E0,8E0,4E0,2E0,6E0,1E1,1.4E1,2E0,2.2E1,2E1,6E0,1.7E1,2.2E1,1.7E1,3E-1,6E0,6E0,1.5E-1,4.5E-1,2.2E1,9.467591E-2,4.5E-1,9E0,-4.484298E-3,-6.39316E-3,-1.8191376E-3,2.6600747E-3,1.0496172E-3,6.747442E-3,1.2176733E-3,-6.6881655E-3,-4.177389E-3,3.194974E-3,8.3637675E-3,3.5585614E-3,1.1240309E-2,5.3771413E-3,-6.073341E-3,-3.3522146E-3,-2.283883E-3,-4.4378596E-3,-2.8470638E-3,6.6639017E-3,-1.0341161E-3,2.1418168E-3,6.2570656E-3,-5.6933123E-3,-3.4974094E-3,-5.444882E-3,8.353168E-4,-3.6685846E-3,-5.5999146E-3,-8.964824E-3,-4.0898887E-3,-6.8565626E-3,-7.263012E-3,-5.9922803E-3,-5.584868E-3,-2.0769436E-3,-6.6628903E-3,-5.1797335E-3,-1.3557243E-3,-4.545347E-3,1.3806063E-2,5.6097964E-3,-3.8115028E-4,-8.374772E-3,5.202965E-3,-3.0432686E-3,-3.9021687E-3,-6.6467514E-3,-7.9658795E-3,-5.167189E-3,-5.130964E-3,3.95822E-3,-7.9372E-4,-7.854227E-3,1.9348611E-3,3.278791E-2,7.177268E-3,2.6476427E-3,9.6895514E-5,-7.1142926E-3,-3.0589045E-3,-9.786993E-3,1.0045042E-2,3.919627E-3],"split_indices":[1,2,7,6,2,6,1,7,7,0,0,6,7,6,2,1,1,1,1,6,7,0,0,7,0,1,7,6,2,0,2,0,6,1,7,7,7,0,6,0,1,1,1,0,0,0,1,2,1,1,0,1,1,1,4,2,2,4,4,1,6,4,0,0,0,0,0,0,0,0,0,0,0,0,0,0,0,0,0,0,0,0,0,0,0,0,0,0,0,0,0,0,0,0,0,0,0,0,0,0,0,0,0,0,0,0,0,0,0,0,0,0,0,0,0,0,0,0,0,0,0,0,0,0,0,0,0],"split_type":[0,0,0,0,0,0,0,0,0,0,0,0,0,0,0,0,0,0,0,0,0,0,0,0,0,0,0,0,0,0,0,0,0,0,0,0,0,0,0,0,0,0,0,0,0,0,0,0,0,0,0,0,0,0,0,0,0,0,0,0,0,0,0,0,0,0,0,0,0,0,0,0,0,0,0,0,0,0,0,0,0,0,0,0,0,0,0,0,0,0,0,0,0,0,0,0,0,0,0,0,0,0,0,0,0,0,0,0,0,0,0,0,0,0,0,0,0,0,0,0,0,0,0,0,0,0,0],"sum_hessian":[3.86298E5,2.5749E5,1.28808E5,1.8837E5,6.912E4,1.03608E5,2.52E4,8.1065E4,1.07305E5,3.456E4,3.456E4,7.7849E4,2.5759E4,6.408E3,1.8792E4,3.2765E4,4.83E4,8.5871E4,2.1434E4,2.496E4,9.6E3,1.728E4,1.728E4,3.0145E4,4.7704E4,6.445E3,1.9314E4,2.666E3,3.742E3,1.1016E4,7.776E3,1.5912E4,1.6853E4,3.3597E4,1.4703E4,7.787E3,7.8084E4,4.078E3,1.7356E4,2.403E4,9.3E2,7.68E3,1.92E3,7.68E3,9.6E3,3.84E3,1.344E4,2.2632E4,7.513E3,1.0609E4,3.7095E4,3.686E3,2.759E3,6.445E3,1.2869E4,1.385E3,1.281E3,3.491E3,2.51E2,1.0404E4,6.12E2,5.184E3,2.592E3,7.881E3,8.031E3,3.792E3,1.3061E4,1.2136E4,2.1461E4,9.802E3,4.901E3,3.937E3,3.85E3,5.8563E4,1.9521E4,2.337E3,1.741E3,5.612E3,1.1744E4,1.647E4,7.56E3,3.6E2,5.7E2,3.84E3,3.84E3,4.8E2,1.44E3,3.84E3,3.84E3,3.84E3,5.76E3,1.92E3,1.92E3,1.176E4,1.68E3,5.82E3,1.6812E4,4.417E3,3.096E3,5.952E3,4.657E3,5.756E3,3.1339E4,1.941E3,1.745E3,1.903E3,8.56E2,1.941E3,4.504E3,8.692E3,4.177E3,6.63E2,7.22E2,1.185E3,9.6E1,3.023E3,4.68E2,2.15E2,3.6E1,6.936E3,3.468E3,3.17E2,2.95E2,5.004E3,1.8E2,1.296E3,1.296E3],"tree_param":{"num_deleted":"0","num_feature":"8","num_nodes":"127","size_leaf_vector":"1"}},{"base_weights":[-1.8823345E-6,-2.6821114E-2,2.2557473E-2,-4.4987578E-2,8.4786897E-4,4.3898743E-2,-1.6452767E-2,-3.0731758E-2,-6.730185E-2,4.4311617E-2,-2.8260434E-2,5.9607673E-2,-1.903195E-2,2.0044908E-2,-4.0963713E-2,-5.5306554E-2,-9.2757195E-3,-7.982912E-2,-6.33047E-2,7.16265E-2,-2.6246723E-2,-5.4483257E-2,2.4525542E-3,7.258031E-2,-1.4563318E-2,8.361092E-2,-5.4975957E-2,9.768512E-2,-2.4949055E-2,-6.1882436E-2,1.7001727E-3,-6.508199E-2,-4.4203945E-2,1.964297E-2,-3.047084E-2,-9.848419E-2,-7.235753E-2,-3.0440116E-2,-6.725676E-2,7.99814E-2,-4.7815003E-2,-1.4131745E-2,-5.169937E-2,-3.354375E-2,-6.207425E-2,-3.0173002E-2,3.6132727E-2,-8.197307E-3,8.0073155E-2,-7.016323E-5,-4.0716898E-2,1.0800048E-1,-5.721956E-3,-7.841058E-2,-4.268302E-2,1.4343419E-2,1.4368837E-1,-1.5396631E-2,-7.267896E-2,-4.1800965E-2,-8.199484E-2,-3.394893E-2,4.4770975E-2,-6.704918E-3,-4.861257E-3,-2.5229857E-3,-4.6342397E-3,-1.5334561E-3,3.1305542E-3,-3.33197E-3,-2.5108954E-4,-8.65079E-3,-7.0475624E-3,-6.5623694E-3,-4.7067543E-3,-6.4752274E-3,-1.1727384E-3,-7.819877E-3,-5.1311743E-3,2.1427192E-3,7.384339E-3,-3.2167109E-3,-4.9047414E-3,-2.1389052E-3,1.8893383E-3,-1.2064505E-3,-6.6807503E-3,1.316442E-3,-6.68255E-3,-5.750612E-3,-3.355995E-3,-3.7817988E-3,-1.0231578E-3,5.0148666E-3,1.5348078E-4,-3.4302017E-3,7.8797825E-3,8.25254E-3,4.31637E-3,-1.8643877E-3,9.121594E-4,-7.191013E-3,-1.6307939E-3,1.116921E-2,3.9484347E-3,3.5858427E-3,-5.068531E-3,-6.5090912E-3,-2.601435E-3,-2.3594724E-3,-5.274034E-3,1.9462302E-3,-6.1314534E-3,1.3178383E-2,-3.0671537E-3,4.5861385E-4,-2.9219182E-3,-4.111772E-3,-8.176918E-3,5.154433E-5,-4.1388674E-3,-1.1957917E-2,-5.2923253E-3,-4.40594E-3,-1.3891023E-3,6.2246844E-3,-6.572798E-4],"categories":[],"categories_nodes":[],"categories_segments":[],"categories_sizes":[],"default_left":[0,0,0,0,0,0,0,0,0,0,0,0,0,0,0,0,0,0,0,0,0,0,0,0,0,0,0,0,0,0,0,0,0,0,0,0,0,0,0,0,0,0,0,0,0,0,0,0,0,0,0,0,0,0,0,0,0,0,0,0,0,0,0,0,0,0,0,0,0,0,0,0,0,0,0,0,0,0,0,0,0,0,0,0,0,0,0,0,0,0,0,0,0,0,0,0,0,0,0,0,0,0,0,0,0,0,0,0,0,0,0,0,0,0,0,0,0,0,0,0,0,0,0,0,0,0,0],"id":8,"left_children":[1,3,5,7,9,11,13,15,17,19,21,23,25,27,29,31,33,35,37,39,41,43,45,47,49,51,53,55,57,59,61,63,65,67,69,71,73,75,77,79,81,83,85,87,89,91,93,95,97,99,101,103,105,107,109,111,113,115,117,119,121,123,125,-1,-1,-1,-1,-1,-1,-1,-1,-1,-1,-1,-1,-1,-1,-1,-1,-1,-1,-1,-1,-1,-1,-1,-1,-1,-1,-1,-1,-1,-1,-1,-1,-1,-1,-1,-1,-1,-1,-1,-1,-1,-1,-1,-1,-1,-1,-1,-1,-1,-1,-1,-1,-1,-1,-1,-1,-1,-1,-1,-1,-1,-1,-1,-1],"loss_changes":[2.3372101E2,8.871081E1,1.7467592E2,3.3888535E1,8.849892E1,1.3407156E2,6.637421E1,3.4277287E1,2.0744934E0,5.407592E1,3.3740776E1,1.0442688E2,9.995771E1,1.0413544E2,3.9613464E1,3.2858887E0,2.1274351E1,1.392559E0,4.0878296E0,2.0188797E1,2.4140234E0,3.590065E0,2.12042E1,5.590985E1,6.1242747E0,1.5310963E1,5.777275E0,4.1930275E1,8.603766E0,1.2025528E1,2.2425022E1,1.297432E0,2.4651031E0,1.1104546E1,6.1195507E0,2.781391E-1,9.33506E-1,2.694059E0,2.665268E0,1.2390564E1,1.3332629E-1,2.5257196E0,2.939968E0,1.5035088E1,3.2706528E0,2.9130344E0,8.626025E0,2.9021124E1,5.0959595E1,2.7716057E0,5.757662E0,1.0227432E1,4.395861E0,9.328766E-1,4.0335903E0,3.5366504E0,2.6997177E1,7.0208397E0,1.9726543E0,6.2852993E0,1.58946E1,2.7988243E0,1.15788555E1,0E0,0E0,0E0,0E0,0E0,0E0,0E0,0E0,0E0,0E0,0E0,0E0,0E0,0E0,0E0,0E0,0E0,0E0,0E0,0E0,0E0,0E0,0E0,0E0,0E0,0E0,0E0,0E0,0E0,0E0,0E0,0E0,0E0,0E0,0E0,0E0,0E0,0E0,0E0,0E0,0E0,0E0,0E0,0E0,0E0,0E0,0E0,0E0,0E0,0E0,0E0,0E0,0E0,0E0,0E0,0E0,0E0,0E0,0E0,0E0,0E0,0E0,0E0,0E0],"parents":[2147483647,0,0,1,1,2,2,3,3,4,4,5,5,6,6,7,7,8,8,9,9,10,10,11,11,12,12,13,13,14,14,15,15,16,16,17,17,18,18,19,19,20,20,21,21,22,22,23,23,24,24,25,25,26,26,27,27,28,28,29,29,30,30,31,31,32,32,33,33,34,34,35,35,36,36,37,37,38,38,39,39,40,40,41,41,42,42,43,43,44,44,45,45,46,46,47,47,48,48,49,49,50,50,51,51,52,52,53,53,54,54,55,55,56,56,57,57,58,58,59,59,60,60,61,61,62,62],"right_children":[2,4,6,8,10,12,14,16,18,20,22,24,26,28,30,32,34,36,38,40,42,44,46,48,50,52,54,56,58,60,62,64,66,68,70,72,74,76,78,80,82,84,86,88,90,92,94,96,98,100,102,104,106,108,110,112,114,116,118,120,122,124,126,-1,-1,-1,-1,-1,-1,-1,-1,-1,-1,-1,-1,-1,-1,-1,-1,-1,-1,-1,-1,-1,-1,-1,-1,-1,-1,-1,-1,-1,-1,-1,-1,-1,-1,-1,-1,-1,-1,-1,-1,-1,-1,-1,-1,-1,-1,-1,-1,-1,-1,-1,-1,-1,-1,-1,-1,-1,-1,-1,-1,-1,-1,-1,-1],"split_conditions":[1.8468256E-1,6E0,1.5E1,1.6E1,6E0,1.2E1,3E0,4E0,4E0,5E0,2E1,5E0,7E0,1.7E1,1.2E1,8.88031E-2,5E0,2E1,6E0,1.7E1,4E0,1E1,1.2E1,4E0,3E-1,5E0,2.961785E-1,4.1236302E-1,2.2E1,6E0,1.8E1,3E0,9E0,2E0,1.2E1,1.9E1,4E0,2E1,7E0,1E0,3E0,3E0,6E0,1.2E1,1.8E1,2.2E1,4E0,6E0,9E0,7E0,5.2497303E-1,6E0,4E0,1.7E1,1.2E1,6E0,5E0,2E0,9E0,1.6E1,1.6E1,4.4360372E-1,1.5E-1,-6.704918E-3,-4.861257E-3,-2.5229857E-3,-4.6342397E-3,-1.5334561E-3,3.1305542E-3,-3.33197E-3,-2.5108954E-4,-8.65079E-3,-7.0475624E-3,-6.5623694E-3,-4.7067543E-3,-6.4752274E-3,-1.1727384E-3,-7.819877E-3,-5.1311743E-3,2.1427192E-3,7.384339E-3,-3.2167109E-3,-4.9047414E-3,-2.1389052E-3,1.8893383E-3,-1.2064505E-3,-6.6807503E-3,1.316442E-3,-6.68255E-3,-5.750612E-3,-3.355995E-3,-3.7817988E-3,-1.0231578E-3,5.0148666E-3,1.5348078E-4,-3.4302017E-3,7.8797825E-3,8.25254E-3,4.31637E-3,-1.8643877E-3,9.121594E-4,-7.191013E-3,-1.6307939E-3,1.116921E-2,3.9484347E-3,3.5858427E-3,-5.068531E-3,-6.5090912E-3,-2.601435E-3,-2.3594724E-3,-5.274034E-3,1.9462302E-3,-6.1314534E-3,1.3178383E-2,-3.0671537E-3,4.5861385E-4,-2.9219182E-3,-4.111772E-3,-8.176918E-3,5.154433E-5,-4.1388674E-3,-1.1957917E-2,-5.2923253E-3,-4.40594E-3,-1.3891023E-3,6.2246844E-3,-6.572798E-4],"split_indices":[6,7,1,1,1,7,7,1,0,2,1,2,1,1,7,6,2,1,0,0,1,1,7,1,4,2,6,6,1,7,1,0,0,7,1,1,2,1,0,1,2,1,2,7,1,1,2,7,0,1,6,1,1,0,1,2,2,7,0,1,1,6,4,0,0,0,0,0,0,0,0,0,0,0,0,0,0,0,0,0,0,0,0,0,0,0,0,0,0,0,0,0,0,0,0,0,0,0,0,0,0,0,0,0,0,0,0,0,0,0,0,0,0,0,0,0,0,0,0,0,0,0,0,0,0,0,0],"split_type":[0,0,0,0,0,0,0,0,0,0,0,0,0,0,0,0,0,0,0,0,0,0,0,0,0,0,0,0,0,0,0,0,0,0,0,0,0,0,0,0,0,0,0,0,0,0,0,0,0,0,0,0,0,0,0,0,0,0,0,0,0,0,0,0,0,0,0,0,0,0,0,0,0,0,0,0,0,0,0,0,0,0,0,0,0,0,0,0,0,0,0,0,0,0,0,0,0,0,0,0,0,0,0,0,0,0,0,0,0,0,0,0,0,0,0,0,0,0,0,0,0,0,0,0,0,0,0],"sum_hessian":[3.86298E5,1.76486E5,2.09812E5,1.06537E5,6.9949E4,1.35619E5,7.4193E4,6.5008E4,4.1529E4,2.8056E4,4.1893E4,1.08528E5,2.7091E4,2.9808E4,4.4385E4,3.0301E4,3.4707E4,1.0041E4,3.1488E4,2.0226E4,7.83E3,2.2598E4,1.9295E4,9.2372E4,1.6156E4,7.026E3,2.0065E4,1.0936E4,1.8872E4,2.9782E4,1.4603E4,1.6111E4,1.419E4,1.4679E4,2.0028E4,2.868E3,7.173E3,3.381E3,2.8107E4,1.8904E4,1.322E3,5.306E3,2.524E3,6.014E3,1.6584E4,9.801E3,9.494E3,7.841E3,8.4531E4,1.0396E4,5.76E3,5.519E3,1.507E3,6.902E3,1.3163E4,3.89E3,7.046E3,1.5726E4,3.146E3,1.4904E4,1.4878E4,7.99E3,6.613E3,3.014E3,1.3097E4,7.381E3,6.809E3,4.907E3,9.772E3,1.4214E4,5.814E3,1.482E3,1.386E3,4.179E3,2.994E3,8.04E2,2.577E3,2.604E3,2.5503E4,3.556E3,1.5348E4,8.48E2,4.74E2,3.978E3,1.328E3,1.174E3,1.35E3,3.007E3,3.007E3,1.1148E4,5.436E3,4.94E3,4.861E3,5.345E3,4.149E3,5.918E3,1.923E3,4.4871E4,3.966E4,3.436E3,6.96E3,1.684E3,4.076E3,3.585E3,1.934E3,8.03E2,7.04E2,6.484E3,4.18E2,8.399E3,4.764E3,3.506E3,3.84E2,6.316E3,7.3E2,7.863E3,7.863E3,1.83E3,1.316E3,2.827E3,1.2077E4,2.827E3,1.2051E4,3.513E3,4.477E3,4.073E3,2.54E3],"tree_param":{"num_deleted":"0","num_feature":"8","num_nodes":"127","size_leaf_vector":"1"}},{"base_weights":[-2.028482E-6,-2.4865558E-2,2.0603877E-2,-4.169309E-2,7.6474407E-4,4.0203582E-2,-1.5231217E-2,-2.8672727E-2,-6.204074E-2,4.052776E-2,-2.5997387E-2,5.4613944E-2,-1.7527567E-2,1.7961998E-2,-3.7523374E-2,-5.097743E-2,-9.0354495E-3,-7.327918E-2,-5.844238E-2,6.555607E-2,-2.4098853E-2,-5.0185863E-2,2.0188962E-3,6.661385E-2,-1.3283583E-2,7.708918E-2,-5.0876416E-2,8.9675516E-2,-2.3260575E-2,-5.681415E-2,1.8231702E-3,-5.9567086E-2,-4.0370163E-2,1.7504651E-2,-2.826041E-2,-9.961172E-2,-6.872793E-2,-2.762998E-2,-6.211768E-2,7.326243E-2,-4.399594E-2,-4.113066E-2,-7.0608645E-3,-3.0961324E-2,-5.71985E-2,-2.7938174E-2,3.2945175E-2,8.772441E-2,4.2338777E-2,6.755385E-3,-2.989973E-2,9.982708E-2,-5.9567974E-3,-6.845679E-2,-3.6195625E-2,1.531607E-2,1.3371173E-1,-1.4565705E-2,-6.6612884E-2,-3.8386572E-2,-7.5269915E-2,-2.2781694E-2,5.87222E-2,-6.1624884E-3,-4.4463794E-3,-2.274661E-3,-4.2727077E-3,3.8684472E-3,-2.9159183E-4,-3.0710124E-3,-2.6505353E-4,-8.0889845E-3,-6.394685E-3,-4.620678E-3,-6.327664E-3,-5.9942435E-3,-1.0510909E-3,-7.189244E-3,-4.742739E-3,1.9353343E-3,6.772232E-3,-5.0841407E-3,-3.1431937E-3,-6.228514E-4,-4.804275E-3,-3.7692492E-3,1.2553841E-3,1.2225058E-3,-6.175485E-3,-5.3052083E-3,-3.078282E-3,-3.4938871E-3,-9.562686E-4,4.571097E-3,1.3960405E-4,3.332195E-3,9.586624E-3,1.2420389E-3,5.997089E-3,1.9924399E-3,-5.750089E-4,-2.9928498E-3,8.798098E-4,1.0295992E-2,3.6560385E-3,3.1579162E-3,-4.65142E-3,-7.1547697E-3,-5.0703213E-3,-1.955496E-3,-5.6016347E-3,1.959028E-3,-5.539617E-3,1.228497E-2,-2.8833516E-3,3.8133515E-4,-2.7117014E-3,-3.7677428E-3,-7.509877E-3,4.3672993E-5,-3.7943267E-3,-1.10039115E-2,-4.861017E-3,-3.3114492E-3,-1.1862835E-4,9.712158E-3,-1.0172586E-3],"categories":[],"categories_nodes":[],"categories_segments":[],"categories_sizes":[],"default_left":[0,0,0,0,0,0,0,0,0,0,0,0,0,0,0,0,0,0,0,0,0,0,0,0,0,0,0,0,0,0,0,0,0,0,0,0,0,0,0,0,0,0,0,0,0,0,0,0,0,0,0,0,0,0,0,0,0,0,0,0,0,0,0,0,0,0,0,0,0,0,0,0,0,0,0,0,0,0,0,0,0,0,0,0,0,0,0,0,0,0,0,0,0,0,0,0,0,0,0,0,0,0,0,0,0,0,0,0,0,0,0,0,0,0,0,0,0,0,0,0,0,0,0,0,0,0,0],"id":9,"left_children":[1,3,5,7,9,11,13,15,17,19,21,23,25,27,29,31,33,35,37,39,41,43,45,47,49,51,53,55,57,59,61,63,65,67,69,71,73,75,77,79,81,83,85,87,89,91,93,95,97,99,101,103,105,107,109,111,113,115,117,119,121,123,125,-1,-1,-1,-1,-1,-1,-1,-1,-1,-1,-1,-1,-1,-1,-1,-1,-1,-1,-1,-1,-1,-1,-1,-1,-1,-1,-1,-1,-1,-1,-1,-1,-1,-1,-1,-1,-1,-1,-1,-1,-1,-1,-1,-1,-1,-1,-1,-1,-1,-1,-1,-1,-1,-1,-1,-1,-1,-1,-1,-1,-1,-1,-1,-1],"loss_changes":[1.9791522E2,7.550421E1,1.4836374E2,2.7996414E1,7.383662E1,1.13601395E2,5.5264465E1,2.8226685E1,1.6632843E0,4.5150715E1,2.8105156E1,8.903421E1,8.607267E1,8.870925E1,3.391335E1,2.7467499E0,1.7487688E1,1.1912537E0,3.5360565E0,1.6990303E1,2.2611427E0,2.998806E0,1.7804718E1,4.758487E1,5.4652452E0,1.3424458E1,5.2030106E0,3.586364E1,7.181674E0,1.0193497E1,2.0581234E1,1.1565323E0,2.1002636E0,9.394632E0,5.0214834E0,3.5354614E-2,9.6520996E-1,2.282125E0,2.189003E0,1.0505447E1,1.1925864E-1,2.4584627E0,3.5523577E0,1.2723828E1,2.7804413E0,2.4548912E0,7.137678E0,7.346872E1,3.7785805E1,1.8832502E0,2.7567005E0,8.716034E0,3.62732E0,9.7187424E-1,4.368079E0,3.1621737E0,2.3185547E1,5.931997E0,1.6889992E0,5.2821465E0,1.3524178E1,4.0682087E0,1.9873636E1,0E0,0E0,0E0,0E0,0E0,0E0,0E0,0E0,0E0,0E0,0E0,0E0,0E0,0E0,0E0,0E0,0E0,0E0,0E0,0E0,0E0,0E0,0E0,0E0,0E0,0E0,0E0,0E0,0E0,0E0,0E0,0E0,0E0,0E0,0E0,0E0,0E0,0E0,0E0,0E0,0E0,0E0,0E0,0E0,0E0,0E0,0E0,0E0,0E0,0E0,0E0,0E0,0E0,0E0,0E0,0E0,0E0,0E0,0E0,0E0,0E0,0E0,0E0,0E0],"parents":[2147483647,0,0,1,1,2,2,3,3,4,4,5,5,6,6,7,7,8,8,9,9,10,10,11,11,12,12,13,13,14,14,15,15,16,16,17,17,18,18,19,19,20,20,21,21,22,22,23,23,24,24,25,25,26,26,27,27,28,28,29,29,30,30,31,31,32,32,33,33,34,34,35,35,36,36,37,37,38,38,39,39,40,40,41,41,42,42,43,43,44,44,45,45,46,46,47,47,48,48,49,49,50,50,51,51,52,52,53,53,54,54,55,55,56,56,57,57,58,58,59,59,60,60,61,61,62,62],"right_children":[2,4,6,8,10,12,14,16,18,20,22,24,26,28,30,32,34,36,38,40,42,44,46,48,50,52,54,56,58,60,62,64,66,68,70,72,74,76,78,80,82,84,86,88,90,92,94,96,98,100,102,104,106,108,110,112,114,116,118,120,122,124,126,-1,-1,-1,-1,-1,-1,-1,-1,-1,-1,-1,-1,-1,-1,-1,-1,-1,-1,-1,-1,-1,-1,-1,-1,-1,-1,-1,-1,-1,-1,-1,-1,-1,-1,-1,-1,-1,-1,-1,-1,-1,-1,-1,-1,-1,-1,-1,-1,-1,-1,-1,-1,-1,-1,-1,-1,-1,-1,-1,-1,-1,-1,-1,-1],"split_conditions":[1.8284865E-1,6E0,1.5E1,1.6E1,6E0,1.2E1,3E0,4E0,4E0,5E0,2E1,5E0,7E0,1.7E1,1.2E1,9.110925E-2,5E0,1.9E1,6E0,1.7E1,1.2E1,1E1,1.2E1,9E0,1.5E-1,5E0,3.3467495E-1,4.2113906E-1,2.2E1,6E0,1.9E1,3E0,9E0,1E1,1.2E1,1.6987239E-1,2E0,2E1,7E0,1E0,1E0,2E0,2E0,1.2E1,1.8E1,2.2E1,4E0,4E0,1.4E1,6E0,7.742198E-1,6E0,4E0,3E0,3E-1,6E0,5E0,2E0,9E0,1.6E1,1.6E1,1.7E1,1.5E-1,-6.1624884E-3,-4.4463794E-3,-2.274661E-3,-4.2727077E-3,3.8684472E-3,-2.9159183E-4,-3.0710124E-3,-2.6505353E-4,-8.0889845E-3,-6.394685E-3,-4.620678E-3,-6.327664E-3,-5.9942435E-3,-1.0510909E-3,-7.189244E-3,-4.742739E-3,1.9353343E-3,6.772232E-3,-5.0841407E-3,-3.1431937E-3,-6.228514E-4,-4.804275E-3,-3.7692492E-3,1.2553841E-3,1.2225058E-3,-6.175485E-3,-5.3052083E-3,-3.078282E-3,-3.4938871E-3,-9.562686E-4,4.571097E-3,1.3960405E-4,3.332195E-3,9.586624E-3,1.2420389E-3,5.997089E-3,1.9924399E-3,-5.750089E-4,-2.9928498E-3,8.798098E-4,1.0295992E-2,3.6560385E-3,3.1579162E-3,-4.65142E-3,-7.1547697E-3,-5.0703213E-3,-1.955496E-3,-5.6016347E-3,1.959028E-3,-5.539617E-3,1.228497E-2,-2.8833516E-3,3.8133515E-4,-2.7117014E-3,-3.7677428E-3,-7.509877E-3,4.3672993E-5,-3.7943267E-3,-1.10039115E-2,-4.861017E-3,-3.3114492E-3,-1.1862835E-4,9.712158E-3,-1.0172586E-3],"split_indices":[6,7,1,1,1,7,7,1,0,2,1,2,1,1,7,6,2,1,0,0,7,1,7,0,4,2,6,6,1,7,1,0,0,0,1,6,0,1,0,1,2,1,1,7,1,1,2,0,0,0,6,1,1,0,4,2,2,7,0,1,1,1,4,0,0,0,0,0,0,0,0,0,0,0,0,0,0,0,0,0,0,0,0,0,0,0,0,0,0,0,0,0,0,0,0,0,0,0,0,0,0,0,0,0,0,0,0,0,0,0,0,0,0,0,0,0,0,0,0,0,0,0,0,0,0,0,0],"split_type":[0,0,0,0,0,0,0,0,0,0,0,0,0,0,0,0,0,0,0,0,0,0,0,0,0,0,0,0,0,0,0,0,0,0,0,0,0,0,0,0,0,0,0,0,0,0,0,0,0,0,0,0,0,0,0,0,0,0,0,0,0,0,0,0,0,0,0,0,0,0,0,0,0,0,0,0,0,0,0,0,0,0,0,0,0,0,0,0,0,0,0,0,0,0,0,0,0,0,0,0,0,0,0,0,0,0,0,0,0,0,0,0,0,0,0,0,0,0,0,0,0,0,0,0,0,0,0],"sum_hessian":[3.86298E5,1.75063E5,2.11235E5,1.05679E5,6.9384E4,1.3655E5,7.4685E4,6.4444E4,4.1235E4,2.7912E4,4.1472E4,1.09274E5,2.7276E4,3.0006E4,4.4679E4,3.0172E4,3.4272E4,9.996E3,3.1239E4,2.012E4,7.792E3,2.2256E4,1.9216E4,9.2862E4,1.6412E4,7.108E3,2.0168E4,1.0952E4,1.9054E4,2.998E4,1.4699E4,1.6669E4,1.3503E4,1.4397E4,1.9875E4,1.47E3,8.526E3,3.33E3,2.7909E4,1.8798E4,1.322E3,3.896E3,3.896E3,5.95E3,1.6306E4,9.761E3,9.455E3,4.9667E4,4.3195E4,7.44E3,8.972E3,5.58E3,1.528E3,9.176E3,1.0992E4,4.074E3,6.878E3,1.5872E4,3.182E3,1.5003E4,1.4977E4,1.0262E4,4.437E3,3.095E3,1.3574E4,7.051E3,6.452E3,5.855E3,8.542E3,1.4136E4,5.739E3,1.362E3,1.08E2,4.146E3,4.38E3,7.8E2,2.55E3,2.583E3,2.5326E4,3.542E3,1.5256E4,2.54E2,1.068E3,1.411E3,2.485E3,1.411E3,2.485E3,2.975E3,2.975E3,1.0964E4,5.342E3,4.918E3,4.843E3,5.325E3,4.13E3,2.0399E4,2.9268E4,2.371E4,1.9485E4,3.232E3,4.208E3,7.58E3,1.392E3,3.638E3,1.942E3,8.17E2,7.11E2,1.785E3,7.391E3,8.159E3,2.833E3,3.676E3,3.98E2,6.158E3,7.2E2,7.936E3,7.936E3,1.856E3,1.326E3,2.828E3,1.2175E4,2.828E3,1.2149E4,5.476E3,4.786E3,2.363E3,2.074E3],"tree_param":{"num_deleted":"0","num_feature":"8","num_nodes":"127","size_leaf_vector":"1"}},{"base_weights":[-2.1045576E-6,-2.4035035E-2,1.8106947E-2,-4.007864E-2,4.0878396E-4,3.6024597E-2,-1.4680128E-2,-2.8579807E-2,-5.6988854E-2,2.6527742E-2,-3.437947E-2,4.8810028E-2,-1.5205565E-2,3.303199E-2,-2.6675029E-2,-4.764215E-2,-1.0039656E-2,-7.0039704E-2,-5.4007463E-2,6.3712366E-2,-4.3092747E-3,-4.137596E-2,-1.7181162E-2,6.010932E-2,-1.1869355E-2,7.25684E-2,-4.761531E-2,1.12432614E-1,-1.0495053E-2,-3.63706E-2,3.0026382E-3,-5.391581E-2,-3.4946807E-2,1.3332486E-2,-2.6547933E-2,-5.886149E-2,-8.840372E-2,-4.2857464E-2,-5.985275E-2,7.092648E-2,-4.4302132E-2,-2.7609544E-2,1.9810958E-2,-2.5602698E-2,-6.5467075E-2,-5.804134E-2,2.2674283E-2,-9.602095E-3,6.706047E-2,-7.1113335E-4,-3.5374902E-2,9.411883E-2,-6.397915E-3,-6.814012E-2,-3.6155887E-2,3.0352732E-2,1.6248296E-1,3.9929457E-2,-2.8310398E-2,-2.0665018E-2,-6.783276E-2,-2.175992E-2,5.593497E-2,-3.4706588E-3,-4.6930974E-3,-3.7055507E-3,1.4868299E-4,-1.9315212E-3,2.5732662E-3,-2.9000284E-3,3.8734276E-4,-5.92291E-3,-3.1628418E-3,-7.5485343E-3,-6.887372E-3,-4.3219104E-3,-1.3353971E-3,-6.10302E-3,-4.364451E-3,3.0900636E-3,7.6143006E-3,-2.4597787E-3,-5.490189E-3,-3.1719392E-3,-2.5751145E-4,2.3083205E-3,-3.8710597E-3,-7.9332624E-4,-3.1572643E-3,-5.6796023E-3,-4.1669277E-3,-6.9738817E-3,-4.219013E-3,-2.4665587E-3,6.0935663E-3,-3.35207E-3,7.2018486E-3,5.6906007E-3,-3.7163321E-3,-1.6861082E-3,7.406312E-4,-6.3767866E-3,-1.3634289E-3,9.66945E-3,3.2882104E-3,2.8552036E-3,-4.364846E-3,-5.7301433E-3,-3.1628006E-3,-1.9426269E-3,-4.566099E-3,3.6820837E-3,-2.5046424E-3,1.4606396E-2,-7.5453543E-4,-1.0313605E-3,5.0707045E-3,-1.3450403E-3,-5.306851E-3,3.2903594E-3,-2.7606257E-3,-1.0093004E-2,-4.378445E-3,-3.0819764E-3,-2.2493735E-4,8.53313E-3,-9.754408E-4],"categories":[],"categories_nodes":[],"categories_segments":[],"categories_sizes":[],"default_left":[0,0,0,0,0,0,0,0,0,0,0,0,0,0,0,0,0,0,0,0,0,0,0,0,0,0,0,0,0,0,0,0,0,0,0,0,0,0,0,0,0,0,0,0,0,0,0,0,0,0,0,0,0,0,0,0,0,0,0,0,0,0,0,0,0,0,0,0,0,0,0,0,0,0,0,0,0,0,0,0,0,0,0,0,0,0,0,0,0,0,0,0,0,0,0,0,0,0,0,0,0,0,0,0,0,0,0,0,0,0,0,0,0,0,0,0,0,0,0,0,0,0,0,0,0,0,0],"id":10,"left_children":[1,3,5,7,9,11,13,15,17,19,21,23,25,27,29,31,33,35,37,39,41,43,45,47,49,51,53,55,57,59,61,63,65,67,69,71,73,75,77,79,81,83,85,87,89,91,93,95,97,99,101,103,105,107,109,111,113,115,117,119,121,123,125,-1,-1,-1,-1,-1,-1,-1,-1,-1,-1,-1,-1,-1,-1,-1,-1,-1,-1,-1,-1,-1,-1,-1,-1,-1,-1,-1,-1,-1,-1,-1,-1,-1,-1,-1,-1,-1,-1,-1,-1,-1,-1,-1,-1,-1,-1,-1,-1,-1,-1,-1,-1,-1,-1,-1,-1,-1,-1,-1,-1,-1,-1,-1,-1],"loss_changes":[1.68123E2,6.509935E1,1.2942015E2,1.9485916E1,5.9770782E1,9.330742E1,4.4554024E1,2.108342E1,1.5745392E0,4.3082687E1,3.393612E0,7.81644E1,8.0941765E1,5.4054176E1,1.7900543E1,2.340828E0,1.166951E1,1.5425835E0,2.1498337E0,1.3275757E1,1.1544189E1,7.6176147E0,1.3288253E1,4.6571167E1,4.694002E0,1.3058193E1,4.885044E0,2.274588E1,9.076959E0,2.3168922E1,2.0081755E1,9.818039E-1,4.073206E0,8.837492E0,5.3984356E0,1.3725071E0,3.1106949E-2,3.3187237E0,1.8818665E0,1.2504311E1,3.4970737E-1,3.0679913E0,6.22604E0,2.6349854E0,5.830803E-1,6.1791515E-1,1.1826648E1,2.8046656E1,4.0399048E1,2.4642653E0,4.680894E0,8.543617E0,3.3385015E0,7.3960876E-1,3.311369E0,2.0299747E0,1.188681E1,3.2690167E0,3.2629547E0,2.6757774E1,1.1925301E1,3.3156533E0,1.6877312E1,0E0,0E0,0E0,0E0,0E0,0E0,0E0,0E0,0E0,0E0,0E0,0E0,0E0,0E0,0E0,0E0,0E0,0E0,0E0,0E0,0E0,0E0,0E0,0E0,0E0,0E0,0E0,0E0,0E0,0E0,0E0,0E0,0E0,0E0,0E0,0E0,0E0,0E0,0E0,0E0,0E0,0E0,0E0,0E0,0E0,0E0,0E0,0E0,0E0,0E0,0E0,0E0,0E0,0E0,0E0,0E0,0E0,0E0,0E0,0E0,0E0,0E0,0E0,0E0],"parents":[2147483647,0,0,1,1,2,2,3,3,4,4,5,5,6,6,7,7,8,8,9,9,10,10,11,11,12,12,13,13,14,14,15,15,16,16,17,17,18,18,19,19,20,20,21,21,22,22,23,23,24,24,25,25,26,26,27,27,28,28,29,29,30,30,31,31,32,32,33,33,34,34,35,35,36,36,37,37,38,38,39,39,40,40,41,41,42,42,43,43,44,44,45,45,46,46,47,47,48,48,49,49,50,50,51,51,52,52,53,53,54,54,55,55,56,56,57,57,58,58,59,59,60,60,61,61,62,62],"right_children":[2,4,6,8,10,12,14,16,18,20,22,24,26,28,30,32,34,36,38,40,42,44,46,48,50,52,54,56,58,60,62,64,66,68,70,72,74,76,78,80,82,84,86,88,90,92,94,96,98,100,102,104,106,108,110,112,114,116,118,120,122,124,126,-1,-1,-1,-1,-1,-1,-1,-1,-1,-1,-1,-1,-1,-1,-1,-1,-1,-1,-1,-1,-1,-1,-1,-1,-1,-1,-1,-1,-1,-1,-1,-1,-1,-1,-1,-1,-1,-1,-1,-1,-1,-1,-1,-1,-1,-1,-1,-1,-1,-1,-1,-1,-1,-1,-1,-1,-1,-1,-1,-1,-1,-1,-1,-1],"split_conditions":[1.7173715E-1,6E0,1.5E1,1.5E1,5E0,1.2E1,2E0,4E0,3E0,5E0,1.8E1,5E0,7E0,1.7E1,1.2E1,3E0,5E0,2E0,9E0,1.7E1,1.2E1,1E1,6E0,4E0,3E-1,5E0,2.932201E-1,4.2113906E-1,1.8E1,6E0,1.9E1,6E0,3E0,2E0,1.2E1,1E0,2E0,7E0,1.1E1,2E0,3E0,2.2E1,1.7E1,6E0,1.6E1,1.9E1,1.2E1,6E0,1.7E1,7E0,5.2497303E-1,6E0,4E0,6E0,1.2E1,5E0,5E0,3.543309E-1,2.2E1,1.6E1,1.6E1,1.7E1,1.5E-1,-3.4706588E-3,-4.6930974E-3,-3.7055507E-3,1.4868299E-4,-1.9315212E-3,2.5732662E-3,-2.9000284E-3,3.8734276E-4,-5.92291E-3,-3.1628418E-3,-7.5485343E-3,-6.887372E-3,-4.3219104E-3,-1.3353971E-3,-6.10302E-3,-4.364451E-3,3.0900636E-3,7.6143006E-3,-2.4597787E-3,-5.490189E-3,-3.1719392E-3,-2.5751145E-4,2.3083205E-3,-3.8710597E-3,-7.9332624E-4,-3.1572643E-3,-5.6796023E-3,-4.1669277E-3,-6.9738817E-3,-4.219013E-3,-2.4665587E-3,6.0935663E-3,-3.35207E-3,7.2018486E-3,5.6906007E-3,-3.7163321E-3,-1.6861082E-3,7.406312E-4,-6.3767866E-3,-1.3634289E-3,9.66945E-3,3.2882104E-3,2.8552036E-3,-4.364846E-3,-5.7301433E-3,-3.1628006E-3,-1.9426269E-3,-4.566099E-3,3.6820837E-3,-2.5046424E-3,1.4606396E-2,-7.5453543E-4,-1.0313605E-3,5.0707045E-3,-1.3450403E-3,-5.306851E-3,3.2903594E-3,-2.7606257E-3,-1.0093004E-2,-4.378445E-3,-3.0819764E-3,-2.2493735E-4,8.53313E-3,-9.754408E-4],"split_indices":[6,7,1,1,2,7,7,1,0,1,1,2,1,1,7,7,2,0,0,0,7,1,2,1,4,2,6,6,1,7,1,0,1,7,1,0,2,0,0,1,2,1,0,2,1,1,7,7,0,1,6,1,1,2,1,2,2,6,1,1,1,1,4,0,0,0,0,0,0,0,0,0,0,0,0,0,0,0,0,0,0,0,0,0,0,0,0,0,0,0,0,0,0,0,0,0,0,0,0,0,0,0,0,0,0,0,0,0,0,0,0,0,0,0,0,0,0,0,0,0,0,0,0,0,0,0,0],"split_type":[0,0,0,0,0,0,0,0,0,0,0,0,0,0,0,0,0,0,0,0,0,0,0,0,0,0,0,0,0,0,0,0,0,0,0,0,0,0,0,0,0,0,0,0,0,0,0,0,0,0,0,0,0,0,0,0,0,0,0,0,0,0,0,0,0,0,0,0,0,0,0,0,0,0,0,0,0,0,0,0,0,0,0,0,0,0,0,0,0,0,0,0,0,0,0,0,0,0,0,0,0,0,0,0,0,0,0,0,0,0,0,0,0,0,0,0,0,0,0,0,0,0,0,0,0,0,0],"sum_hessian":[3.86298E5,1.65998E5,2.203E5,1.00219E5,6.5779E4,1.42452E5,7.7848E4,5.9656E4,4.0563E4,3.7571E4,2.8208E4,1.14001E5,2.8451E4,1.5639E4,6.2209E4,2.9413E4,3.0243E4,7.539E3,3.3024E4,1.7032E4,2.0539E4,2.005E4,8.158E3,9.6105E4,1.7896E4,7.672E3,2.0779E4,5.537E3,1.0102E4,4.689E4,1.5319E4,1.9683E4,9.73E3,1.2519E4,1.7724E4,4.689E3,2.85E3,1.1361E4,2.1663E4,1.5966E4,1.066E3,1.0447E4,1.0092E4,1.2118E4,7.932E3,4.028E3,4.13E3,8.714E3,8.7391E4,1.2136E4,5.76E3,6.027E3,1.645E3,7.443E3,1.3336E4,2.098E3,3.439E3,2.637E3,7.465E3,3.1278E4,1.5612E4,1.0437E4,4.882E3,6.119E3,1.3564E4,7.433E3,2.297E3,4.187E3,8.332E3,1.3539E4,4.185E3,2.625E3,2.064E3,7.86E2,2.064E3,7.962E3,3.399E3,5.277E3,1.6386E4,6.848E3,9.118E3,6.86E2,3.8E2,6.994E3,3.453E3,8.911E3,1.181E3,5.686E3,6.432E3,5.61E3,2.322E3,6.18E2,3.41E3,2.065E3,2.065E3,6.581E3,2.133E3,8.4365E4,3.026E3,3.988E3,8.148E3,1.684E3,4.076E3,4.005E3,2.022E3,8.78E2,7.67E2,6.633E3,8.1E2,8.509E3,4.827E3,1.673E3,4.25E2,3.079E3,3.6E2,8.11E2,1.826E3,5.733E3,1.732E3,5.724E3,2.5554E4,2.862E3,1.275E4,5.537E3,4.9E3,2.798E3,2.084E3],"tree_param":{"num_deleted":"0","num_feature":"8","num_nodes":"127","size_leaf_vector":"1"}},{"base_weights":[-2.1470528E-6,-2.094381E-2,1.7613212E-2,-3.508638E-2,5.9646566E-4,3.422368E-2,-1.2749477E-2,-2.430559E-2,-5.3212028E-2,3.4796882E-2,-2.2308048E-2,4.6460792E-2,-1.479876E-2,1.6345628E-2,-3.2289043E-2,-4.305605E-2,-8.740581E-3,-7.0192195E-2,-5.096765E-2,5.6099456E-2,-2.0230824E-2,-4.3298714E-2,2.2768595E-3,6.2233977E-2,4.6346276E-3,6.5043055E-2,-4.2758178E-2,7.793156E-2,-1.9344602E-2,-4.8849948E-2,1.4870218E-3,-5.126155E-2,-3.373675E-2,1.5108666E-2,-2.4781E-2,-8.765578E-2,-4.5661572E-2,-6.27002E-2,-4.5623668E-2,8.396363E-2,3.194807E-2,-9.058913E-3,-4.3703735E-2,-2.6622003E-2,-4.9344365E-2,-2.3285529E-2,2.8665511E-2,3.9753105E-2,9.879057E-2,-2.5061302E-2,3.7354212E-2,8.3963506E-2,-4.2579467E-3,-5.769189E-2,-3.0427486E-2,4.3358477E-3,1.12131745E-1,-1.17074745E-2,-5.750468E-2,-3.3778276E-2,-6.3944675E-2,-1.908611E-2,4.9702603E-2,-5.41447E-3,-3.7982487E-3,-3.3731896E-3,-1.3340655E-3,-1.4434847E-3,2.5404932E-3,-2.7393457E-3,-9.600983E-4,-6.733467E-3,-8.647808E-3,-1.1231982E-3,-4.394814E-3,-3.937986E-3,-5.5786213E-3,-3.0827124E-3,-4.3163574E-3,1.9599672E-3,9.711517E-3,7.295952E-4,4.944791E-3,-1.6472052E-3,2.037756E-3,-8.98791E-4,-5.7528308E-3,1.2612361E-3,-5.5200486E-3,-4.774167E-3,-3.044101E-3,-2.3837351E-4,-2.6685938E-3,4.073038E-3,-3.3890053E-8,5.572594E-3,2.4509013E-3,9.969551E-3,5.584813E-3,2.4444878E-4,-4.1690273E-3,6.1468636E-3,-7.6492236E-4,9.086425E-3,3.4523862E-3,-7.007932E-3,1.7106908E-3,-6.135972E-3,-4.24834E-3,-1.5711021E-3,-4.918474E-3,8.5450127E-4,-6.5836865E-3,1.0272894E-2,-2.6897634E-3,3.773876E-4,-2.2504644E-3,-1.956891E-3,-5.7253935E-3,-1.8299378E-3,-5.1564896E-3,-9.314466E-3,-4.1298796E-3,-2.8075555E-3,-5.792411E-5,8.340276E-3,-8.548006E-4],"categories":[],"categories_nodes":[],"categories_segments":[],"categories_sizes":[],"default_left":[0,0,0,0,0,0,0,0,0,0,0,0,0,0,0,0,0,0,0,0,0,0,0,0,0,0,0,0,0,0,0,0,0,0,0,0,0,0,0,0,0,0,0,0,0,0,0,0,0,0,0,0,0,0,0,0,0,0,0,0,0,0,0,0,0,0,0,0,0,0,0,0,0,0,0,0,0,0,0,0,0,0,0,0,0,0,0,0,0,0,0,0,0,0,0,0,0,0,0,0,0,0,0,0,0,0,0,0,0,0,0,0,0,0,0,0,0,0,0,0,0,0,0,0,0,0,0],"id":11,"left_children":[1,3,5,7,9,11,13,15,17,19,21,23,25,27,29,31,33,35,37,39,41,43,45,47,49,51,53,55,57,59,61,63,65,67,69,71,73,75,77,79,81,83,85,87,89,91,93,95,97,99,101,103,105,107,109,111,113,115,117,119,121,123,125,-1,-1,-1,-1,-1,-1,-1,-1,-1,-1,-1,-1,-1,-1,-1,-1,-1,-1,-1,-1,-1,-1,-1,-1,-1,-1,-1,-1,-1,-1,-1,-1,-1,-1,-1,-1,-1,-1,-1,-1,-1,-1,-1,-1,-1,-1,-1,-1,-1,-1,-1,-1,-1,-1,-1,-1,-1,-1,-1,-1,-1,-1,-1,-1],"loss_changes":[1.4250409E2,5.3764114E1,1.05817215E2,2.0817184E1,5.4795677E1,8.13582E1,4.2180244E1,1.9497025E1,1.510643E0,3.2890446E1,2.1619644E1,7.159976E1,6.0481083E1,6.552216E1,2.4827927E1,2.3154488E0,1.3965434E1,1.982027E0,2.197731E0,1.3609249E1,2.053184E0,2.277153E0,1.3016918E1,6.4763214E1,2.8879004E1,9.214203E0,3.6932602E0,2.7527802E1,5.4995494E0,6.773552E0,1.448732E1,9.976883E-1,2.0398407E0,8.102489E0,2.6385088E0,1.8388176E-1,5.6519365E-1,1.0371971E0,1.422409E0,2.089914E1,7.3869057E0,2.113669E0,2.3116817E0,1.080596E1,1.9330101E0,2.0045915E0,6.0553827E0,1.330262E1,2.2453888E1,1.1851156E1,2.6194218E1,6.6667023E0,3.2244697E0,7.871876E-1,3.6817398E0,1.9089427E0,1.7721931E1,4.242494E0,1.4606056E0,4.98444E0,9.6161E0,3.009099E0,1.439016E1,0E0,0E0,0E0,0E0,0E0,0E0,0E0,0E0,0E0,0E0,0E0,0E0,0E0,0E0,0E0,0E0,0E0,0E0,0E0,0E0,0E0,0E0,0E0,0E0,0E0,0E0,0E0,0E0,0E0,0E0,0E0,0E0,0E0,0E0,0E0,0E0,0E0,0E0,0E0,0E0,0E0,0E0,0E0,0E0,0E0,0E0,0E0,0E0,0E0,0E0,0E0,0E0,0E0,0E0,0E0,0E0,0E0,0E0,0E0,0E0,0E0,0E0,0E0,0E0],"parents":[2147483647,0,0,1,1,2,2,3,3,4,4,5,5,6,6,7,7,8,8,9,9,10,10,11,11,12,12,13,13,14,14,15,15,16,16,17,17,18,18,19,19,20,20,21,21,22,22,23,23,24,24,25,25,26,26,27,27,28,28,29,29,30,30,31,31,32,32,33,33,34,34,35,35,36,36,37,37,38,38,39,39,40,40,41,41,42,42,43,43,44,44,45,45,46,46,47,47,48,48,49,49,50,50,51,51,52,52,53,53,54,54,55,55,56,56,57,57,58,58,59,59,60,60,61,61,62,62],"right_children":[2,4,6,8,10,12,14,16,18,20,22,24,26,28,30,32,34,36,38,40,42,44,46,48,50,52,54,56,58,60,62,64,66,68,70,72,74,76,78,80,82,84,86,88,90,92,94,96,98,100,102,104,106,108,110,112,114,116,118,120,122,124,126,-1,-1,-1,-1,-1,-1,-1,-1,-1,-1,-1,-1,-1,-1,-1,-1,-1,-1,-1,-1,-1,-1,-1,-1,-1,-1,-1,-1,-1,-1,-1,-1,-1,-1,-1,-1,-1,-1,-1,-1,-1,-1,-1,-1,-1,-1,-1,-1,-1,-1,-1,-1,-1,-1,-1,-1,-1,-1,-1,-1,-1,-1,-1,-1],"split_conditions":[1.8468256E-1,6E0,1.5E1,1.7E1,6E0,1.2E1,3E0,4E0,1.9E1,5E0,2E1,1.5E-1,7E0,1.7E1,1.2E1,8.88031E-2,5E0,1.1E1,2E0,9E0,4E0,1E1,1.2E1,3.4422594E-1,6.2164056E-1,5E0,3.3467495E-1,3.9304793E-1,2.2E1,6E0,1.9E1,3E0,3E0,2E0,1.1E1,1E1,5E0,2.1E1,1E1,3E0,1.4E1,3E0,6E0,1.2E1,1.6E1,6E0,4E0,7E0,8E0,3E-1,9E0,9E0,4E0,3E0,3E-1,1.5E-1,5E0,2E0,1.5E-1,1.5E-1,1.6E1,1.7E1,1.5E-1,-5.41447E-3,-3.7982487E-3,-3.3731896E-3,-1.3340655E-3,-1.4434847E-3,2.5404932E-3,-2.7393457E-3,-9.600983E-4,-6.733467E-3,-8.647808E-3,-1.1231982E-3,-4.394814E-3,-3.937986E-3,-5.5786213E-3,-3.0827124E-3,-4.3163574E-3,1.9599672E-3,9.711517E-3,7.295952E-4,4.944791E-3,-1.6472052E-3,2.037756E-3,-8.98791E-4,-5.7528308E-3,1.2612361E-3,-5.5200486E-3,-4.774167E-3,-3.044101E-3,-2.3837351E-4,-2.6685938E-3,4.073038E-3,-3.3890053E-8,5.572594E-3,2.4509013E-3,9.969551E-3,5.584813E-3,2.4444878E-4,-4.1690273E-3,6.1468636E-3,-7.6492236E-4,9.086425E-3,3.4523862E-3,-7.007932E-3,1.7106908E-3,-6.135972E-3,-4.24834E-3,-1.5711021E-3,-4.918474E-3,8.5450127E-4,-6.5836865E-3,1.0272894E-2,-2.6897634E-3,3.773876E-4,-2.2504644E-3,-1.956891E-3,-5.7253935E-3,-1.8299378E-3,-5.1564896E-3,-9.314466E-3,-4.1298796E-3,-2.8075555E-3,-5.792411E-5,8.340276E-3,-8.548006E-4],"split_indices":[6,7,1,1,1,7,7,1,1,2,1,4,1,1,7,6,2,0,2,0,1,1,7,6,6,2,6,6,1,7,1,0,7,7,1,0,2,1,0,0,0,1,2,7,1,0,2,1,0,4,0,0,0,0,4,4,2,7,4,4,1,1,4,0,0,0,0,0,0,0,0,0,0,0,0,0,0,0,0,0,0,0,0,0,0,0,0,0,0,0,0,0,0,0,0,0,0,0,0,0,0,0,0,0,0,0,0,0,0,0,0,0,0,0,0,0,0,0,0,0,0,0,0,0,0,0,0],"split_type":[0,0,0,0,0,0,0,0,0,0,0,0,0,0,0,0,0,0,0,0,0,0,0,0,0,0,0,0,0,0,0,0,0,0,0,0,0,0,0,0,0,0,0,0,0,0,0,0,0,0,0,0,0,0,0,0,0,0,0,0,0,0,0,0,0,0,0,0,0,0,0,0,0,0,0,0,0,0,0,0,0,0,0,0,0,0,0,0,0,0,0,0,0,0,0,0,0,0,0,0,0,0,0,0,0,0,0,0,0,0,0,0,0,0,0,0,0,0,0,0,0,0,0,0,0,0,0],"sum_hessian":[3.86298E5,1.76486E5,2.09812E5,1.06537E5,6.9949E4,1.35619E5,7.4193E4,6.6805E4,3.9732E4,2.8056E4,4.1893E4,1.08528E5,2.7091E4,2.9808E4,4.4385E4,3.0301E4,3.6504E4,4.635E3,3.5097E4,2.0226E4,7.83E3,2.2598E4,1.9295E4,7.8808E4,2.972E4,7.026E3,2.0065E4,1.0936E4,1.8872E4,2.9782E4,1.4603E4,1.6111E4,1.419E4,1.4679E4,2.1825E4,2.706E3,1.929E3,1.098E4,2.4117E4,9.39E3,1.0836E4,5.306E3,2.524E3,6.014E3,1.6584E4,9.801E3,9.494E3,4.88E4,3.0008E4,1.558E4,1.414E4,5.519E3,1.507E3,9.073E3,1.0992E4,3.47E3,7.466E3,1.5726E4,3.146E3,1.4904E4,1.4878E4,1.0236E4,4.367E3,3.014E3,1.3097E4,9.497E3,4.693E3,4.907E3,9.772E3,1.254E4,9.285E3,2.316E3,3.9E2,4.38E2,1.491E3,3.768E3,7.212E3,1.3032E4,1.1085E4,3.628E3,5.762E3,6.142E3,4.694E3,3.978E3,1.328E3,1.174E3,1.35E3,3.007E3,3.007E3,8.658E3,7.926E3,3.25E3,6.551E3,5.345E3,4.149E3,1.14E4,3.74E4,1.5865E4,1.4143E4,7.64E3,7.94E3,7.678E3,6.462E3,3.197E3,2.322E3,3.54E2,1.153E3,1.761E3,7.312E3,8.159E3,2.833E3,3.234E3,2.36E2,6.716E3,7.5E2,7.863E3,7.863E3,9.4E2,2.206E3,1.0997E4,3.907E3,2.827E3,1.2051E4,5.468E3,4.768E3,2.294E3,2.073E3],"tree_param":{"num_deleted":"0","num_feature":"8","num_nodes":"127","size_leaf_vector":"1"}},{"base_weights":[-2.1374597E-6,1.08129475E-2,-2.948245E-2,2.6411418E-2,-2.036309E-2,-4.6246365E-2,-2.6129173E-2,4.5683242E-2,7.139315E-3,-2.9798012E-2,1.882475E-2,-3.1510234E-2,-7.570804E-2,1.9956473E-3,-3.3160303E-2,5.9509464E-3,7.746836E-2,-3.094617E-2,1.8021157E-2,-4.0493768E-2,-4.7511724E-3,-1.29937E-2,3.8319293E-2,-5.294387E-2,-1.0071123E-2,-7.028909E-2,-9.633279E-2,-1.7382335E-2,4.07479E-2,-6.907185E-2,-2.989458E-2,2.6848048E-2,-1.494644E-2,1.3228494E-1,4.092092E-2,1.193236E-2,-7.3821746E-2,2.8920412E-2,-4.7370896E-2,-5.428948E-2,-3.6270488E-2,5.016454E-2,-2.3080833E-2,-4.9026843E-2,-2.3980327E-3,5.4461997E-2,-3.028065E-2,-4.4594288E-2,-6.3657105E-2,-2.6587031E-3,-2.2418208E-2,-7.7155925E-2,-6.378667E-2,-1.17599346E-1,-8.5295424E-2,-3.0520879E-2,-4.240772E-3,5.2044623E-2,2.1904657E-2,-6.4154916E-2,-8.425611E-2,1.2031839E-2,-3.4087356E-2,-1.5534451E-3,5.8489274E-3,-5.165343E-3,2.774027E-3,8.043099E-3,1.3121479E-2,-4.279818E-3,7.050443E-3,-1.8470477E-3,1.5922878E-3,-5.3681373E-3,-8.969146E-3,5.631639E-4,5.8143768E-3,-3.217007E-3,-8.852273E-3,-3.3933225E-3,-5.175576E-3,3.522202E-4,-3.3347846E-3,6.5346295E-3,-3.578942E-3,1.8341876E-4,-2.8632127E-3,-2.7009333E-3,-5.95363E-3,-1.3873137E-3,3.583478E-3,6.5315883E-3,1.0941263E-3,-1.4512418E-3,-9.7411E-3,-4.278382E-3,-3.0916943E-3,-4.37878E-3,-5.5652186E-3,-1.0074134E-3,1.3762533E-3,-2.8816045E-3,2.5557375E-3,-6.514103E-3,-5.367609E-3,-6.1385394E-3,-4.408669E-3,-1.21806115E-2,-8.679436E-3,-6.071556E-3,-8.797584E-3,-2.6796018E-3,-1.250462E-3,3.8360766E-4,-1.5436641E-3,3.3408978E-3,5.8047622E-3,7.977205E-5,8.427138E-3,-6.4583803E-3,-4.981757E-3,-7.0983088E-3,-4.981325E-3,3.9289203E-3,5.910556E-4,-3.9593554E-3,-2.1987462E-3],"categories":[],"categories_nodes":[],"categories_segments":[],"categories_sizes":[],"default_left":[0,0,0,0,0,0,0,0,0,0,0,0,0,0,0,0,0,0,0,0,0,0,0,0,0,0,0,0,0,0,0,0,0,0,0,0,0,0,0,0,0,0,0,0,0,0,0,0,0,0,0,0,0,0,0,0,0,0,0,0,0,0,0,0,0,0,0,0,0,0,0,0,0,0,0,0,0,0,0,0,0,0,0,0,0,0,0,0,0,0,0,0,0,0,0,0,0,0,0,0,0,0,0,0,0,0,0,0,0,0,0,0,0,0,0,0,0,0,0,0,0,0,0,0,0,0,0],"id":12,"left_children":[1,3,5,7,9,11,13,15,17,19,21,23,25,27,29,31,33,35,37,39,41,43,45,47,49,51,53,55,57,59,61,63,65,67,69,71,73,75,77,79,81,83,85,87,89,91,93,95,97,99,101,103,105,107,109,111,113,115,117,119,121,123,125,-1,-1,-1,-1,-1,-1,-1,-1,-1,-1,-1,-1,-1,-1,-1,-1,-1,-1,-1,-1,-1,-1,-1,-1,-1,-1,-1,-1,-1,-1,-1,-1,-1,-1,-1,-1,-1,-1,-1,-1,-1,-1,-1,-1,-1,-1,-1,-1,-1,-1,-1,-1,-1,-1,-1,-1,-1,-1,-1,-1,-1,-1,-1,-1],"loss_changes":[1.2316484E2,1.3743774E2,5.8271255E0,6.996228E1,3.484764E1,7.5001793E0,1.7085804E1,1.1894664E2,3.903502E1,2.0349365E1,1.134491E1,5.2935762E0,6.3710403E-1,1.297771E1,8.104256E0,1.8280882E1,1.0482474E2,3.84813E1,5.221273E1,3.0993805E0,2.288288E1,2.6529772E0,1.2560541E1,5.124893E-1,5.2719736E-1,1.9895554E-1,2.7070236E-1,1.9890976E0,1.2251863E0,4.247074E-1,1.1138527E1,4.4802856E1,5.1539593E1,2.1069794E1,1.3995142E2,2.9221103E0,2.6856613E0,6.0121326E1,4.736601E0,1.5382996E0,8.97562E0,1.7020199E1,5.4964485E0,6.0956645E-1,3.7884116E0,1.0177532E1,2.3978336E0,1.692257E-1,1.2908554E-1,7.107195E-1,1.5991312E0,8.9743614E-2,2.598858E-1,1.1161995E-1,1.7513704E-1,2.5460434E-1,7.8379166E-1,7.56649E-1,3.7695627E0,1.3092232E-1,1.32761E-1,9.915936E-1,5.8576355E0,0E0,0E0,0E0,0E0,0E0,0E0,0E0,0E0,0E0,0E0,0E0,0E0,0E0,0E0,0E0,0E0,0E0,0E0,0E0,0E0,0E0,0E0,0E0,0E0,0E0,0E0,0E0,0E0,0E0,0E0,0E0,0E0,0E0,0E0,0E0,0E0,0E0,0E0,0E0,0E0,0E0,0E0,0E0,0E0,0E0,0E0,0E0,0E0,0E0,0E0,0E0,0E0,0E0,0E0,0E0,0E0,0E0,0E0,0E0,0E0,0E0,0E0,0E0,0E0],"parents":[2147483647,0,0,1,1,2,2,3,3,4,4,5,5,6,6,7,7,8,8,9,9,10,10,11,11,12,12,13,13,14,14,15,15,16,16,17,17,18,18,19,19,20,20,21,21,22,22,23,23,24,24,25,25,26,26,27,27,28,28,29,29,30,30,31,31,32,32,33,33,34,34,35,35,36,36,37,37,38,38,39,39,40,40,41,41,42,42,43,43,44,44,45,45,46,46,47,47,48,48,49,49,50,50,51,51,52,52,53,53,54,54,55,55,56,56,57,57,58,58,59,59,60,60,61,61,62,62],"right_children":[2,4,6,8,10,12,14,16,18,20,22,24,26,28,30,32,34,36,38,40,42,44,46,48,50,52,54,56,58,60,62,64,66,68,70,72,74,76,78,80,82,84,86,88,90,92,94,96,98,100,102,104,106,108,110,112,114,116,118,120,122,124,126,-1,-1,-1,-1,-1,-1,-1,-1,-1,-1,-1,-1,-1,-1,-1,-1,-1,-1,-1,-1,-1,-1,-1,-1,-1,-1,-1,-1,-1,-1,-1,-1,-1,-1,-1,-1,-1,-1,-1,-1,-1,-1,-1,-1,-1,-1,-1,-1,-1,-1,-1,-1,-1,-1,-1,-1,-1,-1,-1,-1,-1,-1,-1,-1],"split_conditions":[5E0,1.6E1,3E0,9E0,1.2E1,2E0,6E0,4E0,1.1E1,3.674092E-1,1.9E1,1E0,1.3653998E-1,5E0,7E0,2E0,6E0,1E1,1.7E1,4E0,2E0,2.961785E-1,4E0,1.18368305E-1,1.5E1,6E0,7E0,4E0,1.5E1,1.2979324E-1,8E0,1E0,3E0,5E0,7E0,3E0,3.0205745E-1,1.5E1,5.366604E-1,2E0,6E0,1.9E1,3E0,3E0,1.8E1,2.2E1,1.5E-1,3E0,3E0,1E1,1.2E1,8.642319E-2,1E1,2E0,1.7E1,2E1,1.5E1,1E1,1.2E1,2E0,4.5E-1,6.689482E-2,1.1E1,-1.5534451E-3,5.8489274E-3,-5.165343E-3,2.774027E-3,8.043099E-3,1.3121479E-2,-4.279818E-3,7.050443E-3,-1.8470477E-3,1.5922878E-3,-5.3681373E-3,-8.969146E-3,5.631639E-4,5.8143768E-3,-3.217007E-3,-8.852273E-3,-3.3933225E-3,-5.175576E-3,3.522202E-4,-3.3347846E-3,6.5346295E-3,-3.578942E-3,1.8341876E-4,-2.8632127E-3,-2.7009333E-3,-5.95363E-3,-1.3873137E-3,3.583478E-3,6.5315883E-3,1.0941263E-3,-1.4512418E-3,-9.7411E-3,-4.278382E-3,-3.0916943E-3,-4.37878E-3,-5.5652186E-3,-1.0074134E-3,1.3762533E-3,-2.8816045E-3,2.5557375E-3,-6.514103E-3,-5.367609E-3,-6.1385394E-3,-4.408669E-3,-1.21806115E-2,-8.679436E-3,-6.071556E-3,-8.797584E-3,-2.6796018E-3,-1.250462E-3,3.8360766E-4,-1.5436641E-3,3.3408978E-3,5.8047622E-3,7.977205E-5,8.427138E-3,-6.4583803E-3,-4.981757E-3,-7.0983088E-3,-4.981325E-3,3.9289203E-3,5.910556E-4,-3.9593554E-3,-2.1987462E-3],"split_indices":[2,1,0,0,7,0,0,0,0,6,1,0,6,0,0,0,0,0,0,0,7,6,2,6,1,2,1,0,1,6,0,0,0,0,0,1,6,0,6,0,0,1,7,2,1,1,4,7,7,1,7,6,1,7,1,1,1,1,7,1,4,6,0,0,0,0,0,0,0,0,0,0,0,0,0,0,0,0,0,0,0,0,0,0,0,0,0,0,0,0,0,0,0,0,0,0,0,0,0,0,0,0,0,0,0,0,0,0,0,0,0,0,0,0,0,0,0,0,0,0,0,0,0,0,0,0,0],"split_type":[0,0,0,0,0,0,0,0,0,0,0,0,0,0,0,0,0,0,0,0,0,0,0,0,0,0,0,0,0,0,0,0,0,0,0,0,0,0,0,0,0,0,0,0,0,0,0,0,0,0,0,0,0,0,0,0,0,0,0,0,0,0,0,0,0,0,0,0,0,0,0,0,0,0,0,0,0,0,0,0,0,0,0,0,0,0,0,0,0,0,0,0,0,0,0,0,0,0,0,0,0,0,0,0,0,0,0,0,0,0,0,0,0,0,0,0,0,0,0,0,0,0,0,0,0,0,0],"sum_hessian":[3.86298E5,2.82618E5,1.0368E5,1.8837E5,9.4248E4,1.728E4,8.64E4,9.4185E4,9.4185E4,7.596E4,1.8288E4,1.152E4,5.76E3,1.728E4,6.912E4,4.186E4,5.2325E4,2.093E4,7.3255E4,5.3229E4,2.2731E4,6.948E3,1.134E4,5.76E3,5.76E3,4.565E3,1.195E3,1.152E4,5.76E3,5.76E3,6.336E4,2.093E4,2.093E4,2.093E4,3.1395E4,1.0465E4,1.0465E4,6.279E4,1.0465E4,1.2473E4,4.0756E4,5.688E3,1.7043E4,1.578E3,5.37E3,9.18E3,2.16E3,3.24E3,2.52E3,3.6E3,2.16E3,2.215E3,2.35E3,4.05E2,7.9E2,5.76E3,5.76E3,3.6E3,2.16E3,4.355E3,1.405E3,5.76E3,5.76E4,1.0465E4,1.0465E4,1.0465E4,1.0465E4,1.0465E4,1.0465E4,1.0465E4,2.093E4,1.94E3,8.525E3,8.905E3,1.56E3,4.186E4,2.093E4,9.403E3,1.062E3,5.828E3,6.645E3,4.788E3,3.5968E4,4.27E3,1.418E3,5.688E3,1.1355E4,9.87E2,5.91E2,4.079E3,1.291E3,5.508E3,3.672E3,1.908E3,2.52E2,1.296E3,1.944E3,1.008E3,1.512E3,2.4E3,1.2E3,1.728E3,4.32E2,1.55E3,6.65E2,9.4E2,1.41E3,8.1E1,3.24E2,5.75E2,2.15E2,4.8E3,9.6E2,3.6E3,2.16E3,2.4E3,1.2E3,1.728E3,4.32E2,4.4E2,3.915E3,1.165E3,2.4E2,6.4E2,5.12E3,1.728E4,4.032E4],"tree_param":{"num_deleted":"0","num_feature":"8","num_nodes":"127","size_leaf_vector":"1"}},{"base_weights":[-2.2362983E-6,-2.042058E-2,1.35284085E-2,-3.4125507E-2,4.6833386E-4,2.7386352E-2,-1.181376E-2,-2.6245728E-2,-4.6936642E-2,2.1624116E-2,-2.707356E-2,3.768468E-2,-1.3886156E-2,2.486232E-2,-2.1035407E-2,-4.1721378E-2,-1.1364018E-2,-5.5952076E-2,-4.3415718E-2,5.0405968E-2,-4.021061E-3,-7.4413274E-3,-3.1580675E-2,4.733521E-2,-1.0379245E-2,6.08527E-2,-4.3259725E-2,7.355392E-2,-2.4473777E-2,-2.9345458E-2,4.411894E-3,-4.7194336E-2,-3.0646708E-2,4.0318992E-4,-3.4254845E-2,-4.4883925E-2,-6.631689E-2,-6.509416E-2,-3.9812237E-2,5.6896016E-2,-4.221444E-2,-2.2129344E-2,1.4760967E-2,-1.8412681E-2,2.521434E-2,-4.2087693E-2,-1.3077981E-2,-1.0394202E-2,5.365672E-2,-3.624493E-2,-4.0949034E-3,7.817523E-2,-2.3290452E-3,-5.82336E-2,-3.4053445E-2,1.763842E-2,1.12825245E-1,-1.5868355E-2,-6.0367655E-2,-1.7044546E-2,-5.3989556E-2,-1.8420119E-2,4.8598606E-2,-4.007444E-3,-2.66044E-3,-3.2504334E-3,1.5279888E-4,-1.6801604E-3,8.9131255E-4,-8.9634786E-4,-3.4965621E-3,-2.9367043E-3,-4.8960866E-3,-3.6361453E-3,-6.0456744E-3,-6.290724E-3,-3.6039592E-3,-2.6990871E-3,-3.7332266E-3,2.2508889E-3,6.297327E-3,-2.4013058E-3,-5.1371315E-3,-2.809661E-3,1.1404266E-4,1.7782304E-3,-3.3626652E-3,-3.4930324E-4,-2.38899E-3,-3.4517646E-3,7.482821E-3,-2.2348296E-3,-4.4987113E-3,-4.0375716E-3,1.8652274E-3,-3.193199E-3,6.4628967E-3,4.5850556E-3,-2.968001E-3,-6.269464E-3,-1.7745581E-3,1.957171E-4,-1.8971807E-3,8.131022E-3,2.227006E-3,2.7980134E-3,-3.6784864E-3,-4.9403245E-3,-2.0520408E-3,-1.848654E-3,-4.2671124E-3,-1.5030663E-3,2.89059E-3,1.0101595E-2,-2.688883E-4,-2.4609957E-3,8.708822E-4,-2.9443444E-3,-7.543556E-3,2.7436176E-3,-2.2371027E-3,-8.610338E-3,-3.4039814E-3,-3.1183867E-3,-5.3753325E-4,6.82599E-3,-9.272809E-4],"categories":[],"categories_nodes":[],"categories_segments":[],"categories_sizes":[],"default_left":[0,0,0,0,0,0,0,0,0,0,0,0,0,0,0,0,0,0,0,0,0,0,0,0,0,0,0,0,0,0,0,0,0,0,0,0,0,0,0,0,0,0,0,0,0,0,0,0,0,0,0,0,0,0,0,0,0,0,0,0,0,0,0,0,0,0,0,0,0,0,0,0,0,0,0,0,0,0,0,0,0,0,0,0,0,0,0,0,0,0,0,0,0,0,0,0,0,0,0,0,0,0,0,0,0,0,0,0,0,0,0,0,0,0,0,0,0,0,0,0,0,0,0,0,0,0,0],"id":13,"left_children":[1,3,5,7,9,11,13,15,17,19,21,23,25,27,29,31,33,35,37,39,41,43,45,47,49,51,53,55,57,59,61,63,65,67,69,71,73,75,77,79,81,83,85,87,89,91,93,95,97,99,101,103,105,107,109,111,113,115,117,119,121,123,125,-1,-1,-1,-1,-1,-1,-1,-1,-1,-1,-1,-1,-1,-1,-1,-1,-1,-1,-1,-1,-1,-1,-1,-1,-1,-1,-1,-1,-1,-1,-1,-1,-1,-1,-1,-1,-1,-1,-1,-1,-1,-1,-1,-1,-1,-1,-1,-1,-1,-1,-1,-1,-1,-1,-1,-1,-1,-1,-1,-1,-1,-1,-1,-1],"loss_changes":[1.06724396E2,4.4076706E1,8.159483E1,9.383781E0,3.5541145E1,6.384205E1,2.7780054E1,1.3256981E1,1.1213837E0,2.5463718E1,2.3445225E0,5.575804E1,6.585205E1,3.964619E1,1.38796425E1,1.7089462E0,7.904954E0,1.1373329E0,1.9866829E0,9.77346E0,6.205298E0,1.7735764E0,4.1891384E0,3.6533676E1,3.267244E0,9.262661E0,2.966423E0,1.8236954E1,2.5312567E0,1.499778E1,1.6302242E1,7.613373E-1,3.0346203E0,4.4557176E0,2.1704416E0,6.3938236E-1,9.8729134E-1,9.8110676E-1,9.073944E-1,9.5310135E0,2.838707E-1,2.8425884E0,3.798977E0,5.9573317E-1,5.8188252E0,2.7502003E0,1.0624996E1,2.6600084E1,2.9944305E1,2.3257189E0,2.0757117E0,7.8417015E0,2.9685621E0,9.386711E-1,2.814003E0,2.3100357E0,7.6218643E0,2.6358962E0,1.2636247E0,1.850327E1,1.0103691E1,2.562752E0,1.2170014E1,0E0,0E0,0E0,0E0,0E0,0E0,0E0,0E0,0E0,0E0,0E0,0E0,0E0,0E0,0E0,0E0,0E0,0E0,0E0,0E0,0E0,0E0,0E0,0E0,0E0,0E0,0E0,0E0,0E0,0E0,0E0,0E0,0E0,0E0,0E0,0E0,0E0,0E0,0E0,0E0,0E0,0E0,0E0,0E0,0E0,0E0,0E0,0E0,0E0,0E0,0E0,0E0,0E0,0E0,0E0,0E0,0E0,0E0,0E0,0E0,0E0,0E0,0E0,0E0],"parents":[2147483647,0,0,1,1,2,2,3,3,4,4,5,5,6,6,7,7,8,8,9,9,10,10,11,11,12,12,13,13,14,14,15,15,16,16,17,17,18,18,19,19,20,20,21,21,22,22,23,23,24,24,25,25,26,26,27,27,28,28,29,29,30,30,31,31,32,32,33,33,34,34,35,35,36,36,37,37,38,38,39,39,40,40,41,41,42,42,43,43,44,44,45,45,46,46,47,47,48,48,49,49,50,50,51,51,52,52,53,53,54,54,55,55,56,56,57,57,58,58,59,59,60,60,61,61,62,62],"right_children":[2,4,6,8,10,12,14,16,18,20,22,24,26,28,30,32,34,36,38,40,42,44,46,48,50,52,54,56,58,60,62,64,66,68,70,72,74,76,78,80,82,84,86,88,90,92,94,96,98,100,102,104,106,108,110,112,114,116,118,120,122,124,126,-1,-1,-1,-1,-1,-1,-1,-1,-1,-1,-1,-1,-1,-1,-1,-1,-1,-1,-1,-1,-1,-1,-1,-1,-1,-1,-1,-1,-1,-1,-1,-1,-1,-1,-1,-1,-1,-1,-1,-1,-1,-1,-1,-1,-1,-1,-1,-1,-1,-1,-1,-1,-1,-1,-1,-1,-1,-1,-1,-1,-1,-1,-1,-1],"split_conditions":[1.5780942E-1,6E0,1.5E1,1.7E1,5E0,1.2E1,2E0,4E0,2E0,5E0,4E0,5E0,7E0,1.8E1,1.2E1,3E0,6E0,1E0,1.9E1,1.7E1,1.2E1,3E0,1.8E1,4E0,4E0,5E0,2.932201E-1,4.2113906E-1,3E-1,6E0,1.9E1,1.5E1,3E0,2E0,7E0,3E0,6E0,1.1E1,1E1,2E0,3E0,2.2E1,1.7E1,9E0,1.2E1,1.2E1,6E0,6E0,1.7E1,2E0,6E0,6E0,4E0,1.4E1,1.2E1,2.7583775E-1,5E0,2.9044196E-1,1.2E1,1.6E1,1.6E1,3.5774103E-1,1.5E-1,-4.007444E-3,-2.66044E-3,-3.2504334E-3,1.5279888E-4,-1.6801604E-3,8.9131255E-4,-8.9634786E-4,-3.4965621E-3,-2.9367043E-3,-4.8960866E-3,-3.6361453E-3,-6.0456744E-3,-6.290724E-3,-3.6039592E-3,-2.6990871E-3,-3.7332266E-3,2.2508889E-3,6.297327E-3,-2.4013058E-3,-5.1371315E-3,-2.809661E-3,1.1404266E-4,1.7782304E-3,-3.3626652E-3,-3.4930324E-4,-2.38899E-3,-3.4517646E-3,7.482821E-3,-2.2348296E-3,-4.4987113E-3,-4.0375716E-3,