{"learner":{"attributes":{"scikit_learn":"{\"_estimator_type\": \"regressor\"}"},"feature_names":["hour","day_of_week","is_weekend","weather_penalty","port_pressure","congestion_ratio","horizon_hours"],"feature_types":["int","int","int","float","float","float","int"],"gradient_booster":{"model":{"cats":{"enc":[],"feature_segments":[],"sorted_idx":[]},"gbtree_model_param":{"num_parallel_tree":"1","num_trees":"100"},"iteration_indptr":[0,1,2,3,4,5,6,7,8,9,10,11,12,13,14,15,16,17,18,19,20,21,22,23,24,25,26,27,28,29,30,31,32,33,34,35,36,37,38,39,40,41,42,43,44,45,46,47,48,49,50,51,52,53,54,55,56,57,58,59,60,61,62,63,64,65,66,67,68,69,70,71,72,73,74,75,76,77,78,79,80,81,82,83,84,85,86,87,88,89,90,91,92,93,94,95,96,97,98,99,100],"tree_info":[0,0,0,0,0,0,0,0,0,0,0,0,0,0,0,0,0,0,0,0,0,0,0,0,0,0,0,0,0,0,0,0,0,0,0,0,0,0,0,0,0,0,0,0,0,0,0,0,0,0,0,0,0,0,0,0,0,0,0,0,0,0,0,0,0,0,0,0,0,0,0,0,0,0,0,0,0,0,0,0,0,0,0,0,0,0,0,0,0,0,0,0,0,0,0,0,0,0,0,0],"trees":[{"base_weights":[1.0803747E-8,3.0190764E-2,-6.0732663E-2,6.4784355E-2,-6.435518E-2,-8.006934E-2,1.8920017E-2,-2.3599794E-2,8.4637314E-2,-7.7632874E-2,-5.1073756E-2,-1.3528152E-2,-8.9624E-2,-8.930156E-2,8.385607E-2,-9.495051E-2,8.435587E-2,1.0589961E-1,-9.117096E-4,-9.463895E-2,-5.211376E-2,-3.5660982E-2,-7.418442E-2,2.0170325E-1,-8.5298695E-2,-9.166594E-2,-8.404106E-2,-7.7589415E-2,-9.454645E-2,1.4739782E-1,-6.1791125E-3,-9.565337E-3,-6.1423844E-3,-1.9846812E-3,1.3543682E-2,4.399445E-4,1.2435375E-2,2.992474E-2,-9.166451E-3,-9.481991E-3,-1.59745E-3,-6.386413E-3,-4.034832E-3,-2.25059E-3,-7.5102337E-3,-4.151247E-3,-8.506496E-3,3.1001419E-2,-9.617991E-3,-5.8606765E-3,-9.006223E-3,-8.977457E-3,-9.321266E-3,-7.928922E-3,-8.877901E-3,8.092885E-3,-7.918124E-3,-9.697241E-3,-7.129668E-3,2.0963052E-2,5.3985487E-3,-8.05842E-3,1.4256795E-2],"categories":[],"categories_nodes":[],"categories_segments":[],"categories_sizes":[],"default_left":[0,0,0,0,0,0,0,0,0,0,0,0,0,0,0,0,0,0,0,0,0,0,0,0,0,0,0,0,0,0,0,0,0,0,0,0,0,0,0,0,0,0,0,0,0,0,0,0,0,0,0,0,0,0,0,0,0,0,0,0,0,0,0],"id":0,"left_children":[1,3,5,7,9,11,13,15,17,19,21,23,25,27,29,31,33,35,37,39,41,43,45,47,49,51,53,55,57,59,61,-1,-1,-1,-1,-1,-1,-1,-1,-1,-1,-1,-1,-1,-1,-1,-1,-1,-1,-1,-1,-1,-1,-1,-1,-1,-1,-1,-1,-1,-1,-1,-1],"loss_changes":[3.5415494E2,4.2197464E2,9.878334E1,1.657427E2,6.0907593E0,3.280945E1,8.805481E1,1.3346524E2,1.4029895E2,7.4946823E0,6.152836E0,1.0013099E2,5.067749E-1,2.8131866E-1,4.480201E1,2.3994446E-1,3.670321E1,1.15713806E2,4.1830188E2,1.4608002E-1,9.531326E-1,5.378311E0,2.4539604E0,5.2329773E1,6.1278534E-1,8.8256836E-2,2.6530457E-1,3.7456226E-1,1.7588806E-1,2.6677551E1,3.5881374E1,0E0,0E0,0E0,0E0,0E0,0E0,0E0,0E0,0E0,0E0,0E0,0E0,0E0,0E0,0E0,0E0,0E0,0E0,0E0,0E0,0E0,0E0,0E0,0E0,0E0,0E0,0E0,0E0,0E0,0E0,0E0,0E0],"parents":[2147483647,0,0,1,1,2,2,3,3,4,4,5,5,6,6,7,7,8,8,9,9,10,10,11,11,12,12,13,13,14,14,15,15,16,16,17,17,18,18,19,19,20,20,21,21,22,22,23,23,24,24,25,25,26,26,27,27,28,28,29,29,30,30],"right_children":[2,4,6,8,10,12,14,16,18,20,22,24,26,28,30,32,34,36,38,40,42,44,46,48,50,52,54,56,58,60,62,-1,-1,-1,-1,-1,-1,-1,-1,-1,-1,-1,-1,-1,-1,-1,-1,-1,-1,-1,-1,-1,-1,-1,-1,-1,-1,-1,-1,-1,-1,-1,-1],"split_conditions":[1.6E1,5E0,1.2E1,3E0,8E0,1.7E1,1.9E1,6E0,1.2E1,6E0,6E0,2E0,5E0,2E0,4E0,4.5E-1,1E0,5E0,6E0,8.955293E-1,1.2E1,1.4E1,1E1,5E0,1.5695447E-1,2E0,3E0,5.4704495E-2,6.4963317E-1,2.2E1,6E0,-9.565337E-3,-6.1423844E-3,-1.9846812E-3,1.3543682E-2,4.399445E-4,1.2435375E-2,2.992474E-2,-9.166451E-3,-9.481991E-3,-1.59745E-3,-6.386413E-3,-4.034832E-3,-2.25059E-3,-7.5102337E-3,-4.151247E-3,-8.506496E-3,3.1001419E-2,-9.617991E-3,-5.8606765E-3,-9.006223E-3,-8.977457E-3,-9.321266E-3,-7.928922E-3,-8.877901E-3,8.092885E-3,-7.918124E-3,-9.697241E-3,-7.129668E-3,2.0963052E-2,5.3985487E-3,-8.05842E-3,1.4256795E-2],"split_indices":[0,1,6,0,0,0,0,6,6,6,6,6,1,1,1,3,0,0,0,5,6,0,0,1,5,1,6,5,5,0,1,0,0,0,0,0,0,0,0,0,0,0,0,0,0,0,0,0,0,0,0,0,0,0,0,0,0,0,0,0,0,0,0],"split_type":[0,0,0,0,0,0,0,0,0,0,0,0,0,0,0,0,0,0,0,0,0,0,0,0,0,0,0,0,0,0,0,0,0,0,0,0,0,0,0,0,0,0,0,0,0,0,0,0,0,0,0,0,0,0,0,0,0,0,0,0,0,0,0],"sum_hessian":[1.93149E5,1.29015E5,6.4134E4,9.4455E4,3.456E4,5.1606E4,1.2528E4,1.7325E4,7.713E4,1.728E4,1.728E4,6.48E3,4.5126E4,4.698E3,7.83E3,1.0431E4,6.894E3,6.1776E4,1.5354E4,1.0368E4,6.912E3,1.0368E4,6.912E3,1.62E3,4.86E3,3.303E4,1.2096E4,1.458E3,3.24E3,4.59E3,3.24E3,1.0215E4,2.16E2,2.268E3,4.626E3,9.504E3,5.2272E4,3.564E3,1.179E4,1.0344E4,2.4E1,3.456E3,3.456E3,7.776E3,2.592E3,1.728E3,5.184E3,1.188E3,4.32E2,7.38E2,4.122E3,1.4886E4,1.8144E4,6.048E3,6.048E3,1.4E1,1.444E3,2.931E3,3.09E2,2.754E3,1.836E3,2.16E3,1.08E3],"tree_param":{"num_deleted":"0","num_feature":"7","num_nodes":"63","size_leaf_vector":"1"}},{"base_weights":[-1.3284715E-7,2.7171573E-2,-5.4659598E-2,5.8306225E-2,-5.7920933E-2,-7.206296E-2,1.7029285E-2,-2.1240065E-2,7.617402E-2,-6.858006E-2,-4.421271E-2,-1.2174324E-2,-8.0662385E-2,-8.037495E-2,7.547463E-2,-8.545698E-2,7.592195E-2,9.530985E-2,-8.191908E-4,-8.358039E-2,-4.607171E-2,-2.6565365E-2,-7.0674956E-2,1.8154612E-1,-7.677187E-2,-8.249991E-2,-7.563835E-2,-6.983036E-2,-8.509701E-2,1.3266379E-1,-5.559286E-3,-8.608898E-3,-5.530977E-3,-1.7863002E-3,1.2189605E-2,3.9595496E-4,1.1191861E-2,2.6933102E-2,-8.249884E-3,-8.717303E-3,-7.6374556E-3,-5.311075E-3,-3.7260086E-3,-1.0145617E-3,-6.759499E-3,-3.5316458E-3,-7.6560094E-3,2.7903885E-2,-8.658414E-3,-5.2754013E-3,-8.105817E-3,-8.079774E-3,-8.38919E-3,-7.136162E-3,-7.990258E-3,7.3375492E-3,-7.12686E-3,-8.727848E-3,-6.4190007E-3,1.8867508E-2,4.8589883E-3,-7.2529498E-3,1.2832433E-2],"categories":[],"categories_nodes":[],"categories_segments":[],"categories_sizes":[],"default_left":[0,0,0,0,0,0,0,0,0,0,0,0,0,0,0,0,0,0,0,0,0,0,0,0,0,0,0,0,0,0,0,0,0,0,0,0,0,0,0,0,0,0,0,0,0,0,0,0,0,0,0,0,0,0,0,0,0,0,0,0,0,0,0],"id":1,"left_children":[1,3,5,7,9,11,13,15,17,19,21,23,25,27,29,31,33,35,37,39,41,43,45,47,49,51,53,55,57,59,61,-1,-1,-1,-1,-1,-1,-1,-1,-1,-1,-1,-1,-1,-1,-1,-1,-1,-1,-1,-1,-1,-1,-1,-1,-1,-1,-1,-1,-1,-1,-1,-1],"loss_changes":[2.868661E2,3.4180878E2,8.001782E1,1.3425348E2,5.0469437E0,2.6577026E1,7.133146E1,1.0811111E2,1.13639465E2,6.560074E0,7.059454E0,8.1116295E1,4.1033936E-1,2.2802734E-1,3.6291645E1,1.9400024E-1,2.9731205E1,9.372858E1,3.3884213E2,2.9532623E-1,4.8039246E-1,6.1117597E0,1.256031E0,4.2398315E1,4.961548E-1,7.148743E-2,2.1491241E-1,3.0573225E-1,1.4221573E-1,2.1610245E1,2.9068808E1,0E0,0E0,0E0,0E0,0E0,0E0,0E0,0E0,0E0,0E0,0E0,0E0,0E0,0E0,0E0,0E0,0E0,0E0,0E0,0E0,0E0,0E0,0E0,0E0,0E0,0E0,0E0,0E0,0E0,0E0,0E0,0E0],"parents":[2147483647,0,0,1,1,2,2,3,3,4,4,5,5,6,6,7,7,8,8,9,9,10,10,11,11,12,12,13,13,14,14,15,15,16,16,17,17,18,18,19,19,20,20,21,21,22,22,23,23,24,24,25,25,26,26,27,27,28,28,29,29,30,30],"right_children":[2,4,6,8,10,12,14,16,18,20,22,24,26,28,30,32,34,36,38,40,42,44,46,48,50,52,54,56,58,60,62,-1,-1,-1,-1,-1,-1,-1,-1,-1,-1,-1,-1,-1,-1,-1,-1,-1,-1,-1,-1,-1,-1,-1,-1,-1,-1,-1,-1,-1,-1,-1,-1],"split_conditions":[1.6E1,5E0,1.2E1,3E0,9E0,1.7E1,1.9E1,6E0,1.2E1,6E0,6E0,2E0,5E0,2E0,4E0,4.5E-1,1E0,5E0,6E0,3E0,5E0,1.4E1,1E1,5E0,1.5695447E-1,2E0,3E0,5.4704495E-2,6.4963317E-1,2.2E1,6E0,-8.608898E-3,-5.530977E-3,-1.7863002E-3,1.2189605E-2,3.9595496E-4,1.1191861E-2,2.6933102E-2,-8.249884E-3,-8.717303E-3,-7.6374556E-3,-5.311075E-3,-3.7260086E-3,-1.0145617E-3,-6.759499E-3,-3.5316458E-3,-7.6560094E-3,2.7903885E-2,-8.658414E-3,-5.2754013E-3,-8.105817E-3,-8.079774E-3,-8.38919E-3,-7.136162E-3,-7.990258E-3,7.3375492E-3,-7.12686E-3,-8.727848E-3,-6.4190007E-3,1.8867508E-2,4.8589883E-3,-7.2529498E-3,1.2832433E-2],"split_indices":[0,1,6,0,0,0,0,6,6,6,6,6,1,1,1,3,0,0,0,6,0,0,0,1,5,1,6,5,5,0,1,0,0,0,0,0,0,0,0,0,0,0,0,0,0,0,0,0,0,0,0,0,0,0,0,0,0,0,0,0,0,0,0],"split_type":[0,0,0,0,0,0,0,0,0,0,0,0,0,0,0,0,0,0,0,0,0,0,0,0,0,0,0,0,0,0,0,0,0,0,0,0,0,0,0,0,0,0,0,0,0,0,0,0,0,0,0,0,0,0,0,0,0,0,0,0,0,0,0],"sum_hessian":[1.93149E5,1.29015E5,6.4134E4,9.4455E4,3.456E4,5.1606E4,1.2528E4,1.7325E4,7.713E4,1.944E4,1.512E4,6.48E3,4.5126E4,4.698E3,7.83E3,1.0431E4,6.894E3,6.1776E4,1.5354E4,1.1664E4,7.776E3,9.072E3,6.048E3,1.62E3,4.86E3,3.303E4,1.2096E4,1.458E3,3.24E3,4.59E3,3.24E3,1.0215E4,2.16E2,2.268E3,4.626E3,9.504E3,5.2272E4,3.564E3,1.179E4,7.776E3,3.888E3,4.32E3,3.456E3,6.48E3,2.592E3,8.64E2,5.184E3,1.188E3,4.32E2,7.38E2,4.122E3,1.4886E4,1.8144E4,6.048E3,6.048E3,1.4E1,1.444E3,2.931E3,3.09E2,2.754E3,1.836E3,2.16E3,1.08E3],"tree_param":{"num_deleted":"0","num_feature":"7","num_nodes":"63","size_leaf_vector":"1"}},{"base_weights":[-2.7616593E-7,2.4454271E-2,-4.9193818E-2,5.2475877E-2,-5.2130125E-2,-6.485717E-2,1.5327502E-2,-1.9116268E-2,6.8557E-2,-6.1723366E-2,-3.9792694E-2,-1.0955989E-2,-7.259685E-2,-7.234063E-2,6.79309E-2,-7.691263E-2,6.833127E-2,8.577905E-2,-7.360593E-4,-7.5223766E-2,-4.14657E-2,-2.3909688E-2,-6.360932E-2,1.6340338E-1,-6.909744E-2,-7.425042E-2,-6.8075754E-2,-6.94674E-2,-8.809687E-2,1.19402565E-1,-5.001629E-3,-7.706427E-3,4.1434183E-3,-1.6077496E-3,1.0970908E-2,3.5636374E-4,1.0072695E-2,2.4240546E-2,-7.4249655E-3,-7.845685E-3,-6.873907E-3,-4.780091E-3,-3.353516E-3,-9.131214E-4,-6.0838102E-3,-3.1788906E-3,-6.8905563E-3,2.5115846E-2,-7.7945716E-3,-7.273305E-3,-4.539031E-3,-6.5780864E-3,-7.4504614E-3,-6.6457614E-3,-7.774052E-3,-5.6789475E-3,-7.4727773E-3,1.3236875E-2,-9.075618E-3,1.6981442E-2,4.3733525E-3,-6.5279896E-3,1.1550377E-2],"categories":[],"categories_nodes":[],"categories_segments":[],"categories_sizes":[],"default_left":[0,0,0,0,0,0,0,0,0,0,0,0,0,0,0,0,0,0,0,0,0,0,0,0,0,0,0,0,0,0,0,0,0,0,0,0,0,0,0,0,0,0,0,0,0,0,0,0,0,0,0,0,0,0,0,0,0,0,0,0,0,0,0],"id":2,"left_children":[1,3,5,7,9,11,13,15,17,19,21,23,25,27,29,31,33,35,37,39,41,43,45,47,49,51,53,55,57,59,61,-1,-1,-1,-1,-1,-1,-1,-1,-1,-1,-1,-1,-1,-1,-1,-1,-1,-1,-1,-1,-1,-1,-1,-1,-1,-1,-1,-1,-1,-1,-1,-1],"loss_changes":[2.3236179E2,2.7687338E2,6.481709E1,1.08746796E2,4.088043E0,2.1528534E1,5.778418E1,8.7573456E1,9.204581E1,5.313736E0,5.718443E0,6.571247E1,3.3229065E-1,2.0660782E-1,2.9397842E1,1.9041061E-1,2.4083588E1,7.592038E1,2.7447644E2,2.3917389E-1,3.8912678E-1,4.950995E0,1.0172405E0,3.435171E1,4.1566658E-1,6.6223145E-2,1.8401718E-1,2.6111984E-1,4.3472672E-1,1.7505486E1,2.3549696E1,0E0,0E0,0E0,0E0,0E0,0E0,0E0,0E0,0E0,0E0,0E0,0E0,0E0,0E0,0E0,0E0,0E0,0E0,0E0,0E0,0E0,0E0,0E0,0E0,0E0,0E0,0E0,0E0,0E0,0E0,0E0,0E0],"parents":[2147483647,0,0,1,1,2,2,3,3,4,4,5,5,6,6,7,7,8,8,9,9,10,10,11,11,12,12,13,13,14,14,15,15,16,16,17,17,18,18,19,19,20,20,21,21,22,22,23,23,24,24,25,25,26,26,27,27,28,28,29,29,30,30],"right_children":[2,4,6,8,10,12,14,16,18,20,22,24,26,28,30,32,34,36,38,40,42,44,46,48,50,52,54,56,58,60,62,-1,-1,-1,-1,-1,-1,-1,-1,-1,-1,-1,-1,-1,-1,-1,-1,-1,-1,-1,-1,-1,-1,-1,-1,-1,-1,-1,-1,-1,-1,-1,-1],"split_conditions":[1.6E1,5E0,1.2E1,3E0,9E0,1.7E1,1.9E1,6E0,1.2E1,6E0,6E0,2E0,5E0,1.5E-1,4E0,1E0,1E0,5E0,6E0,3E0,5E0,1.4E1,1E1,5E0,6E0,5.5884063E-2,2.3E1,2E0,5.5884063E-2,2.2E1,6E0,-7.706427E-3,4.1434183E-3,-1.6077496E-3,1.0970908E-2,3.5636374E-4,1.0072695E-2,2.4240546E-2,-7.4249655E-3,-7.845685E-3,-6.873907E-3,-4.780091E-3,-3.353516E-3,-9.131214E-4,-6.0838102E-3,-3.1788906E-3,-6.8905563E-3,2.5115846E-2,-7.7945716E-3,-7.273305E-3,-4.539031E-3,-6.5780864E-3,-7.4504614E-3,-6.6457614E-3,-7.774052E-3,-5.6789475E-3,-7.4727773E-3,1.3236875E-2,-9.075618E-3,1.6981442E-2,4.3733525E-3,-6.5279896E-3,1.1550377E-2],"split_indices":[0,1,6,0,0,0,0,6,6,6,6,6,1,3,1,5,0,0,0,6,0,0,0,1,1,5,0,1,5,0,1,0,0,0,0,0,0,0,0,0,0,0,0,0,0,0,0,0,0,0,0,0,0,0,0,0,0,0,0,0,0,0,0],"split_type":[0,0,0,0,0,0,0,0,0,0,0,0,0,0,0,0,0,0,0,0,0,0,0,0,0,0,0,0,0,0,0,0,0,0,0,0,0,0,0,0,0,0,0,0,0,0,0,0,0,0,0,0,0,0,0,0,0,0,0,0,0,0,0],"sum_hessian":[1.93149E5,1.29015E5,6.4134E4,9.4455E4,3.456E4,5.1606E4,1.2528E4,1.7325E4,7.713E4,1.944E4,1.512E4,6.48E3,4.5126E4,4.698E3,7.83E3,1.0431E4,6.894E3,6.1776E4,1.5354E4,1.1664E4,7.776E3,9.072E3,6.048E3,1.62E3,4.86E3,3.303E4,1.2096E4,3.978E3,7.2E2,4.59E3,3.24E3,1.0418E4,1.3E1,2.268E3,4.626E3,9.504E3,5.2272E4,3.564E3,1.179E4,7.776E3,3.888E3,4.32E3,3.456E3,6.48E3,2.592E3,8.64E2,5.184E3,1.188E3,4.32E2,4.212E3,6.48E2,9.7E2,3.206E4,1.0368E4,1.728E3,1.17E3,2.808E3,8E0,7.12E2,2.754E3,1.836E3,2.16E3,1.08E3],"tree_param":{"num_deleted":"0","num_feature":"7","num_nodes":"63","size_leaf_vector":"1"}},{"base_weights":[-3.1639806E-7,2.2008784E-2,-4.427452E-2,4.7228634E-2,-4.6918273E-2,-5.8371894E-2,1.379614E-2,-1.7204305E-2,6.1701644E-2,-5.675942E-2,-3.707441E-2,-9.859534E-3,-6.533779E-2,-6.510848E-2,6.114118E-2,-6.92217E-2,6.149949E-2,7.72013E-2,-6.613475E-4,-6.929856E-2,-3.7943415E-2,-2.9616553E-2,-6.6888645E-2,1.4707372E-1,-6.2190115E-2,-6.682581E-2,-6.126936E-2,-6.8437465E-2,-5.2003004E-2,1.0746696E-1,-4.4999123E-3,-5.356768E-3,-7.031634E-3,-1.447046E-3,9.874053E-3,3.207299E-4,9.065444E-3,2.1817172E-2,-6.68253E-3,-6.9461265E-3,8.0301645E-5,-4.8520374E-3,-2.7355475E-3,-2.0349182E-3,-5.7404744E-3,-6.334672E-3,-8.746769E-3,2.2606371E-2,-7.016916E-3,-6.381761E-3,-1.489095E-3,-6.7603327E-3,-6.4231153E-3,-5.74208E-3,-6.5107793E-3,-5.1069953E-3,-7.188793E-3,-4.060156E-3,-8.0089485E-3,1.5283912E-2,3.9362567E-3,-5.875492E-3,1.0396409E-2],"categories":[],"categories_nodes":[],"categories_segments":[],"categories_sizes":[],"default_left":[0,0,0,0,0,0,0,0,0,0,0,0,0,0,0,0,0,0,0,0,0,0,0,0,0,0,0,0,0,0,0,0,0,0,0,0,0,0,0,0,0,0,0,0,0,0,0,0,0,0,0,0,0,0,0,0,0,0,0,0,0,0,0],"id":3,"left_children":[1,3,5,7,9,11,13,15,17,19,21,23,25,27,29,31,33,35,37,39,41,43,45,47,49,51,53,55,57,59,61,-1,-1,-1,-1,-1,-1,-1,-1,-1,-1,-1,-1,-1,-1,-1,-1,-1,-1,-1,-1,-1,-1,-1,-1,-1,-1,-1,-1,-1,-1,-1,-1],"loss_changes":[1.8821318E2,2.2427457E2,5.2504517E1,8.808496E1,3.345993E0,1.7439026E1,4.6809097E1,7.0936325E1,7.455524E1,4.074589E0,3.840454E0,5.3233765E1,2.69104E-1,2.0145035E-1,2.3813576E1,1.749878E-1,1.9508766E1,6.1495697E1,2.223375E2,1.1832428E-1,7.728472E-1,3.5590944E0,2.4643612E-1,2.7832241E1,3.7324333E-1,6.2286377E-2,1.749649E-1,2.2068977E-1,3.0288458E-1,1.418037E1,1.907847E1,0E0,0E0,0E0,0E0,0E0,0E0,0E0,0E0,0E0,0E0,0E0,0E0,0E0,0E0,0E0,0E0,0E0,0E0,0E0,0E0,0E0,0E0,0E0,0E0,0E0,0E0,0E0,0E0,0E0,0E0,0E0,0E0],"parents":[2147483647,0,0,1,1,2,2,3,3,4,4,5,5,6,6,7,7,8,8,9,9,10,10,11,11,12,12,13,13,14,14,15,15,16,16,17,17,18,18,19,19,20,20,21,21,22,22,23,23,24,24,25,25,26,26,27,27,28,28,29,29,30,30],"right_children":[2,4,6,8,10,12,14,16,18,20,22,24,26,28,30,32,34,36,38,40,42,44,46,48,50,52,54,56,58,60,62,-1,-1,-1,-1,-1,-1,-1,-1,-1,-1,-1,-1,-1,-1,-1,-1,-1,-1,-1,-1,-1,-1,-1,-1,-1,-1,-1,-1,-1,-1,-1,-1],"split_conditions":[1.6E1,5E0,1.2E1,3E0,8E0,1.7E1,1.9E1,6E0,1.2E1,6E0,1.2E1,2E0,5E0,5.9192467E-1,4E0,6.149126E-2,1E0,5E0,6E0,8.955293E-1,1.2E1,1.4E1,1.5E-1,5E0,4.5E-1,4.4692174E-1,3E0,1E0,8.635681E-1,2.2E1,6E0,-5.356768E-3,-7.031634E-3,-1.447046E-3,9.874053E-3,3.207299E-4,9.065444E-3,2.1817172E-2,-6.68253E-3,-6.9461265E-3,8.0301645E-5,-4.8520374E-3,-2.7355475E-3,-2.0349182E-3,-5.7404744E-3,-6.334672E-3,-8.746769E-3,2.2606371E-2,-7.016916E-3,-6.381761E-3,-1.489095E-3,-6.7603327E-3,-6.4231153E-3,-5.74208E-3,-6.5107793E-3,-5.1069953E-3,-7.188793E-3,-4.060156E-3,-8.0089485E-3,1.5283912E-2,3.9362567E-3,-5.875492E-3,1.0396409E-2],"split_indices":[0,1,6,0,0,0,0,6,6,6,6,6,1,5,1,5,0,0,0,5,6,0,3,1,3,5,6,1,5,0,1,0,0,0,0,0,0,0,0,0,0,0,0,0,0,0,0,0,0,0,0,0,0,0,0,0,0,0,0,0,0,0,0],"split_type":[0,0,0,0,0,0,0,0,0,0,0,0,0,0,0,0,0,0,0,0,0,0,0,0,0,0,0,0,0,0,0,0,0,0,0,0,0,0,0,0,0,0,0,0,0,0,0,0,0,0,0,0,0,0,0,0,0,0,0,0,0,0,0],"sum_hessian":[1.93149E5,1.29015E5,6.4134E4,9.4455E4,3.456E4,5.1606E4,1.2528E4,1.7325E4,7.713E4,1.728E4,1.728E4,6.48E3,4.5126E4,4.698E3,7.83E3,1.0431E4,6.894E3,6.1776E4,1.5354E4,1.0368E4,6.912E3,1.3824E4,3.456E3,1.62E3,4.86E3,3.303E4,1.2096E4,3.743E3,9.55E2,4.59E3,3.24E3,6.85E2,9.746E3,2.268E3,4.626E3,9.504E3,5.2272E4,3.564E3,1.179E4,1.0344E4,2.4E1,3.456E3,3.456E3,1.0368E4,3.456E3,2.952E3,5.04E2,1.188E3,4.32E2,4.698E3,1.62E2,2.5395E4,7.635E3,6.048E3,6.048E3,6.23E2,3.12E3,6.81E2,2.74E2,2.754E3,1.836E3,2.16E3,1.08E3],"tree_param":{"num_deleted":"0","num_feature":"7","num_nodes":"63","size_leaf_vector":"1"}},{"base_weights":[-4.7152565E-7,1.980777E-2,-3.984736E-2,4.250598E-2,-4.2227525E-2,-5.2535053E-2,1.2416476E-2,-5.6352564E-3,5.823847E-2,-5.017038E-2,-3.2012645E-2,-8.872396E-3,-5.8804583E-2,-5.8602814E-2,5.5030093E-2,-6.906525E-2,9.012268E-2,9.234159E-2,6.920363E-3,-6.1317235E-2,-3.3444364E-2,-1.842618E-2,-5.2385926E-2,1.3237597E-1,-5.5972733E-2,-6.0143627E-2,-5.514345E-2,-5.5980228E-2,-7.2994865E-2,9.672444E-2,-4.0485268E-3,-6.2300735E-3,-8.884038E-3,5.535077E-3,1.9094815E-2,6.0139014E-3,1.8893464E-2,5.8119963E-3,-9.645299E-3,-6.4227036E-3,-5.5482606E-3,-3.7047141E-3,-2.0820498E-3,-6.183623E-4,-4.9018385E-3,-2.4232948E-3,-5.7072514E-3,2.0347636E-2,-6.3168444E-3,-3.5315508E-3,-5.9661726E-3,-5.8616097E-3,-6.139357E-3,-5.28559E-3,-6.0845385E-3,-4.525194E-3,-6.043265E-3,1.2629874E-2,-7.540812E-3,1.3756076E-2,3.542845E-3,-5.2882144E-3,9.357728E-3],"categories":[],"categories_nodes":[],"categories_segments":[],"categories_sizes":[],"default_left":[0,0,0,0,0,0,0,0,0,0,0,0,0,0,0,0,0,0,0,0,0,0,0,0,0,0,0,0,0,0,0,0,0,0,0,0,0,0,0,0,0,0,0,0,0,0,0,0,0,0,0,0,0,0,0,0,0,0,0,0,0,0,0],"id":4,"left_children":[1,3,5,7,9,11,13,15,17,19,21,23,25,27,29,31,33,35,37,39,41,43,45,47,49,51,53,55,57,59,61,-1,-1,-1,-1,-1,-1,-1,-1,-1,-1,-1,-1,-1,-1,-1,-1,-1,-1,-1,-1,-1,-1,-1,-1,-1,-1,-1,-1,-1,-1,-1,-1],"loss_changes":[1.5245346E2,1.8166795E2,4.2529045E1,7.1539536E1,2.8025093E0,1.4126602E1,3.7920853E1,1.4132217E2,1.2459125E2,3.6225777E0,4.18454E0,4.3124496E1,2.1791077E-1,1.73275E-1,1.9290062E1,1.8666992E0,3.2492577E1,1.3302353E2,1.5043929E2,1.944809E-1,3.5293484E-1,3.3977783E0,7.9673004E-1,2.2550076E1,3.6832333E-1,5.947113E-2,1.5456772E-1,1.8732834E-1,3.5628557E-1,1.148687E1,1.54561615E1,0E0,0E0,0E0,0E0,0E0,0E0,0E0,0E0,0E0,0E0,0E0,0E0,0E0,0E0,0E0,0E0,0E0,0E0,0E0,0E0,0E0,0E0,0E0,0E0,0E0,0E0,0E0,0E0,0E0,0E0,0E0,0E0],"parents":[2147483647,0,0,1,1,2,2,3,3,4,4,5,5,6,6,7,7,8,8,9,9,10,10,11,11,12,12,13,13,14,14,15,15,16,16,17,17,18,18,19,19,20,20,21,21,22,22,23,23,24,24,25,25,26,26,27,27,28,28,29,29,30,30],"right_children":[2,4,6,8,10,12,14,16,18,20,22,24,26,28,30,32,34,36,38,40,42,44,46,48,50,52,54,56,58,60,62,-1,-1,-1,-1,-1,-1,-1,-1,-1,-1,-1,-1,-1,-1,-1,-1,-1,-1,-1,-1,-1,-1,-1,-1,-1,-1,-1,-1,-1,-1,-1,-1],"split_conditions":[1.6E1,5E0,1.2E1,4E0,9E0,1.7E1,1.9E1,6E0,6E0,6E0,6E0,2E0,5E0,1.5E-1,4E0,3E0,3E0,1.3E1,1.2E1,3E0,7E0,1.4E1,1E1,5E0,1.5695447E-1,2E0,2.2E1,2E0,5.5884063E-2,2.2E1,6E0,-6.2300735E-3,-8.884038E-3,5.535077E-3,1.9094815E-2,6.0139014E-3,1.8893464E-2,5.8119963E-3,-9.645299E-3,-6.4227036E-3,-5.5482606E-3,-3.7047141E-3,-2.0820498E-3,-6.183623E-4,-4.9018385E-3,-2.4232948E-3,-5.7072514E-3,2.0347636E-2,-6.3168444E-3,-3.5315508E-3,-5.9661726E-3,-5.8616097E-3,-6.139357E-3,-5.28559E-3,-6.0845385E-3,-4.525194E-3,-6.043265E-3,1.2629874E-2,-7.540812E-3,1.3756076E-2,3.542845E-3,-5.2882144E-3,9.357728E-3],"split_indices":[0,1,6,0,0,0,0,6,6,6,6,6,1,3,1,0,0,0,0,6,0,0,0,1,5,1,0,1,5,0,1,0,0,0,0,0,0,0,0,0,0,0,0,0,0,0,0,0,0,0,0,0,0,0,0,0,0,0,0,0,0,0,0],"split_type":[0,0,0,0,0,0,0,0,0,0,0,0,0,0,0,0,0,0,0,0,0,0,0,0,0,0,0,0,0,0,0,0,0,0,0,0,0,0,0,0,0,0,0,0,0,0,0,0,0,0,0,0,0,0,0,0,0,0,0,0,0,0,0],"sum_hessian":[1.93149E5,1.29015E5,6.4134E4,9.4455E4,3.456E4,5.1606E4,1.2528E4,2.3265E4,7.119E4,1.944E4,1.512E4,6.48E3,4.5126E4,4.698E3,7.83E3,1.3995E4,9.27E3,4.2768E4,2.8422E4,1.1664E4,7.776E3,9.072E3,6.048E3,1.62E3,4.86E3,3.303E4,1.2096E4,3.978E3,7.2E2,4.59E3,3.24E3,1.0431E4,3.564E3,6.894E3,2.376E3,3.2076E4,1.0692E4,1.9008E4,9.414E3,7.776E3,3.888E3,6.048E3,1.728E3,6.48E3,2.592E3,8.64E2,5.184E3,1.188E3,4.32E2,7.38E2,4.122E3,1.4886E4,1.8144E4,8.64E3,3.456E3,1.17E3,2.808E3,8E0,7.12E2,2.754E3,1.836E3,2.16E3,1.08E3],"tree_param":{"num_deleted":"0","num_feature":"7","num_nodes":"63","size_leaf_vector":"1"}},{"base_weights":[-4.411544E-7,1.7826991E-2,-3.586267E-2,3.825571E-2,-3.800568E-2,-4.7281913E-2,1.1176099E-2,-5.071319E-3,5.2414924E-2,-4.5154255E-2,-2.8812278E-2,-7.984457E-3,-5.2924644E-2,-5.27437E-2,4.9529817E-2,-6.2159803E-2,8.111307E-2,8.3108015E-2,6.2281988E-3,-5.5186544E-2,-3.010066E-2,-1.658417E-2,-4.714867E-2,1.1914703E-1,-5.0377414E-2,-5.412963E-2,-4.9630042E-2,-5.5741247E-2,-4.094918E-2,8.705578E-2,-3.6424166E-3,-5.607126E-3,-7.995884E-3,-1.8556671E-3,1.1339488E-2,5.41253E-3,1.7004296E-2,5.2308277E-3,-8.680871E-3,-5.780517E-3,-4.993578E-3,-2.9076736E-3,-7.291096E-3,-9.318581E-4,-6.0136905E-3,-2.1812464E-3,-5.1366347E-3,1.8314583E-2,-5.686619E-3,-5.184069E-3,-7.884681E-4,-5.4973024E-3,-5.199117E-3,-4.616673E-3,-5.3085154E-3,-5.2883234E-3,-7.2897375E-3,-3.1301447E-3,-6.806919E-3,1.2380968E-2,3.1887535E-3,-4.7596376E-3,8.422821E-3],"categories":[],"categories_nodes":[],"categories_segments":[],"categories_sizes":[],"default_left":[0,0,0,0,0,0,0,0,0,0,0,0,0,0,0,0,0,0,0,0,0,0,0,0,0,0,0,0,0,0,0,0,0,0,0,0,0,0,0,0,0,0,0,0,0,0,0,0,0,0,0,0,0,0,0,0,0,0,0,0,0,0,0],"id":5,"left_children":[1,3,5,7,9,11,13,15,17,19,21,23,25,27,29,31,33,35,37,39,41,43,45,47,49,51,53,55,57,59,61,-1,-1,-1,-1,-1,-1,-1,-1,-1,-1,-1,-1,-1,-1,-1,-1,-1,-1,-1,-1,-1,-1,-1,-1,-1,-1,-1,-1,-1,-1,-1,-1],"loss_changes":[1.234875E2,1.471558E2,3.4450455E1,5.7946808E1,2.2700424E0,1.1443176E1,3.0718235E1,1.1447693E2,1.0092081E2,2.9343567E0,3.389639E0,3.4935223E1,1.764679E-1,1.6384888E-1,1.5625816E1,1.5122681E0,2.9831738E1,1.07752014E2,1.2185815E2,1.5750504E-1,3.3878136E-1,2.8704655E0,6.4527607E-1,1.8270388E1,3.0184174E-1,5.671692E-2,1.4230156E-1,1.7972279E-1,2.480036E-1,9.304985E0,1.2521601E1,0E0,0E0,0E0,0E0,0E0,0E0,0E0,0E0,0E0,0E0,0E0,0E0,0E0,0E0,0E0,0E0,0E0,0E0,0E0,0E0,0E0,0E0,0E0,0E0,0E0,0E0,0E0,0E0,0E0,0E0,0E0,0E0],"parents":[2147483647,0,0,1,1,2,2,3,3,4,4,5,5,6,6,7,7,8,8,9,9,10,10,11,11,12,12,13,13,14,14,15,15,16,16,17,17,18,18,19,19,20,20,21,21,22,22,23,23,24,24,25,25,26,26,27,27,28,28,29,29,30,30],"right_children":[2,4,6,8,10,12,14,16,18,20,22,24,26,28,30,32,34,36,38,40,42,44,46,48,50,52,54,56,58,60,62,-1,-1,-1,-1,-1,-1,-1,-1,-1,-1,-1,-1,-1,-1,-1,-1,-1,-1,-1,-1,-1,-1,-1,-1,-1,-1,-1,-1,-1,-1,-1,-1],"split_conditions":[1.6E1,5E0,1.2E1,4E0,9E0,1.7E1,1.9E1,6E0,6E0,6E0,6E0,2E0,5E0,5.9192467E-1,4E0,3E0,1E0,1.3E1,1.2E1,3E0,4.5E-1,1.5E1,1E1,5E0,4.5E-1,2.2E1,3E0,1.5E-1,8.955293E-1,2.2E1,6E0,-5.607126E-3,-7.995884E-3,-1.8556671E-3,1.1339488E-2,5.41253E-3,1.7004296E-2,5.2308277E-3,-8.680871E-3,-5.780517E-3,-4.993578E-3,-2.9076736E-3,-7.291096E-3,-9.318581E-4,-6.0136905E-3,-2.1812464E-3,-5.1366347E-3,1.8314583E-2,-5.686619E-3,-5.184069E-3,-7.884681E-4,-5.4973024E-3,-5.199117E-3,-4.616673E-3,-5.3085154E-3,-5.2883234E-3,-7.2897375E-3,-3.1301447E-3,-6.806919E-3,1.2380968E-2,3.1887535E-3,-4.7596376E-3,8.422821E-3],"split_indices":[0,1,6,0,0,0,0,6,6,6,6,6,1,5,1,0,0,0,0,6,3,0,0,1,3,0,6,3,5,0,1,0,0,0,0,0,0,0,0,0,0,0,0,0,0,0,0,0,0,0,0,0,0,0,0,0,0,0,0,0,0,0,0],"split_type":[0,0,0,0,0,0,0,0,0,0,0,0,0,0,0,0,0,0,0,0,0,0,0,0,0,0,0,0,0,0,0,0,0,0,0,0,0,0,0,0,0,0,0,0,0,0,0,0,0,0,0,0,0,0,0,0,0,0,0,0,0,0,0],"sum_hessian":[1.93149E5,1.29015E5,6.4134E4,9.4455E4,3.456E4,5.1606E4,1.2528E4,2.3265E4,7.119E4,1.944E4,1.512E4,6.48E3,4.5126E4,4.698E3,7.83E3,1.3995E4,9.27E3,4.2768E4,2.8422E4,1.1664E4,7.776E3,9.072E3,6.048E3,1.62E3,4.86E3,3.303E4,1.2096E4,3.743E3,9.55E2,4.59E3,3.24E3,1.0431E4,3.564E3,2.268E3,7.002E3,3.2076E4,1.0692E4,1.9008E4,9.414E3,7.776E3,3.888E3,7.596E3,1.8E2,7.776E3,1.296E3,8.64E2,5.184E3,1.188E3,4.32E2,4.698E3,1.62E2,2.367E4,9.36E3,6.048E3,6.048E3,3.212E3,5.31E2,7.06E2,2.49E2,2.754E3,1.836E3,2.16E3,1.08E3],"tree_param":{"num_deleted":"0","num_feature":"7","num_nodes":"63","size_leaf_vector":"1"}},{"base_weights":[-5.890454E-7,1.6044138E-2,-3.227667E-2,3.4430303E-2,-3.4206133E-2,-4.255399E-2,1.0058229E-2,-1.3344706E-2,4.5161594E-2,-4.063991E-2,-2.5931993E-2,-7.1849814E-3,-4.7632635E-2,-4.7474124E-2,4.4579294E-2,-5.0464667E-2,4.2819E-2,5.7434868E-2,-4.2197825E-3,-4.966881E-2,-2.7091915E-2,-1.4926517E-2,-4.2435013E-2,1.0724013E-1,-4.53409E-2,-4.871699E-2,-4.4667862E-2,-5.0170485E-2,-3.686466E-2,7.835359E-2,-3.2770436E-3,-5.1030233E-3,-2.3606175E-3,-1.670182E-3,7.1997717E-3,-2.5264748E-5,6.7923306E-3,1.7885892E-2,-5.957314E-3,-4.9844855E-3,2.5274646E-3,-3.0305407E-3,-1.583367E-3,-4.6336345E-4,-4.064701E-3,-1.9633754E-3,-4.62307E-3,1.6484668E-2,-5.1192697E-3,-2.67723E-3,-4.865811E-3,-4.107351E-3,-4.8946957E-3,-4.3306323E-3,-5.280734E-3,-3.518492E-3,-5.315056E-3,-2.7533814E-3,-5.9871115E-3,1.1143322E-2,2.8700514E-3,-4.283894E-3,7.5813183E-3],"categories":[],"categories_nodes":[],"categories_segments":[],"categories_sizes":[],"default_left":[0,0,0,0,0,0,0,0,0,0,0,0,0,0,0,0,0,0,0,0,0,0,0,0,0,0,0,0,0,0,0,0,0,0,0,0,0,0,0,0,0,0,0,0,0,0,0,0,0,0,0,0,0,0,0,0,0,0,0,0,0,0,0],"id":6,"left_children":[1,3,5,7,9,11,13,15,17,19,21,23,25,27,29,31,33,35,37,39,41,43,45,47,49,51,53,55,57,59,61,-1,-1,-1,-1,-1,-1,-1,-1,-1,-1,-1,-1,-1,-1,-1,-1,-1,-1,-1,-1,-1,-1,-1,-1,-1,-1,-1,-1,-1,-1,-1,-1],"loss_changes":[1.0002535E2,1.1920032E2,2.7904877E1,4.8427025E1,1.8387642E0,9.269646E0,2.4885689E1,3.6123314E1,4.67471E1,2.3767433E0,2.745696E0,2.8300879E1,1.4290619E-1,1.3257408E-1,1.2657615E1,1.5725708E-1,1.1976033E1,3.7378326E1,1.5561853E2,1.5515709E-1,2.8087854E-1,2.4017801E0,5.226126E-1,1.4802925E1,2.9811478E-1,5.6045532E-2,1.317749E-1,1.6532993E-1,2.0357597E-1,7.5375423E0,1.0144205E1,0E0,0E0,0E0,0E0,0E0,0E0,0E0,0E0,0E0,0E0,0E0,0E0,0E0,0E0,0E0,0E0,0E0,0E0,0E0,0E0,0E0,0E0,0E0,0E0,0E0,0E0,0E0,0E0,0E0,0E0,0E0,0E0],"parents":[2147483647,0,0,1,1,2,2,3,3,4,4,5,5,6,6,7,7,8,8,9,9,10,10,11,11,12,12,13,13,14,14,15,15,16,16,17,17,18,18,19,19,20,20,21,21,22,22,23,23,24,24,25,25,26,26,27,27,28,28,29,29,30,30],"right_children":[2,4,6,8,10,12,14,16,18,20,22,24,26,28,30,32,34,36,38,40,42,44,46,48,50,52,54,56,58,60,62,-1,-1,-1,-1,-1,-1,-1,-1,-1,-1,-1,-1,-1,-1,-1,-1,-1,-1,-1,-1,-1,-1,-1,-1,-1,-1,-1,-1,-1,-1,-1,-1],"split_conditions":[1.6E1,5E0,1.2E1,3E0,9E0,1.7E1,1.9E1,6E0,1.2E1,6E0,6E0,2E0,5E0,5.9192467E-1,4E0,4.5E-1,1E0,5E0,6E0,8.955293E-1,7E0,1.4E1,1E1,5E0,1.5695447E-1,5.5884063E-2,2.3E1,1E0,8.635681E-1,2.2E1,6E0,-5.1030233E-3,-2.3606175E-3,-1.670182E-3,7.1997717E-3,-2.5264748E-5,6.7923306E-3,1.7885892E-2,-5.957314E-3,-4.9844855E-3,2.5274646E-3,-3.0305407E-3,-1.583367E-3,-4.6336345E-4,-4.064701E-3,-1.9633754E-3,-4.62307E-3,1.6484668E-2,-5.1192697E-3,-2.67723E-3,-4.865811E-3,-4.107351E-3,-4.8946957E-3,-4.3306323E-3,-5.280734E-3,-3.518492E-3,-5.315056E-3,-2.7533814E-3,-5.9871115E-3,1.1143322E-2,2.8700514E-3,-4.283894E-3,7.5813183E-3],"split_indices":[0,1,6,0,0,0,0,6,6,6,6,6,1,5,1,3,0,0,0,5,0,0,0,1,5,5,0,1,5,0,1,0,0,0,0,0,0,0,0,0,0,0,0,0,0,0,0,0,0,0,0,0,0,0,0,0,0,0,0,0,0,0,0],"split_type":[0,0,0,0,0,0,0,0,0,0,0,0,0,0,0,0,0,0,0,0,0,0,0,0,0,0,0,0,0,0,0,0,0,0,0,0,0,0,0,0,0,0,0,0,0,0,0,0,0,0,0,0,0,0,0,0,0,0,0,0,0,0,0],"sum_hessian":[1.93149E5,1.29015E5,6.4134E4,9.4455E4,3.456E4,5.1606E4,1.2528E4,1.7325E4,7.713E4,1.944E4,1.512E4,6.48E3,4.5126E4,4.698E3,7.83E3,1.0431E4,6.894E3,6.1776E4,1.5354E4,1.1664E4,7.776E3,9.072E3,6.048E3,1.62E3,4.86E3,3.303E4,1.2096E4,3.743E3,9.55E2,4.59E3,3.24E3,1.0215E4,2.16E2,2.268E3,4.626E3,9.504E3,5.2272E4,3.564E3,1.179E4,1.1637E4,2.7E1,6.048E3,1.728E3,6.48E3,2.592E3,8.64E2,5.184E3,1.188E3,4.32E2,7.38E2,4.122E3,9.7E2,3.206E4,1.0368E4,1.728E3,6.23E2,3.12E3,6.81E2,2.74E2,2.754E3,1.836E3,2.16E3,1.08E3],"tree_param":{"num_deleted":"0","num_feature":"7","num_nodes":"63","size_leaf_vector":"1"}},{"base_weights":[-6.184198E-7,1.443971E-2,-2.9049242E-2,3.0987447E-2,-3.0786049E-2,-3.8298883E-2,9.05238E-3,-1.2010347E-2,4.0645674E-2,-3.736587E-2,-2.4204446E-2,-6.465897E-3,-4.2869788E-2,-4.2730458E-2,4.012357E-2,-4.5418918E-2,3.853791E-2,5.1691487E-2,-3.7970294E-3,-4.2893313E-2,-1.5250073E-2,-1.851129E-2,-4.696513E-2,9.652312E-2,-4.0808365E-2,-4.3845568E-2,-4.0201865E-2,-4.0557384E-2,-5.4663777E-2,7.052129E-2,-2.948327E-3,-4.5556007E-3,5.9846304E-3,-1.5032373E-3,6.479951E-3,-2.2737777E-5,6.1131106E-3,1.6097805E-2,-5.361633E-3,-5.000119E-3,-3.1039498E-3,2.727667E-3,-5.7767997E-3,-1.1854137E-3,-3.8473543E-3,-6.3827145E-3,-4.1322014E-3,1.4837585E-2,-4.608526E-3,-4.3735052E-3,-2.1746801E-3,-4.456558E-3,-4.14452E-3,-3.708519E-3,-4.3311897E-3,-3.1514016E-3,-4.4312896E-3,1.256776E-2,-5.686351E-3,1.0029393E-2,2.5832024E-3,-3.8557034E-3,6.8238876E-3],"categories":[],"categories_nodes":[],"categories_segments":[],"categories_sizes":[],"default_left":[0,0,0,0,0,0,0,0,0,0,0,0,0,0,0,0,0,0,0,0,0,0,0,0,0,0,0,0,0,0,0,0,0,0,0,0,0,0,0,0,0,0,0,0,0,0,0,0,0,0,0,0,0,0,0,0,0,0,0,0,0,0,0],"id":7,"left_children":[1,3,5,7,9,11,13,15,17,19,21,23,25,27,29,31,33,35,37,39,41,43,45,47,49,51,53,55,57,59,61,-1,-1,-1,-1,-1,-1,-1,-1,-1,-1,-1,-1,-1,-1,-1,-1,-1,-1,-1,-1,-1,-1,-1,-1,-1,-1,-1,-1,-1,-1,-1,-1],"loss_changes":[8.102137E1,9.655445E1,2.2603207E1,3.922641E1,1.4957886E0,7.508827E0,2.0160305E1,2.9260946E1,3.7864243E1,2.1118412E0,2.2384062E0,2.2926569E1,1.1571503E-1,1.19636536E-1,1.0253237E1,1.53265E-1,9.701147E0,3.0276566E1,1.260575E2,1.1632786E0,6.2523465E0,1.8367729E0,3.2631063E-1,1.1993543E1,2.702322E-1,5.5236816E-2,1.1565018E-1,1.3374043E-1,2.9316902E-1,6.105818E0,8.218191E0,0E0,0E0,0E0,0E0,0E0,0E0,0E0,0E0,0E0,0E0,0E0,0E0,0E0,0E0,0E0,0E0,0E0,0E0,0E0,0E0,0E0,0E0,0E0,0E0,0E0,0E0,0E0,0E0,0E0,0E0,0E0,0E0],"parents":[2147483647,0,0,1,1,2,2,3,3,4,4,5,5,6,6,7,7,8,8,9,9,10,10,11,11,12,12,13,13,14,14,15,15,16,16,17,17,18,18,19,19,20,20,21,21,22,22,23,23,24,24,25,25,26,26,27,27,28,28,29,29,30,30],"right_children":[2,4,6,8,10,12,14,16,18,20,22,24,26,28,30,32,34,36,38,40,42,44,46,48,50,52,54,56,58,60,62,-1,-1,-1,-1,-1,-1,-1,-1,-1,-1,-1,-1,-1,-1,-1,-1,-1,-1,-1,-1,-1,-1,-1,-1,-1,-1,-1,-1,-1,-1,-1,-1],"split_conditions":[1.6E1,5E0,1.2E1,3E0,8E0,1.7E1,1.9E1,6E0,1.2E1,1.2E1,1.2E1,2E0,5E0,1.5E-1,4E0,1E0,1E0,5E0,6E0,5E0,4E0,1.4E1,1E1,5E0,6E0,4.4692174E-1,3E0,2E0,5.5884063E-2,2.2E1,6E0,-4.5556007E-3,5.9846304E-3,-1.5032373E-3,6.479951E-3,-2.2737777E-5,6.1131106E-3,1.6097805E-2,-5.361633E-3,-5.000119E-3,-3.1039498E-3,2.727667E-3,-5.7767997E-3,-1.1854137E-3,-3.8473543E-3,-6.3827145E-3,-4.1322014E-3,1.4837585E-2,-4.608526E-3,-4.3735052E-3,-2.1746801E-3,-4.456558E-3,-4.14452E-3,-3.708519E-3,-4.3311897E-3,-3.1514016E-3,-4.4312896E-3,1.256776E-2,-5.686351E-3,1.0029393E-2,2.5832024E-3,-3.8557034E-3,6.8238876E-3],"split_indices":[0,1,6,0,0,0,0,6,6,6,6,6,1,3,1,5,0,0,0,0,0,0,0,1,1,5,6,1,5,0,1,0,0,0,0,0,0,0,0,0,0,0,0,0,0,0,0,0,0,0,0,0,0,0,0,0,0,0,0,0,0,0,0],"split_type":[0,0,0,0,0,0,0,0,0,0,0,0,0,0,0,0,0,0,0,0,0,0,0,0,0,0,0,0,0,0,0,0,0,0,0,0,0,0,0,0,0,0,0,0,0,0,0,0,0,0,0,0,0,0,0,0,0,0,0,0,0,0,0],"sum_hessian":[1.93149E5,1.29015E5,6.4134E4,9.4455E4,3.456E4,5.1606E4,1.2528E4,1.7325E4,7.713E4,1.728E4,1.728E4,6.48E3,4.5126E4,4.698E3,7.83E3,1.0431E4,6.894E3,6.1776E4,1.5354E4,1.3824E4,3.456E3,1.3824E4,3.456E3,1.62E3,4.86E3,3.303E4,1.2096E4,3.978E3,7.2E2,4.59E3,3.24E3,1.0418E4,1.3E1,2.268E3,4.626E3,9.504E3,5.2272E4,3.564E3,1.179E4,8.64E3,5.184E3,1.728E3,1.728E3,1.0368E4,3.456E3,8.64E2,2.592E3,1.188E3,4.32E2,4.212E3,6.48E2,2.5395E4,7.635E3,6.048E3,6.048E3,1.17E3,2.808E3,8E0,7.12E2,2.754E3,1.836E3,2.16E3,1.08E3],"tree_param":{"num_deleted":"0","num_feature":"7","num_nodes":"63","size_leaf_vector":"1"}},{"base_weights":[-5.6420373E-7,1.2995712E-2,-2.6144287E-2,2.7888948E-2,-2.7708216E-2,-3.4469243E-2,8.1483275E-3,-4.40146E-3,3.8441416E-2,-3.3008233E-2,-2.0892173E-2,-5.8187395E-3,-3.8583174E-2,-3.8457558E-2,3.61132E-2,-4.8786264E-2,6.26047E-2,6.2972024E-2,1.5280689E-3,-4.075828E-2,-2.1379422E-2,-1.1488606E-2,-3.499329E-2,8.6877115E-2,-3.6728874E-2,-3.786744E-2,-4.197137E-2,-4.1058164E-2,-2.9490886E-2,6.347189E-2,-2.6525804E-3,-4.0876893E-3,-7.191721E-3,3.4684842E-3,1.4356594E-2,3.7247136E-3,1.4013599E-2,4.1431547E-3,-7.903771E-3,-4.311524E-3,-3.6034477E-3,-2.7419503E-3,-1.3823578E-3,-5.694526E-4,-4.62219E-3,-1.3892961E-3,-3.8506656E-3,1.3355075E-2,-4.148737E-3,-3.8029482E-3,9.906249E-5,-3.8988565E-3,-3.4810347E-3,-2.5260344E-3,-4.346915E-3,-2.699794E-3,-4.3835407E-3,-2.2792518E-3,-5.110243E-3,9.026817E-3,2.3250224E-3,-3.4703114E-3,6.142129E-3],"categories":[],"categories_nodes":[],"categories_segments":[],"categories_sizes":[],"default_left":[0,0,0,0,0,0,0,0,0,0,0,0,0,0,0,0,0,0,0,0,0,0,0,0,0,0,0,0,0,0,0,0,0,0,0,0,0,0,0,0,0,0,0,0,0,0,0,0,0,0,0,0,0,0,0,0,0,0,0,0,0,0,0],"id":8,"left_children":[1,3,5,7,9,11,13,15,17,19,21,23,25,27,29,31,33,35,37,39,41,43,45,47,49,51,53,55,57,59,61,-1,-1,-1,-1,-1,-1,-1,-1,-1,-1,-1,-1,-1,-1,-1,-1,-1,-1,-1,-1,-1,-1,-1,-1,-1,-1,-1,-1,-1,-1,-1,-1],"loss_changes":[6.562711E1,7.8211975E1,1.8309834E1,3.218544E1,1.2478313E0,6.0824966E0,1.633078E1,6.9197426E1,6.446384E1,1.7512264E0,2.0046544E0,1.8572819E1,1.0784149E-1,1.08364105E-1,8.305579E0,2.5576477E0,2.0951439E1,8.4892715E1,9.137908E1,1.283207E-1,3.5454702E-1,1.8256553E0,4.47896E-1,9.717336E0,2.3851013E-1,1.2636948E-1,1.9565773E-1,1.4095354E-1,1.5228301E-1,4.946039E0,6.657855E0,0E0,0E0,0E0,0E0,0E0,0E0,0E0,0E0,0E0,0E0,0E0,0E0,0E0,0E0,0E0,0E0,0E0,0E0,0E0,0E0,0E0,0E0,0E0,0E0,0E0,0E0,0E0,0E0,0E0,0E0,0E0,0E0],"parents":[2147483647,0,0,1,1,2,2,3,3,4,4,5,5,6,6,7,7,8,8,9,9,10,10,11,11,12,12,13,13,14,14,15,15,16,16,17,17,18,18,19,19,20,20,21,21,22,22,23,23,24,24,25,25,26,26,27,27,28,28,29,29,30,30],"right_children":[2,4,6,8,10,12,14,16,18,20,22,24,26,28,30,32,34,36,38,40,42,44,46,48,50,52,54,56,58,60,62,-1,-1,-1,-1,-1,-1,-1,-1,-1,-1,-1,-1,-1,-1,-1,-1,-1,-1,-1,-1,-1,-1,-1,-1,-1,-1,-1,-1,-1,-1,-1,-1],"split_conditions":[1.6E1,5E0,1.2E1,4E0,9E0,1.7E1,1.9E1,6E0,6E0,6E0,6E0,2E0,1.5E-1,5.8094305E-1,4E0,3E0,3E0,1.3E1,1.2E1,3E0,5E0,1.5E1,1E1,5E0,4.5E-1,5E0,1.8E1,1E0,8.955293E-1,2.2E1,6E0,-4.0876893E-3,-7.191721E-3,3.4684842E-3,1.4356594E-2,3.7247136E-3,1.4013599E-2,4.1431547E-3,-7.903771E-3,-4.311524E-3,-3.6034477E-3,-2.7419503E-3,-1.3823578E-3,-5.694526E-4,-4.62219E-3,-1.3892961E-3,-3.8506656E-3,1.3355075E-2,-4.148737E-3,-3.8029482E-3,9.906249E-5,-3.8988565E-3,-3.4810347E-3,-2.5260344E-3,-4.346915E-3,-2.699794E-3,-4.3835407E-3,-2.2792518E-3,-5.110243E-3,9.026817E-3,2.3250224E-3,-3.4703114E-3,6.142129E-3],"split_indices":[0,1,6,0,0,0,0,6,6,6,6,6,3,5,1,0,0,0,0,6,0,0,0,1,3,1,0,1,5,0,1,0,0,0,0,0,0,0,0,0,0,0,0,0,0,0,0,0,0,0,0,0,0,0,0,0,0,0,0,0,0,0,0],"split_type":[0,0,0,0,0,0,0,0,0,0,0,0,0,0,0,0,0,0,0,0,0,0,0,0,0,0,0,0,0,0,0,0,0,0,0,0,0,0,0,0,0,0,0,0,0,0,0,0,0,0,0,0,0,0,0,0,0,0,0,0,0,0,0],"sum_hessian":[1.93149E5,1.29015E5,6.4134E4,9.4455E4,3.456E4,5.1606E4,1.2528E4,2.3265E4,7.119E4,1.944E4,1.512E4,6.48E3,4.5126E4,4.698E3,7.83E3,1.3995E4,9.27E3,4.2768E4,2.8422E4,1.1664E4,7.776E3,9.072E3,6.048E3,1.62E3,4.86E3,3.7266E4,7.86E3,3.639E3,1.059E3,4.59E3,3.24E3,1.0431E4,3.564E3,6.894E3,2.376E3,3.2076E4,1.0692E4,1.9008E4,9.414E3,7.776E3,3.888E3,4.32E3,3.456E3,7.776E3,1.296E3,8.64E2,5.184E3,1.188E3,4.32E2,4.698E3,1.62E2,2.7258E4,1.0008E4,6.48E2,7.212E3,6.02E2,3.037E3,8.1E2,2.49E2,2.754E3,1.836E3,2.16E3,1.08E3],"tree_param":{"num_deleted":"0","num_feature":"7","num_nodes":"63","size_leaf_vector":"1"}},{"base_weights":[-5.652923E-7,1.1696126E-2,-2.353E-2,2.510027E-2,-2.4938043E-2,-3.1022485E-2,7.3334547E-3,-3.961033E-3,3.459747E-2,-2.9708032E-2,-1.8803641E-2,-5.236012E-3,-3.472517E-2,-3.4614887E-2,3.2503664E-2,-4.3908447E-2,5.6346156E-2,5.6675233E-2,1.3751362E-3,-3.668313E-2,-1.9242011E-2,-1.0340311E-2,-3.1494826E-2,7.819508E-2,-3.305674E-2,-3.4080897E-2,-3.7775103E-2,-3.2634273E-2,-4.549734E-2,5.712717E-2,-2.3864969E-3,-3.6789596E-3,-6.47275E-3,3.121686E-3,1.2921539E-2,3.3522528E-3,1.2612372E-2,3.7288617E-3,-7.1134763E-3,-3.6842276E-3,3.0773878E-3,-2.4678183E-3,-1.2441626E-3,-5.1251386E-4,-4.160327E-3,-1.009165E-3,-3.4375598E-3,1.202069E-2,-3.7348215E-3,-1.7111298E-3,-3.5906758E-3,-3.5089848E-3,-3.132966E-3,-3.186575E-3,-4.217707E-3,-3.455E-3,-1.587381E-3,1.1784148E-2,-4.749531E-3,8.124462E-3,2.0926462E-3,-3.12344E-3,5.528483E-3],"categories":[],"categories_nodes":[],"categories_segments":[],"categories_sizes":[],"default_left":[0,0,0,0,0,0,0,0,0,0,0,0,0,0,0,0,0,0,0,0,0,0,0,0,0,0,0,0,0,0,0,0,0,0,0,0,0,0,0,0,0,0,0,0,0,0,0,0,0,0,0,0,0,0,0,0,0,0,0,0,0,0,0],"id":9,"left_children":[1,3,5,7,9,11,13,15,17,19,21,23,25,27,29,31,33,35,37,39,41,43,45,47,49,51,53,55,57,59,61,-1,-1,-1,-1,-1,-1,-1,-1,-1,-1,-1,-1,-1,-1,-1,-1,-1,-1,-1,-1,-1,-1,-1,-1,-1,-1,-1,-1,-1,-1,-1,-1],"loss_changes":[5.315835E1,6.335389E1,1.4831062E1,2.6070087E1,1.0107327E0,4.9272118E0,1.3229852E1,5.605297E1,5.221672E1,1.4185162E0,1.623817E0,1.5045724E1,8.7387085E-2,9.979677E-2,6.72789E0,2.0719337E0,1.6972584E1,6.876492E1,7.401849E1,1.2636185E-1,2.8719354E-1,1.479064E0,3.726201E-1,7.8731203E0,2.2029305E-1,1.0234833E-1,2.0314217E-1,1.2721205E-1,2.4089241E-1,4.0065584E0,5.3937683E0,0E0,0E0,0E0,0E0,0E0,0E0,0E0,0E0,0E0,0E0,0E0,0E0,0E0,0E0,0E0,0E0,0E0,0E0,0E0,0E0,0E0,0E0,0E0,0E0,0E0,0E0,0E0,0E0,0E0,0E0,0E0,0E0],"parents":[2147483647,0,0,1,1,2,2,3,3,4,4,5,5,6,6,7,7,8,8,9,9,10,10,11,11,12,12,13,13,14,14,15,15,16,16,17,17,18,18,19,19,20,20,21,21,22,22,23,23,24,24,25,25,26,26,27,27,28,28,29,29,30,30],"right_children":[2,4,6,8,10,12,14,16,18,20,22,24,26,28,30,32,34,36,38,40,42,44,46,48,50,52,54,56,58,60,62,-1,-1,-1,-1,-1,-1,-1,-1,-1,-1,-1,-1,-1,-1,-1,-1,-1,-1,-1,-1,-1,-1,-1,-1,-1,-1,-1,-1,-1,-1,-1,-1],"split_conditions":[1.6E1,5E0,1.2E1,4E0,9E0,1.7E1,1.9E1,6E0,6E0,6E0,6E0,2E0,1.5E-1,1.5E-1,4E0,3E0,3E0,1.3E1,1.2E1,8.955293E-1,5E0,1.5E1,1.1462081E-1,5E0,1.5695447E-1,5E0,1.5250413E-1,6.4963317E-1,5.5884063E-2,2.2E1,6E0,-3.6789596E-3,-6.47275E-3,3.121686E-3,1.2921539E-2,3.3522528E-3,1.2612372E-2,3.7288617E-3,-7.1134763E-3,-3.6842276E-3,3.0773878E-3,-2.4678183E-3,-1.2441626E-3,-5.1251386E-4,-4.160327E-3,-1.009165E-3,-3.4375598E-3,1.202069E-2,-3.7348215E-3,-1.7111298E-3,-3.5906758E-3,-3.5089848E-3,-3.132966E-3,-3.186575E-3,-4.217707E-3,-3.455E-3,-1.587381E-3,1.1784148E-2,-4.749531E-3,8.124462E-3,2.0926462E-3,-3.12344E-3,5.528483E-3],"split_indices":[0,1,6,0,0,0,0,6,6,6,6,6,3,3,1,0,0,0,0,5,0,0,5,1,5,1,5,5,5,0,1,0,0,0,0,0,0,0,0,0,0,0,0,0,0,0,0,0,0,0,0,0,0,0,0,0,0,0,0,0,0,0,0],"split_type":[0,0,0,0,0,0,0,0,0,0,0,0,0,0,0,0,0,0,0,0,0,0,0,0,0,0,0,0,0,0,0,0,0,0,0,0,0,0,0,0,0,0,0,0,0,0,0,0,0,0,0,0,0,0,0,0,0,0,0,0,0,0,0],"sum_hessian":[1.93149E5,1.29015E5,6.4134E4,9.4455E4,3.456E4,5.1606E4,1.2528E4,2.3265E4,7.119E4,1.944E4,1.512E4,6.48E3,4.5126E4,4.698E3,7.83E3,1.3995E4,9.27E3,4.2768E4,2.8422E4,1.1664E4,7.776E3,9.072E3,6.048E3,1.62E3,4.86E3,3.7266E4,7.86E3,3.978E3,7.2E2,4.59E3,3.24E3,1.0431E4,3.564E3,6.894E3,2.376E3,3.2076E4,1.0692E4,1.9008E4,9.414E3,1.1637E4,2.7E1,4.32E3,3.456E3,7.776E3,1.296E3,7.18E2,5.33E3,1.188E3,4.32E2,7.38E2,4.122E3,2.7258E4,1.0008E4,3.359E3,4.501E3,3.569E3,4.09E2,8E0,7.12E2,2.754E3,1.836E3,2.16E3,1.08E3],"tree_param":{"num_deleted":"0","num_feature":"7","num_nodes":"63","size_leaf_vector":"1"}},{"base_weights":[-4.6544145E-7,1.0526551E-2,-2.1176945E-2,2.2590438E-2,-2.2444632E-2,-2.7920451E-2,6.601273E-3,-3.5646746E-3,3.1137897E-2,-2.6737457E-2,-1.692388E-2,-4.7119493E-3,-3.1252965E-2,-3.1152973E-2,2.9254906E-2,-3.951833E-2,5.071328E-2,5.100808E-2,1.2375008E-3,-3.3014875E-2,-1.7318293E-2,-5.1023667E-3,-2.4803458E-2,7.0380695E-2,-2.975216E-2,-2.9181581E-2,-3.2086615E-2,-3.185749E-2,-5.5395514E-3,5.141667E-2,-2.1471004E-3,-3.3110988E-3,-5.8256583E-3,-2.011706E-3,7.3655355E-3,3.0170379E-3,1.1351253E-2,3.3559946E-3,-6.4022043E-3,-3.4054357E-3,-2.339737E-3,-1.6406573E-3,-5.5489657E-3,-4.3867226E-3,1.3656575E-4,-1.409963E-3,-3.9067934E-3,1.08196335E-2,-3.3622012E-3,-3.2244732E-3,-1.3525736E-3,-2.8363967E-3,-4.5832978E-3,-3.2205868E-3,5.3754942E-3,-2.990895E-3,-5.334103E-3,-1.3897957E-3,8.386708E-3,7.31231E-3,1.8834941E-3,-2.81124E-3,4.976147E-3],"categories":[],"categories_nodes":[],"categories_segments":[],"categories_sizes":[],"default_left":[0,0,0,0,0,0,0,0,0,0,0,0,0,0,0,0,0,0,0,0,0,0,0,0,0,0,0,0,0,0,0,0,0,0,0,0,0,0,0,0,0,0,0,0,0,0,0,0,0,0,0,0,0,0,0,0,0,0,0,0,0,0,0],"id":10,"left_children":[1,3,5,7,9,11,13,15,17,19,21,23,25,27,29,31,33,35,37,39,41,43,45,47,49,51,53,55,57,59,61,-1,-1,-1,-1,-1,-1,-1,-1,-1,-1,-1,-1,-1,-1,-1,-1,-1,-1,-1,-1,-1,-1,-1,-1,-1,-1,-1,-1,-1,-1,-1,-1],"loss_changes":[4.3058212E1,5.131799E1,1.2014118E1,2.1116669E1,8.186283E-1,3.9912796E0,1.0716599E1,4.5405388E1,4.2296387E1,1.1489363E0,1.4083724E0,1.2188549E1,7.6984406E-2,8.461714E-2,5.449889E0,1.6784649E0,1.5066811E1,5.570102E1,5.9956146E1,1.1581993E-1,2.6974177E-1,1.5167379E0,1.3847556E0,6.378915E0,1.961689E-1,1.7515755E-1,3.3102417E-1,1.8983746E-1,9.607227E-2,3.2455292E0,4.369688E0,0E0,0E0,0E0,0E0,0E0,0E0,0E0,0E0,0E0,0E0,0E0,0E0,0E0,0E0,0E0,0E0,0E0,0E0,0E0,0E0,0E0,0E0,0E0,0E0,0E0,0E0,0E0,0E0,0E0,0E0,0E0,0E0],"parents":[2147483647,0,0,1,1,2,2,3,3,4,4,5,5,6,6,7,7,8,8,9,9,10,10,11,11,12,12,13,13,14,14,15,15,16,16,17,17,18,18,19,19,20,20,21,21,22,22,23,23,24,24,25,25,26,26,27,27,28,28,29,29,30,30],"right_children":[2,4,6,8,10,12,14,16,18,20,22,24,26,28,30,32,34,36,38,40,42,44,46,48,50,52,54,56,58,60,62,-1,-1,-1,-1,-1,-1,-1,-1,-1,-1,-1,-1,-1,-1,-1,-1,-1,-1,-1,-1,-1,-1,-1,-1,-1,-1,-1,-1,-1,-1,-1,-1],"split_conditions":[1.6E1,5E0,1.2E1,4E0,9E0,1.7E1,1.9E1,6E0,6E0,6E0,3E0,2E0,1.9E1,4.5E-1,4E0,3E0,1E0,1.3E1,1.2E1,5.3599805E-1,4.5E-1,1E1,1.3E1,5E0,6E0,8.635681E-1,1E0,3E-1,1E0,2.2E1,6E0,-3.3110988E-3,-5.8256583E-3,-2.011706E-3,7.3655355E-3,3.0170379E-3,1.1351253E-2,3.3559946E-3,-6.4022043E-3,-3.4054357E-3,-2.339737E-3,-1.6406573E-3,-5.5489657E-3,-4.3867226E-3,1.3656575E-4,-1.409963E-3,-3.9067934E-3,1.08196335E-2,-3.3622012E-3,-3.2244732E-3,-1.3525736E-3,-2.8363967E-3,-4.5832978E-3,-3.2205868E-3,5.3754942E-3,-2.990895E-3,-5.334103E-3,-1.3897957E-3,8.386708E-3,7.31231E-3,1.8834941E-3,-2.81124E-3,4.976147E-3],"split_indices":[0,1,6,0,0,0,0,6,6,6,6,6,0,3,1,0,0,0,0,5,3,0,0,1,1,5,5,3,5,0,1,0,0,0,0,0,0,0,0,0,0,0,0,0,0,0,0,0,0,0,0,0,0,0,0,0,0,0,0,0,0,0,0],"split_type":[0,0,0,0,0,0,0,0,0,0,0,0,0,0,0,0,0,0,0,0,0,0,0,0,0,0,0,0,0,0,0,0,0,0,0,0,0,0,0,0,0,0,0,0,0,0,0,0,0,0,0,0,0,0,0,0,0,0,0,0,0,0,0],"sum_hessian":[1.93149E5,1.29015E5,6.4134E4,9.4455E4,3.456E4,5.1606E4,1.2528E4,2.3265E4,7.119E4,1.944E4,1.512E4,6.48E3,4.5126E4,4.698E3,7.83E3,1.3995E4,9.27E3,4.2768E4,2.8422E4,1.1664E4,7.776E3,6.048E3,9.072E3,1.62E3,4.86E3,1.296E4,3.2166E4,4.572E3,1.26E2,4.59E3,3.24E3,1.0431E4,3.564E3,2.268E3,7.002E3,3.2076E4,1.0692E4,1.9008E4,9.414E3,1.0524E4,1.14E3,7.596E3,1.8E2,8.64E2,5.184E3,5.184E3,3.888E3,1.188E3,4.32E2,4.212E3,6.48E2,1.2356E4,6.04E2,3.2122E4,4.4E1,4.194E3,3.78E2,1.16E2,1E1,2.754E3,1.836E3,2.16E3,1.08E3],"tree_param":{"num_deleted":"0","num_feature":"7","num_nodes":"63","size_leaf_vector":"1"}},{"base_weights":[-4.5488193E-7,9.473782E-3,-1.9059129E-2,2.0331476E-2,-2.0200819E-2,-2.512845E-2,5.941949E-3,-8.4651215E-3,2.6799817E-2,-2.4609894E-2,-1.5790574E-2,-4.240308E-3,-2.8127784E-2,-2.8037952E-2,2.6330866E-2,-2.9800208E-2,2.3815673E-2,3.508699E-2,-6.543295E-3,-2.8825453E-2,-7.744199E-3,-1.1297743E-2,-3.3753432E-2,6.334722E-2,-2.677788E-2,-2.754868E-2,-3.0869598E-2,-2.972811E-2,-1.7444935E-2,4.6277005E-2,-1.931725E-3,-1.492243E-3,-3.0727508E-3,-1.810623E-3,4.4368296E-3,4.4342183E-4,4.4282535E-3,1.2585687E-2,-4.6573835E-3,-3.4969647E-3,-1.8580363E-3,3.1559803E-3,-4.7043725E-3,-5.985541E-4,-2.722801E-3,-5.26635E-3,-2.7432197E-3,9.738579E-3,-3.0267586E-3,-2.793465E-3,6.7340344E-4,-2.8234029E-3,-2.3587632E-3,-2.5535966E-3,-3.4843415E-3,5.196255E-3,-3.0105596E-3,-1.9970627E-3,1.8742263E-2,6.581345E-3,1.6952459E-3,-2.530246E-3,4.4789915E-3],"categories":[],"categories_nodes":[],"categories_segments":[],"categories_sizes":[],"default_left":[0,0,0,0,0,0,0,0,0,0,0,0,0,0,0,0,0,0,0,0,0,0,0,0,0,0,0,0,0,0,0,0,0,0,0,0,0,0,0,0,0,0,0,0,0,0,0,0,0,0,0,0,0,0,0,0,0,0,0,0,0,0,0],"id":11,"left_children":[1,3,5,7,9,11,13,15,17,19,21,23,25,27,29,31,33,35,37,39,41,43,45,47,49,51,53,55,57,59,61,-1,-1,-1,-1,-1,-1,-1,-1,-1,-1,-1,-1,-1,-1,-1,-1,-1,-1,-1,-1,-1,-1,-1,-1,-1,-1,-1,-1,-1,-1,-1,-1],"loss_changes":[3.4876583E1,4.1569073E1,9.731966E0,1.7594189E1,6.716528E-1,3.2330894E0,8.680998E0,1.193336E1,2.1313072E1,1.2284269E0,1.3942661E0,9.873937E0,7.080078E-2,8.3611965E-2,4.4146557E0,1.4346313E-1,5.9415703E0,1.7412819E1,8.138813E1,8.696041E-1,5.341265E0,1.1697748E0,4.1178727E-1,5.168287E0,1.8862796E-1,1.0050011E-1,1.6572332E-1,1.264844E-1,3.3955687E-1,2.629056E0,3.5400429E0,0E0,0E0,0E0,0E0,0E0,0E0,0E0,0E0,0E0,0E0,0E0,0E0,0E0,0E0,0E0,0E0,0E0,0E0,0E0,0E0,0E0,0E0,0E0,0E0,0E0,0E0,0E0,0E0,0E0,0E0,0E0,0E0],"parents":[2147483647,0,0,1,1,2,2,3,3,4,4,5,5,6,6,7,7,8,8,9,9,10,10,11,11,12,12,13,13,14,14,15,15,16,16,17,17,18,18,19,19,20,20,21,21,22,22,23,23,24,24,25,25,26,26,27,27,28,28,29,29,30,30],"right_children":[2,4,6,8,10,12,14,16,18,20,22,24,26,28,30,32,34,36,38,40,42,44,46,48,50,52,54,56,58,60,62,-1,-1,-1,-1,-1,-1,-1,-1,-1,-1,-1,-1,-1,-1,-1,-1,-1,-1,-1,-1,-1,-1,-1,-1,-1,-1,-1,-1,-1,-1,-1,-1],"split_conditions":[1.6E1,5E0,1.2E1,3E0,8E0,1.7E1,1.9E1,6E0,1.2E1,1.2E1,1.2E1,2E0,1.5E-1,6E0,4E0,6.0414348E-2,1E0,6E0,6E0,5E0,4E0,1.4E1,1E1,5E0,4.5E-1,5.2032226E-1,1.5250413E-1,5.239182E-2,8.002446E-1,2.2E1,6E0,-1.492243E-3,-3.0727508E-3,-1.810623E-3,4.4368296E-3,4.4342183E-4,4.4282535E-3,1.2585687E-2,-4.6573835E-3,-3.4969647E-3,-1.8580363E-3,3.1559803E-3,-4.7043725E-3,-5.985541E-4,-2.722801E-3,-5.26635E-3,-2.7432197E-3,9.738579E-3,-3.0267586E-3,-2.793465E-3,6.7340344E-4,-2.8234029E-3,-2.3587632E-3,-2.5535966E-3,-3.4843415E-3,5.196255E-3,-3.0105596E-3,-1.9970627E-3,1.8742263E-2,6.581345E-3,1.6952459E-3,-2.530246E-3,4.4789915E-3],"split_indices":[0,1,6,0,0,0,0,6,6,6,6,6,3,1,1,5,0,0,0,0,0,0,0,1,3,5,5,5,5,0,1,0,0,0,0,0,0,0,0,0,0,0,0,0,0,0,0,0,0,0,0,0,0,0,0,0,0,0,0,0,0,0,0],"split_type":[0,0,0,0,0,0,0,0,0,0,0,0,0,0,0,0,0,0,0,0,0,0,0,0,0,0,0,0,0,0,0,0,0,0,0,0,0,0,0,0,0,0,0,0,0,0,0,0,0,0,0,0,0,0,0,0,0,0,0,0,0,0,0],"sum_hessian":[1.93149E5,1.29015E5,6.4134E4,9.4455E4,3.456E4,5.1606E4,1.2528E4,1.7325E4,7.713E4,1.728E4,1.728E4,6.48E3,4.5126E4,4.698E3,7.83E3,1.0431E4,6.894E3,6.1776E4,1.5354E4,1.3824E4,3.456E3,1.3824E4,3.456E3,1.62E3,4.86E3,3.7266E4,7.86E3,4.05E3,6.48E2,4.59E3,3.24E3,6.13E2,9.818E3,2.268E3,4.626E3,1.4256E4,4.752E4,3.564E3,1.179E4,8.64E3,5.184E3,1.728E3,1.728E3,1.0368E4,3.456E3,8.64E2,2.592E3,1.188E3,4.32E2,4.698E3,1.62E2,3.1764E4,5.502E3,3.359E3,4.501E3,1.8E1,4.032E3,6.41E2,7E0,2.754E3,1.836E3,2.16E3,1.08E3],"tree_param":{"num_deleted":"0","num_feature":"7","num_nodes":"63","size_leaf_vector":"1"}},{"base_weights":[-3.3613364E-7,9.429766E-3,-1.5804488E-2,1.9262906E-2,-1.7449979E-2,-3.8344997E-3,-2.3917759E-2,1.532751E-2,7.435252E-2,-2.1706948E-2,-1.1063343E-2,1.1906785E-1,-1.9201294E-2,-8.874212E-2,-1.5762987E-2,-1.5480654E-2,2.306114E-2,1.6531084E-1,-6.419545E-2,-2.7085498E-2,-1.3636677E-2,-2.5014097E-3,-2.3903284E-2,1.7444254E-1,-3.32382E-2,1.7223904E-2,-2.4405424E-2,-1.6586043E-1,-4.948968E-2,-2.6060408E-2,5.350082E-3,-6.886398E-3,2.4307135E-3,3.245623E-3,-5.134632E-4,1.4691609E-2,1.7444255E-2,-1.1682843E-2,-9.863442E-4,-2.1809414E-3,-2.9720396E-3,-1.9451551E-3,-6.36456E-4,-2.1805128E-3,1.3621026E-4,-5.6494976E-4,-2.7551888E-3,1.7737528E-2,1.49342E-2,-4.9024527E-3,-1.7375107E-3,5.7016625E-3,-2.2579439E-3,-1.7966243E-3,-2.547764E-3,-2.1374403E-2,-3.3991057E-3,-8.176046E-3,-1.6075239E-3,-1.5436905E-3,-2.6683267E-3,-2.5230132E-3,2.3699088E-3],"categories":[],"categories_nodes":[],"categories_segments":[],"categories_sizes":[],"default_left":[0,0,0,0,0,0,0,0,0,0,0,0,0,0,0,0,0,0,0,0,0,0,0,0,0,0,0,0,0,0,0,0,0,0,0,0,0,0,0,0,0,0,0,0,0,0,0,0,0,0,0,0,0,0,0,0,0,0,0,0,0,0,0],"id":12,"left_children":[1,3,5,7,9,11,13,15,17,19,21,23,25,27,29,31,33,35,37,39,41,43,45,47,49,51,53,55,57,59,61,-1,-1,-1,-1,-1,-1,-1,-1,-1,-1,-1,-1,-1,-1,-1,-1,-1,-1,-1,-1,-1,-1,-1,-1,-1,-1,-1,-1,-1,-1,-1,-1],"loss_changes":[2.8786213E1,3.1974194E1,7.009823E0,1.9200787E1,8.806677E-1,5.507619E1,2.2740705E1,1.9696272E1,7.4425964E1,8.434944E-1,1.4248041E0,2.734008E1,4.9140425E0,1.4542973E1,8.308468E0,3.523466E1,1.7504616E1,5.7320404E-1,6.693303E0,1.615181E-1,3.2873774E-1,5.800395E-1,3.4516978E-1,1.4848328E-1,2.1576148E-1,5.1346526E0,1.5613747E-1,1.022834E1,3.4352598E0,1.6955757E-1,7.030827E0,0E0,0E0,0E0,0E0,0E0,0E0,0E0,0E0,0E0,0E0,0E0,0E0,0E0,0E0,0E0,0E0,0E0,0E0,0E0,0E0,0E0,0E0,0E0,0E0,0E0,0E0,0E0,0E0,0E0,0E0,0E0,0E0],"parents":[2147483647,0,0,1,1,2,2,3,3,4,4,5,5,6,6,7,7,8,8,9,9,10,10,11,11,12,12,13,13,14,14,15,15,16,16,17,17,18,18,19,19,20,20,21,21,22,22,23,23,24,24,25,25,26,26,27,27,28,28,29,29,30,30],"right_children":[2,4,6,8,10,12,14,16,18,20,22,24,26,28,30,32,34,36,38,40,42,44,46,48,50,52,54,56,58,60,62,-1,-1,-1,-1,-1,-1,-1,-1,-1,-1,-1,-1,-1,-1,-1,-1,-1,-1,-1,-1,-1,-1,-1,-1,-1,-1,-1,-1,-1,-1,-1,-1],"split_conditions":[1.5E1,5E0,3E0,1.4E1,9E0,1.6E1,1.6E1,2E0,6E0,6E0,6E0,5E0,1.7E1,6E0,1.2E1,6E0,1.2E1,2E0,1.2E1,3E0,5E0,1E1,1E1,7.1097183E-1,6E0,2E0,1.8E1,5E0,1.2E1,6.276948E-2,1.9E1,-6.886398E-3,2.4307135E-3,3.245623E-3,-5.134632E-4,1.4691609E-2,1.7444255E-2,-1.1682843E-2,-9.863442E-4,-2.1809414E-3,-2.9720396E-3,-1.9451551E-3,-6.36456E-4,-2.1805128E-3,1.3621026E-4,-5.6494976E-4,-2.7551888E-3,1.7737528E-2,1.49342E-2,-4.9024527E-3,-1.7375107E-3,5.7016625E-3,-2.2579439E-3,-1.7966243E-3,-2.547764E-3,-2.1374403E-2,-3.3991057E-3,-8.176046E-3,-1.6075239E-3,-1.5436905E-3,-2.6683267E-3,-2.5230132E-3,2.3699088E-3],"split_indices":[0,1,6,0,0,0,0,6,6,6,6,1,0,6,6,0,6,6,6,0,0,0,0,5,1,6,0,1,6,5,0,0,0,0,0,0,0,0,0,0,0,0,0,0,0,0,0,0,0,0,0,0,0,0,0,0,0,0,0,0,0,0,0],"split_type":[0,0,0,0,0,0,0,0,0,0,0,0,0,0,0,0,0,0,0,0,0,0,0,0,0,0,0,0,0,0,0,0,0,0,0,0,0,0,0,0,0,0,0,0,0,0,0,0,0,0,0,0,0,0,0,0,0,0,0,0,0,0,0],"sum_hessian":[1.93149E5,1.20969E5,7.218E4,8.8569E4,3.24E4,2.916E4,4.302E4,8.2665E4,5.904E3,1.944E4,1.296E4,3.24E3,2.592E4,4.806E3,3.8214E4,1.6587E4,6.6078E4,3.564E3,2.34E3,1.1664E4,7.776E3,7.776E3,5.184E3,2.376E3,8.64E2,3.24E3,2.268E4,1.62E3,3.186E3,2.5686E4,1.2528E4,7.083E3,9.504E3,4.9563E4,1.6515E4,1.188E3,2.376E3,1.188E3,1.152E3,3.888E3,7.776E3,4.32E3,3.456E3,1.296E3,6.48E3,8.64E2,4.32E3,2.122E3,2.54E2,4.32E2,4.32E2,1.62E3,1.62E3,3.24E3,1.944E4,1.188E3,4.32E2,1.62E3,1.566E3,1.424E3,2.4262E4,4.698E3,7.83E3],"tree_param":{"num_deleted":"0","num_feature":"7","num_nodes":"63","size_leaf_vector":"1"}},{"base_weights":[-3.490037E-7,8.48683E-3,-1.422423E-2,1.7336817E-2,-1.5705382E-2,-3.4501846E-3,-2.152689E-2,1.379474E-2,6.6920556E-2,-1.9536652E-2,-9.957414E-3,1.0716909E-1,-1.7281195E-2,-7.98751E-2,-1.4186805E-2,-1.3932856E-2,2.0755067E-2,1.4878878E-1,-5.7781324E-2,-2.4377394E-2,-1.2273339E-2,1.8428827E-3,-1.7823504E-2,1.5701203E-1,-2.9922053E-2,1.5502577E-2,-2.1965068E-2,-1.4928967E-1,-4.4543777E-2,-2.3454538E-2,4.8150634E-3,-6.197856E-3,2.1876686E-3,2.9210674E-3,-4.621198E-4,1.32236825E-2,1.5700564E-2,-1.0515542E-2,-8.87796E-4,-1.9629041E-3,-2.6748742E-3,-1.7506843E-3,-5.728286E-4,-3.6709718E-3,9.5601147E-4,-9.54742E-4,-3.4365605E-3,1.596461E-2,1.3446636E-2,-3.6435039E-3,4.3575262E-4,5.1318477E-3,-2.032289E-3,-2.0783711E-3,-2.7543006E-3,-1.9238759E-2,-3.0599805E-3,-7.3589454E-3,-1.4468741E-3,-1.3894303E-3,-2.4015056E-3,-2.270765E-3,2.1329483E-3],"categories":[],"categories_nodes":[],"categories_segments":[],"categories_sizes":[],"default_left":[0,0,0,0,0,0,0,0,0,0,0,0,0,0,0,0,0,0,0,0,0,0,0,0,0,0,0,0,0,0,0,0,0,0,0,0,0,0,0,0,0,0,0,0,0,0,0,0,0,0,0,0,0,0,0,0,0,0,0,0,0,0,0],"id":13,"left_children":[1,3,5,7,9,11,13,15,17,19,21,23,25,27,29,31,33,35,37,39,41,43,45,47,49,51,53,55,57,59,61,-1,-1,-1,-1,-1,-1,-1,-1,-1,-1,-1,-1,-1,-1,-1,-1,-1,-1,-1,-1,-1,-1,-1,-1,-1,-1,-1,-1,-1,-1,-1,-1],"loss_changes":[2.3317308E1,2.5900042E1,5.6790676E0,1.5554577E1,7.1334076E-1,4.4617493E1,1.8423933E1,1.5954263E1,6.029345E1,6.832433E-1,1.2031013E0,2.2150532E1,3.9806404E0,1.1782557E1,6.729935E0,2.8540918E1,1.417882E1,4.6409607E-1,5.4225836E0,1.3082314E-1,2.662897E-1,1.5429888E0,1.0643733E0,1.1969757E-1,1.9328076E-1,4.1596394E0,1.4888477E-1,8.285992E0,2.782938E0,1.3731575E-1,5.695185E0,0E0,0E0,0E0,0E0,0E0,0E0,0E0,0E0,0E0,0E0,0E0,0E0,0E0,0E0,0E0,0E0,0E0,0E0,0E0,0E0,0E0,0E0,0E0,0E0,0E0,0E0,0E0,0E0,0E0,0E0,0E0,0E0],"parents":[2147483647,0,0,1,1,2,2,3,3,4,4,5,5,6,6,7,7,8,8,9,9,10,10,11,11,12,12,13,13,14,14,15,15,16,16,17,17,18,18,19,19,20,20,21,21,22,22,23,23,24,24,25,25,26,26,27,27,28,28,29,29,30,30],"right_children":[2,4,6,8,10,12,14,16,18,20,22,24,26,28,30,32,34,36,38,40,42,44,46,48,50,52,54,56,58,60,62,-1,-1,-1,-1,-1,-1,-1,-1,-1,-1,-1,-1,-1,-1,-1,-1,-1,-1,-1,-1,-1,-1,-1,-1,-1,-1,-1,-1,-1,-1,-1,-1],"split_conditions":[1.5E1,5E0,3E0,1.4E1,9E0,1.6E1,1.6E1,2E0,6E0,6E0,3E0,5E0,1.7E1,6E0,1.2E1,6E0,1.2E1,2E0,1.2E1,3E0,5E0,1E1,1.3E1,7.1097183E-1,3.4678954E-1,2E0,1.5E-1,5E0,1.2E1,6.276948E-2,1.9E1,-6.197856E-3,2.1876686E-3,2.9210674E-3,-4.621198E-4,1.32236825E-2,1.5700564E-2,-1.0515542E-2,-8.87796E-4,-1.9629041E-3,-2.6748742E-3,-1.7506843E-3,-5.728286E-4,-3.6709718E-3,9.5601147E-4,-9.54742E-4,-3.4365605E-3,1.596461E-2,1.3446636E-2,-3.6435039E-3,4.3575262E-4,5.1318477E-3,-2.032289E-3,-2.0783711E-3,-2.7543006E-3,-1.9238759E-2,-3.0599805E-3,-7.3589454E-3,-1.4468741E-3,-1.3894303E-3,-2.4015056E-3,-2.270765E-3,2.1329483E-3],"split_indices":[0,1,6,0,0,0,0,6,6,6,6,1,0,6,6,0,6,6,6,0,0,0,0,5,5,6,3,1,6,5,0,0,0,0,0,0,0,0,0,0,0,0,0,0,0,0,0,0,0,0,0,0,0,0,0,0,0,0,0,0,0,0,0],"split_type":[0,0,0,0,0,0,0,0,0,0,0,0,0,0,0,0,0,0,0,0,0,0,0,0,0,0,0,0,0,0,0,0,0,0,0,0,0,0,0,0,0,0,0,0,0,0,0,0,0,0,0,0,0,0,0,0,0,0,0,0,0,0,0],"sum_hessian":[1.93149E5,1.20969E5,7.218E4,8.8569E4,3.24E4,2.916E4,4.302E4,8.2665E4,5.904E3,1.944E4,1.296E4,3.24E3,2.592E4,4.806E3,3.8214E4,1.6587E4,6.6078E4,3.564E3,2.34E3,1.1664E4,7.776E3,5.184E3,7.776E3,2.376E3,8.64E2,3.24E3,2.268E4,1.62E3,3.186E3,2.5686E4,1.2528E4,7.083E3,9.504E3,4.9563E4,1.6515E4,1.188E3,2.376E3,1.188E3,1.152E3,3.888E3,7.776E3,4.32E3,3.456E3,8.64E2,4.32E3,5.184E3,2.592E3,2.122E3,2.54E2,7.26E2,1.38E2,1.62E3,1.62E3,1.872E4,3.96E3,1.188E3,4.32E2,1.62E3,1.566E3,1.424E3,2.4262E4,4.698E3,7.83E3],"tree_param":{"num_deleted":"0","num_feature":"7","num_nodes":"63","size_leaf_vector":"1"}},{"base_weights":[-3.616378E-7,7.6381597E-3,-1.2801956E-2,1.5603311E-2,-1.4135277E-2,-3.1043272E-3,-1.9375019E-2,1.2415241E-2,6.0231477E-2,-1.7583346E-2,-8.962216E-3,9.6460275E-2,-1.5553143E-2,-7.189406E-2,-1.2768232E-2,-3.8513457E-3,2.328904E-2,1.3391802E-1,-5.200806E-2,-2.194005E-2,-1.1046307E-2,-1.7808033E-3,-1.9731913E-2,1.4132321E-1,-2.6933564E-2,1.3953283E-2,-1.9768776E-2,-1.3437445E-1,-4.0092167E-2,-2.1109235E-2,4.3335413E-3,-4.019943E-3,2.3135047E-3,3.7012827E-3,-4.1591117E-4,1.1902427E-2,1.4131169E-2,-9.464872E-3,-7.990932E-4,-1.7666646E-3,-2.407421E-3,-1.0227687E-3,-4.5344695E-3,3.6282942E-4,-1.2596225E-3,-4.1315515E-4,-2.2850307E-3,1.4220699E-2,8.15875E-3,-4.1138935E-3,-1.266599E-3,-4.566382E-3,3.179698E-3,-1.402488E-3,-2.0725322E-3,-1.73165E-2,-2.754689E-3,-6.623505E-3,-1.3022791E-3,-2.0621258E-3,-3.0920894E-3,-2.0437373E-3,1.9196802E-3],"categories":[],"categories_nodes":[],"categories_segments":[],"categories_sizes":[],"default_left":[0,0,0,0,0,0,0,0,0,0,0,0,0,0,0,0,0,0,0,0,0,0,0,0,0,0,0,0,0,0,0,0,0,0,0,0,0,0,0,0,0,0,0,0,0,0,0,0,0,0,0,0,0,0,0,0,0,0,0,0,0,0,0],"id":14,"left_children":[1,3,5,7,9,11,13,15,17,19,21,23,25,27,29,31,33,35,37,39,41,43,45,47,49,51,53,55,57,59,61,-1,-1,-1,-1,-1,-1,-1,-1,-1,-1,-1,-1,-1,-1,-1,-1,-1,-1,-1,-1,-1,-1,-1,-1,-1,-1,-1,-1,-1,-1,-1,-1],"loss_changes":[1.888732E1,2.097989E1,4.6009827E0,1.2600788E1,5.7778215E-1,3.614543E1,1.49265995E1,1.462202E1,4.884453E1,5.534363E-1,1.0023897E0,1.7945368E1,3.224544E0,9.546093E0,5.4513073E0,3.248944E1,1.8663765E1,3.757515E-1,4.393111E0,1.0596037E-1,2.1789384E-1,4.5501325E-1,2.52146E-1,1.1388397E-1,1.7479378E-1,3.4491937E0,1.2432575E-1,6.712492E0,2.254487E0,1.2234688E-1,4.6132765E0,0E0,0E0,0E0,0E0,0E0,0E0,0E0,0E0,0E0,0E0,0E0,0E0,0E0,0E0,0E0,0E0,0E0,0E0,0E0,0E0,0E0,0E0,0E0,0E0,0E0,0E0,0E0,0E0,0E0,0E0,0E0,0E0],"parents":[2147483647,0,0,1,1,2,2,3,3,4,4,5,5,6,6,7,7,8,8,9,9,10,10,11,11,12,12,13,13,14,14,15,15,16,16,17,17,18,18,19,19,20,20,21,21,22,22,23,23,24,24,25,25,26,26,27,27,28,28,29,29,30,30],"right_children":[2,4,6,8,10,12,14,16,18,20,22,24,26,28,30,32,34,36,38,40,42,44,46,48,50,52,54,56,58,60,62,-1,-1,-1,-1,-1,-1,-1,-1,-1,-1,-1,-1,-1,-1,-1,-1,-1,-1,-1,-1,-1,-1,-1,-1,-1,-1,-1,-1,-1,-1,-1,-1],"split_conditions":[1.5E1,5E0,3E0,1.4E1,9E0,1.6E1,1.6E1,3E0,6E0,6E0,6E0,5E0,1.7E1,6E0,1.2E1,6E0,1.2E1,2E0,1.2E1,3E0,4.5E-1,1.3E1,1E1,4.5E-1,6E0,3.6952814E-1,1.8E1,5E0,1.2E1,7.4929476E-1,1.9E1,-4.019943E-3,2.3135047E-3,3.7012827E-3,-4.1591117E-4,1.1902427E-2,1.4131169E-2,-9.464872E-3,-7.990932E-4,-1.7666646E-3,-2.407421E-3,-1.0227687E-3,-4.5344695E-3,3.6282942E-4,-1.2596225E-3,-4.1315515E-4,-2.2850307E-3,1.4220699E-2,8.15875E-3,-4.1138935E-3,-1.266599E-3,-4.566382E-3,3.179698E-3,-1.402488E-3,-2.0725322E-3,-1.73165E-2,-2.754689E-3,-6.623505E-3,-1.3022791E-3,-2.0621258E-3,-3.0920894E-3,-2.0437373E-3,1.9196802E-3],"split_indices":[0,1,6,0,0,0,0,6,6,6,6,1,0,6,6,0,6,6,6,0,3,0,0,3,1,5,0,1,6,5,0,0,0,0,0,0,0,0,0,0,0,0,0,0,0,0,0,0,0,0,0,0,0,0,0,0,0,0,0,0,0,0,0],"split_type":[0,0,0,0,0,0,0,0,0,0,0,0,0,0,0,0,0,0,0,0,0,0,0,0,0,0,0,0,0,0,0,0,0,0,0,0,0,0,0,0,0,0,0,0,0,0,0,0,0,0,0,0,0,0,0,0,0,0,0,0,0,0,0],"sum_hessian":[1.93149E5,1.20969E5,7.218E4,8.8569E4,3.24E4,2.916E4,4.302E4,8.2665E4,5.904E3,1.944E4,1.296E4,3.24E3,2.592E4,4.806E3,3.8214E4,3.312E4,4.9545E4,3.564E3,2.34E3,1.1664E4,7.776E3,7.776E3,5.184E3,2.376E3,8.64E2,3.24E3,2.268E4,1.62E3,3.186E3,2.5686E4,1.2528E4,1.4112E4,1.9008E4,3.303E4,1.6515E4,1.188E3,2.376E3,1.188E3,1.152E3,3.888E3,7.776E3,7.596E3,1.8E2,5.184E3,2.592E3,8.64E2,4.32E3,2.34E3,3.6E1,4.32E2,4.32E2,7.46E2,2.494E3,3.24E3,1.944E4,1.188E3,4.32E2,1.62E3,1.566E3,2.4472E4,1.214E3,4.698E3,7.83E3],"tree_param":{"num_deleted":"0","num_feature":"7","num_nodes":"63","size_leaf_vector":"1"}},{"base_weights":[-4.108495E-7,6.874382E-3,-1.1522054E-2,1.4043184E-2,-1.2722163E-2,-2.7934788E-3,-1.743829E-2,-8.223713E-3,1.9458052E-2,-1.5426232E-2,-7.3130997E-3,8.68195E-2,-1.3998019E-2,-6.4710476E-2,-1.1491547E-2,-2.5024587E-2,1.7196871E-2,2.5279887E-2,-3.888381E-3,-2.3025723E-2,-1.0358518E-2,8.890412E-3,-1.8115146E-2,1.2720032E-1,-2.4246424E-2,1.2557538E-2,-1.7792055E-2,-1.20949395E-1,-3.608544E-2,-1.8998511E-2,3.9001736E-3,-1.0567051E-3,-3.2382538E-3,-2.0532783E-3,3.5695117E-3,-2.5916225E-4,3.4570233E-3,1.1466582E-2,-4.3546995E-3,-1.8282178E-3,-4.197836E-3,-1.4890867E-3,7.769627E-4,7.895897E-4,9.543474E-3,-1.0861063E-3,-2.8987885E-3,1.3053677E-2,1.1250259E-2,-3.010609E-3,6.575314E-4,4.47945E-3,-1.9687172E-3,-1.9179005E-3,-1.3975404E-3,-1.5586308E-2,-2.4798561E-3,-5.9615634E-3,-1.172135E-3,-1.0445168E-3,-1.9500077E-3,-1.839407E-3,1.727736E-3],"categories":[],"categories_nodes":[],"categories_segments":[],"categories_sizes":[],"default_left":[0,0,0,0,0,0,0,0,0,0,0,0,0,0,0,0,0,0,0,0,0,0,0,0,0,0,0,0,0,0,0,0,0,0,0,0,0,0,0,0,0,0,0,0,0,0,0,0,0,0,0,0,0,0,0,0,0,0,0,0,0,0,0],"id":15,"left_children":[1,3,5,7,9,11,13,15,17,19,21,23,25,27,29,31,33,35,37,39,41,43,45,47,49,51,53,55,57,59,61,-1,-1,-1,-1,-1,-1,-1,-1,-1,-1,-1,-1,-1,-1,-1,-1,-1,-1,-1,-1,-1,-1,-1,-1,-1,-1,-1,-1,-1,-1,-1,-1],"loss_changes":[1.529928E1,1.6994497E1,3.7274008E0,1.0679249E1,4.737997E-1,2.9280964E1,1.2093132E1,7.400157E0,9.683653E0,8.316603E-1,1.8906717E0,1.45387535E1,2.611836E0,7.7341423E0,4.4156294E0,1.1093907E0,4.812977E0,1.4765915E1,6.68678E1,7.7608156E-1,1.0650312E0,3.7115332E-1,5.1085305E-1,1.01882935E-1,1.564213E-1,3.3698092E0,1.19793415E-1,5.4377975E0,1.8263817E0,1.0999584E-1,3.7368946E0,0E0,0E0,0E0,0E0,0E0,0E0,0E0,0E0,0E0,0E0,0E0,0E0,0E0,0E0,0E0,0E0,0E0,0E0,0E0,0E0,0E0,0E0,0E0,0E0,0E0,0E0,0E0,0E0,0E0,0E0,0E0,0E0],"parents":[2147483647,0,0,1,1,2,2,3,3,4,4,5,5,6,6,7,7,8,8,9,9,10,10,11,11,12,12,13,13,14,14,15,15,16,16,17,17,18,18,19,19,20,20,21,21,22,22,23,23,24,24,25,25,26,26,27,27,28,28,29,29,30,30],"right_children":[2,4,6,8,10,12,14,16,18,20,22,24,26,28,30,32,34,36,38,40,42,44,46,48,50,52,54,56,58,60,62,-1,-1,-1,-1,-1,-1,-1,-1,-1,-1,-1,-1,-1,-1,-1,-1,-1,-1,-1,-1,-1,-1,-1,-1,-1,-1,-1,-1,-1,-1,-1,-1],"split_conditions":[1.5E1,5E0,3E0,3E0,1E1,1.6E1,1.6E1,6E0,1.2E1,3E0,3E0,5E0,1.7E1,6E0,1.2E1,2E0,1E0,2E0,6E0,8E0,8E0,8.430666E-1,1.3E1,6.32362E-1,3.4678954E-1,2E0,5E0,5E0,1.2E1,6.276948E-2,1.9E1,-1.0567051E-3,-3.2382538E-3,-2.0532783E-3,3.5695117E-3,-2.5916225E-4,3.4570233E-3,1.1466582E-2,-4.3546995E-3,-1.8282178E-3,-4.197836E-3,-1.4890867E-3,7.769627E-4,7.895897E-4,9.543474E-3,-1.0861063E-3,-2.8987885E-3,1.3053677E-2,1.1250259E-2,-3.010609E-3,6.575314E-4,4.47945E-3,-1.9687172E-3,-1.9179005E-3,-1.3975404E-3,-1.5586308E-2,-2.4798561E-3,-5.9615634E-3,-1.172135E-3,-1.0445168E-3,-1.9500077E-3,-1.839407E-3,1.727736E-3],"split_indices":[0,1,6,0,0,0,0,6,6,6,6,1,0,6,6,6,0,6,0,0,0,5,0,5,5,6,1,1,6,5,0,0,0,0,0,0,0,0,0,0,0,0,0,0,0,0,0,0,0,0,0,0,0,0,0,0,0,0,0,0,0,0,0],"split_type":[0,0,0,0,0,0,0,0,0,0,0,0,0,0,0,0,0,0,0,0,0,0,0,0,0,0,0,0,0,0,0,0,0,0,0,0,0,0,0,0,0,0,0,0,0,0,0,0,0,0,0,0,0,0,0,0,0,0,0,0,0,0,0],"sum_hessian":[1.93149E5,1.20969E5,7.218E4,8.8569E4,3.24E4,2.916E4,4.302E4,1.7325E4,7.1244E4,2.16E4,1.08E4,3.24E3,2.592E4,4.806E3,3.8214E4,1.0431E4,6.894E3,5.7024E4,1.422E4,8.64E3,1.296E4,4.32E3,6.48E3,2.376E3,8.64E2,3.24E3,2.268E4,1.62E3,3.186E3,2.5686E4,1.2528E4,3.519E3,6.912E3,2.268E3,4.626E3,1.4256E4,4.2768E4,3.564E3,1.0656E4,6.912E3,1.728E3,1.0368E4,2.592E3,4.272E3,4.8E1,3.888E3,2.592E3,1.93E3,4.46E2,7.26E2,1.38E2,1.62E3,1.62E3,1.6632E4,6.048E3,1.188E3,4.32E2,1.62E3,1.566E3,1.424E3,2.4262E4,4.698E3,7.83E3],"tree_param":{"num_deleted":"0","num_feature":"7","num_nodes":"63","size_leaf_vector":"1"}},{"base_weights":[-3.6700777E-7,6.1870073E-3,-1.0369947E-2,1.2638956E-2,-1.1449958E-2,-2.5134096E-3,-1.5695117E-2,9.753861E-3,5.3026196E-2,-1.3883919E-2,-6.5812003E-3,7.814432E-2,-1.2598252E-2,-5.8244668E-2,-1.034247E-2,-4.276931E-3,1.9133106E-2,1.1831587E-1,-4.642306E-2,-2.0723842E-2,-9.322724E-3,8.003769E-3,-1.6304249E-2,1.144905E-1,-2.1824498E-2,1.1302549E-2,-1.6013E-2,-1.088656E-1,-3.247913E-2,-1.7098773E-2,3.5101536E-3,-3.5928797E-3,1.9222836E-3,3.0734756E-3,-4.070647E-4,1.073908E-2,1.2373093E-2,-8.864592E-3,-2.841613E-4,-1.6454218E-3,-3.7782954E-3,-1.3401926E-3,6.992958E-4,7.1064994E-4,8.608603E-3,-9.775235E-4,-2.6090222E-3,1.1620206E-2,8.734298E-3,-2.7588357E-3,6.98631E-4,-4.2357235E-3,2.7363696E-3,-1.4958697E-3,-2.0991943E-3,-1.4028986E-2,-2.2324438E-3,-5.3657745E-3,-1.0549959E-3,-1.6661972E-3,-2.5882937E-3,-1.6555047E-3,1.5549851E-3],"categories":[],"categories_nodes":[],"categories_segments":[],"categories_sizes":[],"default_left":[0,0,0,0,0,0,0,0,0,0,0,0,0,0,0,0,0,0,0,0,0,0,0,0,0,0,0,0,0,0,0,0,0,0,0,0,0,0,0,0,0,0,0,0,0,0,0,0,0,0,0,0,0,0,0,0,0,0,0,0,0,0,0],"id":16,"left_children":[1,3,5,7,9,11,13,15,17,19,21,23,25,27,29,31,33,35,37,39,41,43,45,47,49,51,53,55,57,59,61,-1,-1,-1,-1,-1,-1,-1,-1,-1,-1,-1,-1,-1,-1,-1,-1,-1,-1,-1,-1,-1,-1,-1,-1,-1,-1,-1,-1,-1,-1,-1,-1],"loss_changes":[1.2392659E1,1.3765659E1,3.0198255E0,1.0319753E1,3.8387203E-1,2.3721136E1,9.797546E0,1.0878782E1,3.834671E1,6.737199E-1,1.5318241E0,1.1778624E1,2.1157289E0,6.266115E0,3.5766988E0,2.4636469E1,1.3337996E1,1.9761658E-1,4.3074994E0,6.287539E-1,8.627125E-1,3.021212E-1,4.1383398E-1,1.0029411E-1,1.4383584E-1,2.794375E0,1.1874533E-1,4.4051666E0,1.4795706E0,9.8128796E-2,3.0270002E0,0E0,0E0,0E0,0E0,0E0,0E0,0E0,0E0,0E0,0E0,0E0,0E0,0E0,0E0,0E0,0E0,0E0,0E0,0E0,0E0,0E0,0E0,0E0,0E0,0E0,0E0,0E0,0E0,0E0,0E0,0E0,0E0],"parents":[2147483647,0,0,1,1,2,2,3,3,4,4,5,5,6,6,7,7,8,8,9,9,10,10,11,11,12,12,13,13,14,14,15,15,16,16,17,17,18,18,19,19,20,20,21,21,22,22,23,23,24,24,25,25,26,26,27,27,28,28,29,29,30,30],"right_children":[2,4,6,8,10,12,14,16,18,20,22,24,26,28,30,32,34,36,38,40,42,44,46,48,50,52,54,56,58,60,62,-1,-1,-1,-1,-1,-1,-1,-1,-1,-1,-1,-1,-1,-1,-1,-1,-1,-1,-1,-1,-1,-1,-1,-1,-1,-1,-1,-1,-1,-1,-1,-1],"split_conditions":[1.5E1,5E0,3E0,1.4E1,1E1,1.6E1,1.6E1,3E0,6E0,3E0,3E0,5E0,1.7E1,6E0,1.2E1,6E0,1.2E1,2E0,1.2E1,8E0,8E0,8.430666E-1,1.3E1,3E-1,1.5E-1,3.6952814E-1,1.5E-1,5E0,1.2E1,7.4929476E-1,1.9E1,-3.5928797E-3,1.9222836E-3,3.0734756E-3,-4.070647E-4,1.073908E-2,1.2373093E-2,-8.864592E-3,-2.841613E-4,-1.6454218E-3,-3.7782954E-3,-1.3401926E-3,6.992958E-4,7.1064994E-4,8.608603E-3,-9.775235E-4,-2.6090222E-3,1.1620206E-2,8.734298E-3,-2.7588357E-3,6.98631E-4,-4.2357235E-3,2.7363696E-3,-1.4958697E-3,-2.0991943E-3,-1.4028986E-2,-2.2324438E-3,-5.3657745E-3,-1.0549959E-3,-1.6661972E-3,-2.5882937E-3,-1.6555047E-3,1.5549851E-3],"split_indices":[0,1,6,0,0,0,0,6,6,6,6,1,0,6,6,0,6,6,6,0,0,5,0,3,3,5,3,1,6,5,0,0,0,0,0,0,0,0,0,0,0,0,0,0,0,0,0,0,0,0,0,0,0,0,0,0,0,0,0,0,0,0,0],"split_type":[0,0,0,0,0,0,0,0,0,0,0,0,0,0,0,0,0,0,0,0,0,0,0,0,0,0,0,0,0,0,0,0,0,0,0,0,0,0,0,0,0,0,0,0,0,0,0,0,0,0,0,0,0,0,0,0,0,0,0,0,0,0,0],"sum_hessian":[1.93149E5,1.20969E5,7.218E4,8.8569E4,3.24E4,2.916E4,4.302E4,8.2665E4,5.904E3,2.16E4,1.08E4,3.24E3,2.592E4,4.806E3,3.8214E4,3.312E4,4.9545E4,3.564E3,2.34E3,8.64E3,1.296E4,4.32E3,6.48E3,2.376E3,8.64E2,3.24E3,2.268E4,1.62E3,3.186E3,2.5686E4,1.2528E4,1.4112E4,1.9008E4,3.303E4,1.6515E4,1.188E3,2.376E3,1.188E3,1.152E3,6.912E3,1.728E3,1.0368E4,2.592E3,4.272E3,4.8E1,3.888E3,2.592E3,2.232E3,1.44E2,7.2E2,1.44E2,7.46E2,2.494E3,1.872E4,3.96E3,1.188E3,4.32E2,1.62E3,1.566E3,2.4472E4,1.214E3,4.698E3,7.83E3],"tree_param":{"num_deleted":"0","num_feature":"7","num_nodes":"63","size_leaf_vector":"1"}},{"base_weights":[-3.260469E-7,5.5684266E-3,-9.333142E-3,1.1375228E-2,-1.0304972E-2,-2.2616158E-3,-1.4126231E-2,8.7784855E-3,4.772594E-2,-1.2495809E-2,-5.922547E-3,7.0335545E-2,-1.1338624E-2,-5.242491E-2,-9.308334E-3,-3.8492868E-3,1.7219847E-2,1.0649076E-1,-4.1784663E-2,-1.8652089E-2,-8.390499E-3,7.205559E-3,-1.4674379E-2,1.0305003E-1,-1.9644432E-2,1.0171824E-2,-1.4411858E-2,-9.798906E-2,-2.9233223E-2,-1.5389057E-2,3.1591256E-3,-3.74231E-3,1.4577635E-3,2.7661368E-3,-3.663604E-4,1.1728488E-2,1.01426905E-2,-7.97888E-3,-2.557692E-4,-1.480904E-3,-3.4006834E-3,-1.2061861E-3,6.2939385E-4,1.5494068E-3,-1.08628396E-4,-8.797971E-4,-2.34822E-3,9.110592E-3,1.065115E-2,-3.2429385E-3,-6.8141083E-4,3.9187423E-3,-1.8850046E-3,-9.2885236E-4,-1.5265226E-3,-1.2627266E-2,-2.0097147E-3,-4.8295273E-3,-9.4956293E-4,-7.736356E-4,-1.5837876E-3,-1.4899895E-3,1.3995058E-3],"categories":[],"categories_nodes":[],"categories_segments":[],"categories_sizes":[],"default_left":[0,0,0,0,0,0,0,0,0,0,0,0,0,0,0,0,0,0,0,0,0,0,0,0,0,0,0,0,0,0,0,0,0,0,0,0,0,0,0,0,0,0,0,0,0,0,0,0,0,0,0,0,0,0,0,0,0,0,0,0,0,0,0],"id":17,"left_children":[1,3,5,7,9,11,13,15,17,19,21,23,25,27,29,31,33,35,37,39,41,43,45,47,49,51,53,55,57,59,61,-1,-1,-1,-1,-1,-1,-1,-1,-1,-1,-1,-1,-1,-1,-1,-1,-1,-1,-1,-1,-1,-1,-1,-1,-1,-1,-1,-1,-1,-1,-1,-1],"loss_changes":[1.0038472E1,1.1150367E1,2.4465036E0,8.360007E0,3.1101394E-1,1.9216875E1,7.937706E0,8.811896E0,3.1065193E1,5.4577494E-1,1.2410864E0,9.542391E0,1.713697E0,5.0767374E0,2.8971725E0,2.049125E1,1.0803852E1,1.8296432E-1,3.489728E0,5.0939393E-1,6.98828E-1,2.9698628E-1,3.352394E-1,8.857155E-2,1.416694E-1,2.7299418E0,9.9021435E-2,3.5686293E0,1.1986146E0,8.810425E-2,2.4519622E0,0E0,0E0,0E0,0E0,0E0,0E0,0E0,0E0,0E0,0E0,0E0,0E0,0E0,0E0,0E0,0E0,0E0,0E0,0E0,0E0,0E0,0E0,0E0,0E0,0E0,0E0,0E0,0E0,0E0,0E0,0E0,0E0],"parents":[2147483647,0,0,1,1,2,2,3,3,4,4,5,5,6,6,7,7,8,8,9,9,10,10,11,11,12,12,13,13,14,14,15,15,16,16,17,17,18,18,19,19,20,20,21,21,22,22,23,23,24,24,25,25,26,26,27,27,28,28,29,29,30,30],"right_children":[2,4,6,8,10,12,14,16,18,20,22,24,26,28,30,32,34,36,38,40,42,44,46,48,50,52,54,56,58,60,62,-1,-1,-1,-1,-1,-1,-1,-1,-1,-1,-1,-1,-1,-1,-1,-1,-1,-1,-1,-1,-1,-1,-1,-1,-1,-1,-1,-1,-1,-1,-1,-1],"split_conditions":[1.5E1,5E0,3E0,1.4E1,1E1,1.6E1,1.6E1,3E0,6E0,3E0,3E0,5E0,1.7E1,6E0,1.2E1,5E0,1.2E1,2.602204E-1,1.2E1,8E0,8E0,2E0,1.3E1,1E0,6E0,2E0,1.8E1,5E0,1.2E1,6.276948E-2,1.9E1,-3.74231E-3,1.4577635E-3,2.7661368E-3,-3.663604E-4,1.1728488E-2,1.01426905E-2,-7.97888E-3,-2.557692E-4,-1.480904E-3,-3.4006834E-3,-1.2061861E-3,6.2939385E-4,1.5494068E-3,-1.08628396E-4,-8.797971E-4,-2.34822E-3,9.110592E-3,1.065115E-2,-3.2429385E-3,-6.8141083E-4,3.9187423E-3,-1.8850046E-3,-9.2885236E-4,-1.5265226E-3,-1.2627266E-2,-2.0097147E-3,-4.8295273E-3,-9.4956293E-4,-7.736356E-4,-1.5837876E-3,-1.4899895E-3,1.3995058E-3],"split_indices":[0,1,6,0,0,0,0,6,6,6,6,1,0,6,6,0,6,5,6,0,0,6,0,1,1,6,0,1,6,5,0,0,0,0,0,0,0,0,0,0,0,0,0,0,0,0,0,0,0,0,0,0,0,0,0,0,0,0,0,0,0,0,0],"split_type":[0,0,0,0,0,0,0,0,0,0,0,0,0,0,0,0,0,0,0,0,0,0,0,0,0,0,0,0,0,0,0,0,0,0,0,0,0,0,0,0,0,0,0,0,0,0,0,0,0,0,0,0,0,0,0,0,0,0,0,0,0,0,0],"sum_hessian":[1.93149E5,1.20969E5,7.218E4,8.8569E4,3.24E4,2.916E4,4.302E4,8.2665E4,5.904E3,2.16E4,1.08E4,3.24E3,2.592E4,4.806E3,3.8214E4,3.312E4,4.9545E4,3.564E3,2.34E3,8.64E3,1.296E4,4.32E3,6.48E3,2.376E3,8.64E2,3.24E3,2.268E4,1.62E3,3.186E3,2.5686E4,1.2528E4,1.1736E4,2.1384E4,3.303E4,1.6515E4,1.131E3,2.433E3,1.188E3,1.152E3,6.912E3,1.728E3,1.0368E4,2.592E3,2.16E3,2.16E3,3.888E3,2.592E3,5.4E2,1.836E3,4.32E2,4.32E2,1.62E3,1.62E3,3.24E3,1.944E4,1.188E3,4.32E2,1.62E3,1.566E3,1.424E3,2.4262E4,4.698E3,7.83E3],"tree_param":{"num_deleted":"0","num_feature":"7","num_nodes":"63","size_leaf_vector":"1"}},{"base_weights":[-2.968887E-7,5.011642E-3,-8.3999345E-3,1.0237865E-2,-9.274697E-3,-2.0349289E-3,-1.2714142E-2,7.900643E-3,4.2955656E-2,-1.1246478E-2,-5.3304583E-3,6.330687E-2,-1.0204781E-2,-4.7186665E-2,-8.377569E-3,-1.0897375E-2,1.2619444E-2,9.584782E-2,-3.760971E-2,-2.0499077E-2,-8.932276E-3,6.485342E-3,-1.3207444E-2,9.2753336E-2,-1.7684523E-2,9.155263E-3,-1.2970783E-2,-8.8199176E-2,-2.6311716E-2,-1.3850247E-2,2.8432023E-3,-4.4644796E-3,1.4255453E-3,-2.721677E-3,1.5568511E-3,8.602377E-3,1.007216E-2,-7.1816617E-3,-2.3021501E-4,-1.1059113E-3,-5.8202497E-3,-1.2041314E-3,3.5037633E-4,5.675811E-4,7.694743E-3,-9.842273E-4,-2.665016E-3,9.998465E-3,8.66548E-3,-1.6033516E-3,-1.1017275E-2,-3.914268E-3,2.361194E-3,-1.4218619E-3,-9.5374504E-4,-1.1365602E-2,-1.8092067E-3,-4.346872E-3,-8.546674E-4,-1.3459257E-3,-2.17143E-3,1.3919283E-3,-1.284757E-3],"categories":[],"categories_nodes":[],"categories_segments":[],"categories_sizes":[],"default_left":[0,0,0,0,0,0,0,0,0,0,0,0,0,0,0,0,0,0,0,0,0,0,0,0,0,0,0,0,0,0,0,0,0,0,0,0,0,0,0,0,0,0,0,0,0,0,0,0,0,0,0,0,0,0,0,0,0,0,0,0,0,0,0],"id":18,"left_children":[1,3,5,7,9,11,13,15,17,19,21,23,25,27,29,31,33,35,37,39,41,43,45,47,49,51,53,55,57,59,61,-1,-1,-1,-1,-1,-1,-1,-1,-1,-1,-1,-1,-1,-1,-1,-1,-1,-1,-1,-1,-1,-1,-1,-1,-1,-1,-1,-1,-1,-1,-1,-1],"loss_changes":[8.131361E0,9.032151E0,1.9820614E0,6.772496E0,2.5192857E-1,1.5567744E1,6.4309273E0,7.3329515E0,2.5166445E1,4.6234584E-1,1.0053658E0,7.7311344E0,1.3881865E0,4.1131144E0,2.3467333E0,1.4081245E1,7.763361E0,1.6202927E-1,2.8272064E0,1.5372819E0,6.681969E-1,2.4603856E-1,2.9291904E-1,9.61647E-2,1.3031802E-1,2.2638803E0,9.703469E-2,2.8909512E0,9.7100997E-1,7.86891E-2,2.177622E0,0E0,0E0,0E0,0E0,0E0,0E0,0E0,0E0,0E0,0E0,0E0,0E0,0E0,0E0,0E0,0E0,0E0,0E0,0E0,0E0,0E0,0E0,0E0,0E0,0E0,0E0,0E0,0E0,0E0,0E0,0E0,0E0],"parents":[2147483647,0,0,1,1,2,2,3,3,4,4,5,5,6,6,7,7,8,8,9,9,10,10,11,11,12,12,13,13,14,14,15,15,16,16,17,17,18,18,19,19,20,20,21,21,22,22,23,23,24,24,25,25,26,26,27,27,28,28,29,29,30,30],"right_children":[2,4,6,8,10,12,14,16,18,20,22,24,26,28,30,32,34,36,38,40,42,44,46,48,50,52,54,56,58,60,62,-1,-1,-1,-1,-1,-1,-1,-1,-1,-1,-1,-1,-1,-1,-1,-1,-1,-1,-1,-1,-1,-1,-1,-1,-1,-1,-1,-1,-1,-1,-1,-1],"split_conditions":[1.5E1,5E0,3E0,1.4E1,1E1,1.6E1,1.6E1,2E0,6E0,2E0,3E0,5E0,1.7E1,6E0,1.2E1,6E0,1E0,2E0,1.2E1,8E0,8E0,8.430666E-1,1.4E1,2E0,7.833068E-1,3.6952814E-1,5E0,5E0,1.2E1,7.4929476E-1,4E0,-4.4644796E-3,1.4255453E-3,-2.721677E-3,1.5568511E-3,8.602377E-3,1.007216E-2,-7.1816617E-3,-2.3021501E-4,-1.1059113E-3,-5.8202497E-3,-1.2041314E-3,3.5037633E-4,5.675811E-4,7.694743E-3,-9.842273E-4,-2.665016E-3,9.998465E-3,8.66548E-3,-1.6033516E-3,-1.1017275E-2,-3.914268E-3,2.361194E-3,-1.4218619E-3,-9.5374504E-4,-1.1365602E-2,-1.8092067E-3,-4.346872E-3,-8.546674E-4,-1.3459257E-3,-2.17143E-3,1.3919283E-3,-1.284757E-3],"split_indices":[0,1,6,0,0,0,0,6,6,6,6,1,0,6,6,0,0,6,6,0,0,5,0,1,5,5,1,1,6,5,1,0,0,0,0,0,0,0,0,0,0,0,0,0,0,0,0,0,0,0,0,0,0,0,0,0,0,0,0,0,0,0,0],"split_type":[0,0,0,0,0,0,0,0,0,0,0,0,0,0,0,0,0,0,0,0,0,0,0,0,0,0,0,0,0,0,0,0,0,0,0,0,0,0,0,0,0,0,0,0,0,0,0,0,0,0,0,0,0,0,0,0,0,0,0,0,0,0,0],"sum_hessian":[1.93149E5,1.20969E5,7.218E4,8.8569E4,3.24E4,2.916E4,4.302E4,8.2665E4,5.904E3,2.16E4,1.08E4,3.24E3,2.592E4,4.806E3,3.8214E4,1.6587E4,6.6078E4,3.564E3,2.34E3,4.32E3,1.728E4,4.32E3,6.48E3,2.376E3,8.64E2,3.24E3,2.268E4,1.62E3,3.186E3,2.5686E4,1.2528E4,7.083E3,9.504E3,4.554E3,6.1524E4,1.188E3,2.376E3,1.188E3,1.152E3,3.456E3,8.64E2,1.3824E4,3.456E3,4.272E3,4.8E1,5.184E3,1.296E3,1.08E3,1.296E3,8.5E2,1.4E1,7.46E2,2.494E3,1.6632E4,6.048E3,1.188E3,4.32E2,1.62E3,1.566E3,2.4472E4,1.214E3,7.344E3,5.184E3],"tree_param":{"num_deleted":"0","num_feature":"7","num_nodes":"63","size_leaf_vector":"1"}},{"base_weights":[-3.451612E-7,4.5105126E-3,-7.560208E-3,9.214163E-3,-8.347327E-3,-1.8313578E-3,-1.1443229E-2,7.110533E-3,3.8662E-2,-1.0122191E-2,-4.7969893E-3,5.6978047E-2,-9.184448E-3,-4.2471822E-2,-7.539896E-3,-3.5470522E-3,1.4234877E-2,8.626828E-2,-3.3851907E-2,-1.5316611E-2,-6.658329E-3,1.3298912E-2,-9.32198E-3,8.348585E-2,-1.5930662E-2,8.239265E-3,-1.1673803E-2,-7.938739E-2,-2.3682171E-2,-1.2465352E-2,2.5588947E-3,-3.1793627E-3,1.195604E-3,3.118376E-3,1.7312117E-4,9.599297E-3,8.17101E-3,-6.4640986E-3,-2.0721431E-4,-1.2173494E-3,-2.7874769E-3,-1.0580443E-3,2.493635E-4,6.2661315E-4,4.1350597E-3,-4.5576738E-4,-2.8365548E-3,8.47441E-3,5.236951E-3,-2.120845E-3,1.1787927E-3,3.4355365E-3,-1.7881918E-3,-1.0732895E-3,-1.6117896E-3,-1.0229998E-2,-1.6287038E-3,-3.3591036E-3,2.9559512E-4,-1.2219668E-3,-2.38623E-3,-1.3694494E-3,1.2311431E-3],"categories":[],"categories_nodes":[],"categories_segments":[],"categories_sizes":[],"default_left":[0,0,0,0,0,0,0,0,0,0,0,0,0,0,0,0,0,0,0,0,0,0,0,0,0,0,0,0,0,0,0,0,0,0,0,0,0,0,0,0,0,0,0,0,0,0,0,0,0,0,0,0,0,0,0,0,0,0,0,0,0,0,0],"id":19,"left_children":[1,3,5,7,9,11,13,15,17,19,21,23,25,27,29,31,33,35,37,39,41,43,45,47,49,51,53,55,57,59,61,-1,-1,-1,-1,-1,-1,-1,-1,-1,-1,-1,-1,-1,-1,-1,-1,-1,-1,-1,-1,-1,-1,-1,-1,-1,-1,-1,-1,-1,-1,-1,-1],"loss_changes":[6.5867324E0,7.316196E0,1.6056628E0,5.4864025E0,2.0412183E-1,1.261064E1,5.2101655E0,6.27674E0,2.0387672E1,3.8855958E-1,8.8455075E-1,6.265046E0,1.1243889E0,3.3324013E0,1.9008901E0,1.4504374E1,1.0499892E1,1.5018272E-1,2.290463E0,3.4073615E-1,4.6526194E-1,4.2606583E-1,7.8386325E-1,8.862686E-2,1.2679332E-1,2.2115707E0,9.466696E-2,2.3419638E0,8.413193E-1,7.163334E-2,1.9861627E0,0E0,0E0,0E0,0E0,0E0,0E0,0E0,0E0,0E0,0E0,0E0,0E0,0E0,0E0,0E0,0E0,0E0,0E0,0E0,0E0,0E0,0E0,0E0,0E0,0E0,0E0,0E0,0E0,0E0,0E0,0E0,0E0],"parents":[2147483647,0,0,1,1,2,2,3,3,4,4,5,5,6,6,7,7,8,8,9,9,10,10,11,11,12,12,13,13,14,14,15,15,16,16,17,17,18,18,19,19,20,20,21,21,22,22,23,23,24,24,25,25,26,26,27,27,28,28,29,29,30,30],"right_children":[2,4,6,8,10,12,14,16,18,20,22,24,26,28,30,32,34,36,38,40,42,44,46,48,50,52,54,56,58,60,62,-1,-1,-1,-1,-1,-1,-1,-1,-1,-1,-1,-1,-1,-1,-1,-1,-1,-1,-1,-1,-1,-1,-1,-1,-1,-1,-1,-1,-1,-1,-1,-1],"split_conditions":[1.5E1,5E0,3E0,1.4E1,1E1,1.6E1,1.6E1,3E0,6E0,3E0,2E0,5E0,1.7E1,6E0,1.2E1,5E0,6E0,2.602204E-1,1.2E1,8E0,7E0,1.4E1,1.4E1,1E0,3.4678954E-1,2E0,1.5E-1,5E0,5E0,4.5E-1,1.9E1,-3.1793627E-3,1.195604E-3,3.118376E-3,1.7312117E-4,9.599297E-3,8.17101E-3,-6.4640986E-3,-2.0721431E-4,-1.2173494E-3,-2.7874769E-3,-1.0580443E-3,2.493635E-4,6.2661315E-4,4.1350597E-3,-4.5576738E-4,-2.8365548E-3,8.47441E-3,5.236951E-3,-2.120845E-3,1.1787927E-3,3.4355365E-3,-1.7881918E-3,-1.0732895E-3,-1.6117896E-3,-1.0229998E-2,-1.6287038E-3,-3.3591036E-3,2.9559512E-4,-1.2219668E-3,-2.38623E-3,-1.3694494E-3,1.2311431E-3],"split_indices":[0,1,6,0,0,0,0,6,6,6,6,1,0,6,6,0,0,5,6,0,0,0,0,5,5,6,3,1,1,3,0,0,0,0,0,0,0,0,0,0,0,0,0,0,0,0,0,0,0,0,0,0,0,0,0,0,0,0,0,0,0,0,0],"split_type":[0,0,0,0,0,0,0,0,0,0,0,0,0,0,0,0,0,0,0,0,0,0,0,0,0,0,0,0,0,0,0,0,0,0,0,0,0,0,0,0,0,0,0,0,0,0,0,0,0,0,0,0,0,0,0,0,0,0,0,0,0,0,0],"sum_hessian":[1.93149E5,1.20969E5,7.218E4,8.8569E4,3.24E4,2.916E4,4.302E4,8.2665E4,5.904E3,2.16E4,1.08E4,3.24E3,2.592E4,4.806E3,3.8214E4,3.312E4,4.9545E4,3.564E3,2.34E3,8.64E3,1.296E4,2.16E3,8.64E3,2.376E3,8.64E2,3.24E3,2.268E4,1.62E3,3.186E3,2.5686E4,1.2528E4,1.1736E4,2.1384E4,2.1033E4,2.8512E4,1.131E3,2.433E3,1.188E3,1.152E3,6.912E3,1.728E3,9.072E3,3.888E3,1.728E3,4.32E2,6.912E3,1.728E3,2.282E3,9.4E1,7.26E2,1.38E2,1.62E3,1.62E3,1.872E4,3.96E3,1.188E3,4.32E2,2.322E3,8.64E2,2.5146E4,5.4E2,4.698E3,7.83E3],"tree_param":{"num_deleted":"0","num_feature":"7","num_nodes":"63","size_leaf_vector":"1"}},{"base_weights":[-3.00036E-7,4.0595355E-3,-6.8042832E-3,8.292886E-3,-7.512699E-3,-1.6478237E-3,-1.0299337E-2,-6.4032734E-3,1.1866715E-2,-6.4601004E-3,-1.3105742E-2,5.128418E-2,-8.266048E-3,-3.8227737E-2,-6.786001E-3,-1.7031198E-2,9.677498E-3,2.5866082E-2,4.8613264E-3,-9.538346E-3,-3.0607306E-3,-1.794967E-4,-1.6551845E-2,7.514303E-2,-1.4338691E-2,7.415844E-3,-1.0506546E-2,-7.145596E-2,-2.131491E-2,-1.1218954E-2,2.3029968E-3,5.4641155E-4,-2.8483025E-3,-2.1408896E-3,2.491963E-3,-3.0491597E-3,3.9956365E-3,1.5707816E-3,-3.8686655E-3,-1.2085239E-3,6.49887E-5,6.732947E-5,-1.799133E-3,-1.1688956E-3,4.570005E-3,-1.78347E-3,6.8794575E-4,6.3705132E-3,7.847061E-3,-1.2794494E-3,-1.0099015E-2,-3.605622E-3,2.0428356E-3,-5.9365353E-4,-1.126787E-3,-5.7935726E-4,-8.966508E-3,-3.6741477E-3,-5.3431315E-4,-4.3677466E-4,-1.1620873E-3,1.2271669E-3,-1.181893E-3],"categories":[],"categories_nodes":[],"categories_segments":[],"categories_sizes":[],"default_left":[0,0,0,0,0,0,0,0,0,0,0,0,0,0,0,0,0,0,0,0,0,0,0,0,0,0,0,0,0,0,0,0,0,0,0,0,0,0,0,0,0,0,0,0,0,0,0,0,0,0,0,0,0,0,0,0,0,0,0,0,0,0,0],"id":20,"left_children":[1,3,5,7,9,11,13,15,17,19,21,23,25,27,29,31,33,35,37,39,41,43,45,47,49,51,53,55,57,59,61,-1,-1,-1,-1,-1,-1,-1,-1,-1,-1,-1,-1,-1,-1,-1,-1,-1,-1,-1,-1,-1,-1,-1,-1,-1,-1,-1,-1,-1,-1,-1,-1],"loss_changes":[5.33542E0,5.9263024E0,1.3008363E0,4.6519084E0,1.9066751E-1,1.0215983E1,4.2210407E0,2.9612684E0,6.9869432E0,2.853371E-1,2.285583E-1,5.075468E0,9.108187E-1,2.6999302E0,1.5397503E0,2.6875682E0,3.2675433E0,1.8869726E1,2.2429802E1,3.7135446E-1,7.226039E-1,5.713549E-1,1.2189162E-1,8.547115E-2,1.1445077E-1,1.8341076E0,7.8846216E-2,1.9376364E0,7.8504765E-1,7.068157E-2,1.7639383E0,0E0,0E0,0E0,0E0,0E0,0E0,0E0,0E0,0E0,0E0,0E0,0E0,0E0,0E0,0E0,0E0,0E0,0E0,0E0,0E0,0E0,0E0,0E0,0E0,0E0,0E0,0E0,0E0,0E0,0E0,0E0,0E0],"parents":[2147483647,0,0,1,1,2,2,3,3,4,4,5,5,6,6,7,7,8,8,9,9,10,10,11,11,12,12,13,13,14,14,15,15,16,16,17,17,18,18,19,19,20,20,21,21,22,22,23,23,24,24,25,25,26,26,27,27,28,28,29,29,30,30],"right_children":[2,4,6,8,10,12,14,16,18,20,22,24,26,28,30,32,34,36,38,40,42,44,46,48,50,52,54,56,58,60,62,-1,-1,-1,-1,-1,-1,-1,-1,-1,-1,-1,-1,-1,-1,-1,-1,-1,-1,-1,-1,-1,-1,-1,-1,-1,-1,-1,-1,-1,-1,-1,-1],"split_conditions":[1.5E1,5E0,3E0,3E0,1.5E-1,1.6E1,1.6E1,6E0,7E0,8E0,3E0,5E0,1.7E1,6E0,1.2E1,2E0,1E0,2E0,1.2E1,1.2E1,1.2E1,1.2E1,6.435178E-1,1E0,7.833068E-1,3.6952814E-1,1.8E1,3.2751128E-1,1.2E1,6.276948E-2,4E0,5.4641155E-4,-2.8483025E-3,-2.1408896E-3,2.491963E-3,-3.0491597E-3,3.9956365E-3,1.5707816E-3,-3.8686655E-3,-1.2085239E-3,6.49887E-5,6.732947E-5,-1.799133E-3,-1.1688956E-3,4.570005E-3,-1.78347E-3,6.8794575E-4,6.3705132E-3,7.847061E-3,-1.2794494E-3,-1.0099015E-2,-3.605622E-3,2.0428356E-3,-5.9365353E-4,-1.126787E-3,-5.7935726E-4,-8.966508E-3,-3.6741477E-3,-5.3431315E-4,-4.3677466E-4,-1.1620873E-3,1.2271669E-3,-1.181893E-3],"split_indices":[0,1,6,0,3,0,0,6,0,0,0,1,0,6,6,6,0,6,6,6,6,6,5,1,5,5,0,5,6,5,1,0,0,0,0,0,0,0,0,0,0,0,0,0,0,0,0,0,0,0,0,0,0,0,0,0,0,0,0,0,0,0,0],"split_type":[0,0,0,0,0,0,0,0,0,0,0,0,0,0,0,0,0,0,0,0,0,0,0,0,0,0,0,0,0,0,0,0,0,0,0,0,0,0,0,0,0,0,0,0,0,0,0,0,0,0,0,0,0,0,0,0,0,0,0,0,0,0,0],"sum_hessian":[1.93149E5,1.20969E5,7.218E4,8.8569E4,3.24E4,2.916E4,4.302E4,1.7325E4,7.1244E4,2.727E4,5.13E3,3.24E3,2.592E4,4.806E3,3.8214E4,1.0431E4,6.894E3,2.376E4,4.7484E4,1.431E4,1.296E4,1.08E3,4.05E3,2.376E3,8.64E2,3.24E3,2.268E4,1.62E3,3.186E3,2.5686E4,1.2528E4,3.519E3,6.912E3,2.268E3,4.626E3,4.752E3,1.9008E4,3.8016E4,9.468E3,1.1448E4,2.862E3,1.0368E4,2.592E3,8.64E2,2.16E2,3.84E3,2.1E2,5.4E2,1.836E3,8.5E2,1.4E1,7.46E2,2.494E3,3.24E3,1.944E4,3.52E2,1.268E3,1.62E3,1.566E3,1.424E3,2.4262E4,7.344E3,5.184E3],"tree_param":{"num_deleted":"0","num_feature":"7","num_nodes":"63","size_leaf_vector":"1"}},{"base_weights":[-3.7274035E-7,3.6535505E-3,-6.124077E-3,7.46356E-3,-6.761442E-3,-1.4830608E-3,-9.269763E-3,5.5473205E-3,3.428835E-2,-7.634515E-3,-6.061826E-4,4.6156637E-2,-7.4395738E-3,-3.4407828E-2,-6.107446E-3,-3.8770663E-3,1.1847315E-2,7.607611E-2,-2.9362934E-2,-7.070477E-3,-2.2512624E-2,3.8022794E-2,-2.3190842E-3,6.763471E-2,-1.29179815E-2,6.6737807E-3,-9.455972E-3,-6.431626E-2,-1.918474E-2,-1.00971265E-2,2.0726991E-3,1.1360062E-3,-3.111787E-3,2.6184039E-3,1.2707198E-4,7.700314E-3,3.4194773E-3,-5.975178E-3,2.0002069E-4,-7.259192E-4,2.5861978E-3,-1.3044729E-3,-3.6648815E-3,8.96002E-3,3.1017856E-4,1.2309763E-4,-1.173329E-3,7.45345E-3,6.183186E-3,-1.8059313E-3,1.2735935E-3,3.0180102E-3,-1.6836657E-3,-1.0578652E-3,-6.367365E-4,-8.311962E-3,-1.2534495E-3,5.519596E-4,-2.8071802E-3,-9.750601E-4,-1.7068664E-3,-1.255561E-3,1.0850168E-3],"categories":[],"categories_nodes":[],"categories_segments":[],"categories_sizes":[],"default_left":[0,0,0,0,0,0,0,0,0,0,0,0,0,0,0,0,0,0,0,0,0,0,0,0,0,0,0,0,0,0,0,0,0,0,0,0,0,0,0,0,0,0,0,0,0,0,0,0,0,0,0,0,0,0,0,0,0,0,0,0,0,0,0],"id":21,"left_children":[1,3,5,7,9,11,13,15,17,19,21,23,25,27,29,31,33,35,37,39,41,43,45,47,49,51,53,55,57,59,61,-1,-1,-1,-1,-1,-1,-1,-1,-1,-1,-1,-1,-1,-1,-1,-1,-1,-1,-1,-1,-1,-1,-1,-1,-1,-1,-1,-1,-1,-1,-1,-1],"loss_changes":[4.321859E0,4.8002872E0,1.0537694E0,4.5525484E0,1.7411816E-1,8.275258E0,3.4197242E0,4.908223E0,1.5708616E1,2.3796678E-1,2.6647907E-1,4.1130843E0,7.377267E-1,2.1873865E0,1.2472119E0,1.3747938E1,7.51281E0,1.3577843E-1,2.2313023E0,1.7010748E-1,1.3818014E-1,3.0771622E-1,1.288858E-1,9.056282E-2,1.1431943E-1,1.7916269E0,7.857919E-2,1.5772786E0,6.998575E-1,6.1888695E-2,1.6088536E0,0E0,0E0,0E0,0E0,0E0,0E0,0E0,0E0,0E0,0E0,0E0,0E0,0E0,0E0,0E0,0E0,0E0,0E0,0E0,0E0,0E0,0E0,0E0,0E0,0E0,0E0,0E0,0E0,0E0,0E0,0E0,0E0],"parents":[2147483647,0,0,1,1,2,2,3,3,4,4,5,5,6,6,7,7,8,8,9,9,10,10,11,11,12,12,13,13,14,14,15,15,16,16,17,17,18,18,19,19,20,20,21,21,22,22,23,23,24,24,25,25,26,26,27,27,28,28,29,29,30,30],"right_children":[2,4,6,8,10,12,14,16,18,20,22,24,26,28,30,32,34,36,38,40,42,44,46,48,50,52,54,56,58,60,62,-1,-1,-1,-1,-1,-1,-1,-1,-1,-1,-1,-1,-1,-1,-1,-1,-1,-1,-1,-1,-1,-1,-1,-1,-1,-1,-1,-1,-1,-1,-1,-1],"split_conditions":[1.5E1,5E0,3E0,1.4E1,4.1927585E-1,1.6E1,1.6E1,3E0,6E0,3.2000756E-1,4.6446398E-1,5E0,1.7E1,6E0,1.2E1,9E0,6E0,8.430666E-1,1.2E1,3.139383E-1,6E0,3E0,1.5E-1,2E0,1.5E-1,2E0,5E0,5E0,4.0482774E-1,7.4929476E-1,1.9E1,1.1360062E-3,-3.111787E-3,2.6184039E-3,1.2707198E-4,7.700314E-3,3.4194773E-3,-5.975178E-3,2.0002069E-4,-7.259192E-4,2.5861978E-3,-1.3044729E-3,-3.6648815E-3,8.96002E-3,3.1017856E-4,1.2309763E-4,-1.173329E-3,7.45345E-3,6.183186E-3,-1.8059313E-3,1.2735935E-3,3.0180102E-3,-1.6836657E-3,-1.0578652E-3,-6.367365E-4,-8.311962E-3,-1.2534495E-3,5.519596E-4,-2.8071802E-3,-9.750601E-4,-1.7068664E-3,-1.255561E-3,1.0850168E-3],"split_indices":[0,1,6,0,5,0,0,6,6,5,5,1,0,6,6,0,0,5,6,5,6,6,3,1,3,6,1,1,5,5,0,0,0,0,0,0,0,0,0,0,0,0,0,0,0,0,0,0,0,0,0,0,0,0,0,0,0,0,0,0,0,0,0],"split_type":[0,0,0,0,0,0,0,0,0,0,0,0,0,0,0,0,0,0,0,0,0,0,0,0,0,0,0,0,0,0,0,0,0,0,0,0,0,0,0,0,0,0,0,0,0,0,0,0,0,0,0,0,0,0,0,0,0,0,0,0,0,0,0],"sum_hessian":[1.93149E5,1.20969E5,7.218E4,8.8569E4,3.24E4,2.916E4,4.302E4,8.2665E4,5.904E3,2.8375E4,4.025E3,3.24E3,2.592E4,4.806E3,3.8214E4,3.312E4,4.9545E4,3.564E3,2.34E3,2.734E4,1.035E3,1.7E2,3.855E3,2.376E3,8.64E2,3.24E3,2.268E4,1.62E3,3.186E3,2.5686E4,1.2528E4,2.124E4,1.188E4,2.1033E4,2.8512E4,3.486E3,7.8E1,1.188E3,1.152E3,2.7185E4,1.55E2,6.21E2,4.14E2,6.8E1,1.02E2,2.8E3,1.055E3,1.08E3,1.296E3,7.2E2,1.44E2,1.62E3,1.62E3,1.6632E4,6.048E3,1.188E3,4.32E2,8.43E2,2.343E3,2.4472E4,1.214E3,4.698E3,7.83E3],"tree_param":{"num_deleted":"0","num_feature":"7","num_nodes":"63","size_leaf_vector":"1"}},{"base_weights":[-2.8802538E-7,3.2882877E-3,-5.511697E-3,6.7172702E-3,-6.085135E-3,-1.334319E-3,-8.3431285E-3,-5.937264E-3,1.1225557E-2,-8.31781E-3,-3.852085E-3,4.154501E-2,-6.695631E-3,-3.0969504E-2,-5.4967767E-3,-2.5933282E-2,2.4250442E-2,2.9020486E-2,4.546929E-3,-1.1701442E-2,-4.4497643E-3,-5.3050593E-3,1.1806092E-2,6.087697E-2,-1.1626799E-2,-9.73773E-3,9.383215E-4,-4.45304E-2,-2.9019676E-3,-9.08752E-3,1.8654169E-3,-1.3121999E-3,-5.179621E-3,6.0917804E-4,7.691335E-3,-3.0774926E-3,4.3970454E-3,1.43855E-3,-3.4954336E-3,-5.82511E-4,-1.7575066E-3,-2.0429856E-4,-1.758151E-3,5.8059692E-3,-5.609586E-4,3.5421157E-3,4.46992E-4,6.244249E-3,3.6348072E-3,-2.284082E-3,-3.85927E-5,-2.7307174E-3,-8.9021475E-4,1.275678E-3,-1.088039E-3,-6.35799E-3,7.8686717E-4,2.985948E-4,-3.954562E-3,-8.868249E-4,-1.9262994E-3,1.0837395E-3,-1.0844524E-3],"categories":[],"categories_nodes":[],"categories_segments":[],"categories_sizes":[],"default_left":[0,0,0,0,0,0,0,0,0,0,0,0,0,0,0,0,0,0,0,0,0,0,0,0,0,0,0,0,0,0,0,0,0,0,0,0,0,0,0,0,0,0,0,0,0,0,0,0,0,0,0,0,0,0,0,0,0,0,0,0,0,0,0],"id":22,"left_children":[1,3,5,7,9,11,13,15,17,19,21,23,25,27,29,31,33,35,37,39,41,43,45,47,49,51,53,55,57,59,61,-1,-1,-1,-1,-1,-1,-1,-1,-1,-1,-1,-1,-1,-1,-1,-1,-1,-1,-1,-1,-1,-1,-1,-1,-1,-1,-1,-1,-1,-1,-1,-1],"loss_changes":[3.500801E0,3.8881745E0,8.5374284E-1,5.0530086E0,1.615088E-1,6.704085E0,2.7704947E0,1.4044776E1,7.7610874E0,2.1198738E-1,3.686505E-1,3.332181E0,6.0197866E-1,1.8295159E0,1.0102593E0,4.636717E0,8.865275E0,1.5932244E1,1.845488E1,2.9814494E-1,2.3893104E-1,2.8641176E-1,2.3822562E-1,8.9009285E-2,1.0902907E-1,2.7186406E-1,1.0319473E0,3.235589E0,3.382057E-1,5.714178E-2,1.4288406E0,0E0,0E0,0E0,0E0,0E0,0E0,0E0,0E0,0E0,0E0,0E0,0E0,0E0,0E0,0E0,0E0,0E0,0E0,0E0,0E0,0E0,0E0,0E0,0E0,0E0,0E0,0E0,0E0,0E0,0E0,0E0,0E0],"parents":[2147483647,0,0,1,1,2,2,3,3,4,4,5,5,6,6,7,7,8,8,9,9,10,10,11,11,12,12,13,13,14,14,15,15,16,16,17,17,18,18,19,19,20,20,21,21,22,22,23,23,24,24,25,25,26,26,27,27,28,28,29,29,30,30],"right_children":[2,4,6,8,10,12,14,16,18,20,22,24,26,28,30,32,34,36,38,40,42,44,46,48,50,52,54,56,58,60,62,-1,-1,-1,-1,-1,-1,-1,-1,-1,-1,-1,-1,-1,-1,-1,-1,-1,-1,-1,-1,-1,-1,-1,-1,-1,-1,-1,-1,-1,-1,-1,-1],"split_conditions":[1.5E1,5E0,3E0,4E0,6E0,1.6E1,1.6E1,6E0,7E0,8E0,5.7109904E-1,5E0,4.0482774E-1,1.2E1,1.2E1,3E0,3E0,2E0,1.2E1,4E0,1.5E-1,5.108805E-2,3E0,3E-1,6E0,1.7E1,2E0,5E0,6E0,4.5E-1,4E0,-1.3121999E-3,-5.179621E-3,6.0917804E-4,7.691335E-3,-3.0774926E-3,4.3970454E-3,1.43855E-3,-3.4954336E-3,-5.82511E-4,-1.7575066E-3,-2.0429856E-4,-1.758151E-3,5.8059692E-3,-5.609586E-4,3.5421157E-3,4.46992E-4,6.244249E-3,3.6348072E-3,-2.284082E-3,-3.85927E-5,-2.7307174E-3,-8.9021475E-4,1.275678E-3,-1.088039E-3,-6.35799E-3,7.8686717E-4,2.985948E-4,-3.954562E-3,-8.868249E-4,-1.9262994E-3,1.0837395E-3,-1.0844524E-3],"split_indices":[0,1,6,0,1,0,0,6,0,0,5,1,5,6,6,6,0,6,6,0,3,5,0,3,1,0,6,1,1,3,1,0,0,0,0,0,0,0,0,0,0,0,0,0,0,0,0,0,0,0,0,0,0,0,0,0,0,0,0,0,0,0,0],"split_type":[0,0,0,0,0,0,0,0,0,0,0,0,0,0,0,0,0,0,0,0,0,0,0,0,0,0,0,0,0,0,0,0,0,0,0,0,0,0,0,0,0,0,0,0,0,0,0,0,0,0,0,0,0,0,0,0,0,0,0,0,0,0,0],"sum_hessian":[1.93149E5,1.20969E5,7.218E4,8.8569E4,3.24E4,2.916E4,4.302E4,2.3265E4,6.5304E4,1.62E4,1.62E4,3.24E3,2.592E4,4.806E3,3.8214E4,1.3995E4,9.27E3,1.782E4,4.7484E4,8.64E3,7.56E3,1.4825E4,1.375E3,2.376E3,8.64E2,1.8534E4,7.386E3,3.24E3,1.566E3,2.5686E4,1.2528E4,9.36E3,4.635E3,6.894E3,2.376E3,3.564E3,1.4256E4,3.8016E4,9.468E3,4.32E3,4.32E3,6.39E3,1.17E3,7E1,1.4755E4,3.25E2,1.05E3,2.232E3,1.44E2,4.32E2,4.32E2,8.4E2,1.7694E4,3.693E3,3.693E3,2.376E3,8.64E2,1.35E3,2.16E2,2.5146E4,5.4E2,7.344E3,5.184E3],"tree_param":{"num_deleted":"0","num_feature":"7","num_nodes":"63","size_leaf_vector":"1"}},{"base_weights":[-2.6991762E-7,2.9595073E-3,-4.9606366E-3,6.045554E-3,-5.47647E-3,-1.2007472E-3,-7.509094E-3,-5.3434647E-3,1.010299E-2,-5.2099917E-3,-2.4342945E-2,3.7392844E-2,-6.026203E-3,-2.787447E-2,-4.9471715E-3,-2.3340423E-2,2.1826288E-2,2.6118523E-2,4.092188E-3,-7.2663054E-3,-3.1417343E-3,-3.368112E-2,1.2969412E-2,5.4793436E-2,-1.0466803E-2,6.6450858E-3,-7.8366E-3,-5.3440582E-2,-1.4862061E-2,-8.178876E-3,1.6788743E-3,-1.1809942E-3,-4.661771E-3,5.4826797E-4,6.922526E-3,-2.7698283E-3,3.957372E-3,1.294698E-3,-3.1459264E-3,-1.0179802E-3,-4.00505E-4,-4.5872896E-4,1.2915542E-3,-5.3221156E-4,-6.1854045E-3,3.6880975E-3,-7.958394E-3,4.38477E-3,5.7987147E-3,-1.5227806E-3,1.4509569E-3,2.6927122E-3,-1.3641048E-3,-6.219571E-4,-1.0310792E-3,-1.5812239E-4,-6.6444217E-3,-2.922088E-3,-2.7369146E-4,-2.0444462E-4,-8.538823E-4,-1.1486843E-3,9.5787627E-4],"categories":[],"categories_nodes":[],"categories_segments":[],"categories_sizes":[],"default_left":[0,0,0,0,0,0,0,0,0,0,0,0,0,0,0,0,0,0,0,0,0,0,0,0,0,0,0,0,0,0,0,0,0,0,0,0,0,0,0,0,0,0,0,0,0,0,0,0,0,0,0,0,0,0,0,0,0,0,0,0,0,0,0],"id":23,"left_children":[1,3,5,7,9,11,13,15,17,19,21,23,25,27,29,31,33,35,37,39,41,43,45,47,49,51,53,55,57,59,61,-1,-1,-1,-1,-1,-1,-1,-1,-1,-1,-1,-1,-1,-1,-1,-1,-1,-1,-1,-1,-1,-1,-1,-1,-1,-1,-1,-1,-1,-1,-1,-1],"loss_changes":[2.835762E0,3.1493444E0,6.9162345E-1,4.0928926E0,1.6276956E-1,5.430927E0,2.2444618E0,1.1376953E1,6.286557E0,1.3586432E-1,1.5757847E-1,2.6996331E0,5.9468156E-1,1.5983832E0,8.1832755E-1,3.755952E0,7.1815877E0,1.2905564E1,1.4948718E1,1.521852E-1,3.698445E-1,2.8809395E-1,2.0432681E-1,8.0551624E-2,1.03080325E-1,1.3338577E0,9.067893E-2,1.0930324E0,5.547855E-1,5.6701064E-2,1.3032223E0,0E0,0E0,0E0,0E0,0E0,0E0,0E0,0E0,0E0,0E0,0E0,0E0,0E0,0E0,0E0,0E0,0E0,0E0,0E0,0E0,0E0,0E0,0E0,0E0,0E0,0E0,0E0,0E0,0E0,0E0,0E0,0E0],"parents":[2147483647,0,0,1,1,2,2,3,3,4,4,5,5,6,6,7,7,8,8,9,9,10,10,11,11,12,12,13,13,14,14,15,15,16,16,17,17,18,18,19,19,20,20,21,21,22,22,23,23,24,24,25,25,26,26,27,27,28,28,29,29,30,30],"right_children":[2,4,6,8,10,12,14,16,18,20,22,24,26,28,30,32,34,36,38,40,42,44,46,48,50,52,54,56,58,60,62,-1,-1,-1,-1,-1,-1,-1,-1,-1,-1,-1,-1,-1,-1,-1,-1,-1,-1,-1,-1,-1,-1,-1,-1,-1,-1,-1,-1,-1,-1,-1,-1],"split_conditions":[1.5E1,5E0,3E0,4E0,4.5E-1,1.6E1,1.6E1,6E0,7E0,6E0,1.2E1,5E0,1.7E1,6E0,1.2E1,3E0,3E0,2E0,1.2E1,8E0,5.7109904E-1,3E0,4E0,1E0,3.4678954E-1,2E0,1.7265004E-1,2.9317227E-1,3E0,6.276948E-2,1.9E1,-1.1809942E-3,-4.661771E-3,5.4826797E-4,6.922526E-3,-2.7698283E-3,3.957372E-3,1.294698E-3,-3.1459264E-3,-1.0179802E-3,-4.00505E-4,-4.5872896E-4,1.2915542E-3,-5.3221156E-4,-6.1854045E-3,3.6880975E-3,-7.958394E-3,4.38477E-3,5.7987147E-3,-1.5227806E-3,1.4509569E-3,2.6927122E-3,-1.3641048E-3,-6.219571E-4,-1.0310792E-3,-1.5812239E-4,-6.6444217E-3,-2.922088E-3,-2.7369146E-4,-2.0444462E-4,-8.538823E-4,-1.1486843E-3,9.5787627E-4],"split_indices":[0,1,6,0,3,0,0,6,0,1,6,1,0,6,6,6,0,6,6,0,5,6,0,1,5,6,5,5,1,5,0,0,0,0,0,0,0,0,0,0,0,0,0,0,0,0,0,0,0,0,0,0,0,0,0,0,0,0,0,0,0,0,0],"split_type":[0,0,0,0,0,0,0,0,0,0,0,0,0,0,0,0,0,0,0,0,0,0,0,0,0,0,0,0,0,0,0,0,0,0,0,0,0,0,0,0,0,0,0,0,0,0,0,0,0,0,0,0,0,0,0,0,0,0,0,0,0,0,0],"sum_hessian":[1.93149E5,1.20969E5,7.218E4,8.8569E4,3.24E4,2.916E4,4.302E4,2.3265E4,6.5304E4,3.195E4,4.5E2,3.24E3,2.592E4,4.806E3,3.8214E4,1.3995E4,9.27E3,1.782E4,4.7484E4,1.602E4,1.593E4,3.6E2,9E1,2.376E3,8.64E2,3.24E3,2.268E4,1.62E3,3.186E3,2.5686E4,1.2528E4,9.36E3,4.635E3,6.894E3,2.376E3,3.564E3,1.4256E4,3.8016E4,9.468E3,8.46E3,7.56E3,1.4615E4,1.315E3,1.8E2,1.8E2,7.2E1,1.8E1,5.4E2,1.836E3,7.26E2,1.38E2,1.62E3,1.62E3,1.3718E4,8.962E3,3.25E2,1.295E3,1.458E3,1.728E3,1.424E3,2.4262E4,4.698E3,7.83E3],"tree_param":{"num_deleted":"0","num_feature":"7","num_nodes":"63","size_leaf_vector":"1"}},{"base_weights":[-3.0445295E-7,2.663469E-3,-4.4645914E-3,7.651593E-4,1.4971022E-2,-5.8426345E-3,1.2147884E-3,-6.4997114E-3,5.6188395E-3,4.5047503E-2,-3.039569E-2,-1.0803313E-3,-1.064326E-2,8.500482E-3,-9.106299E-3,4.7754836E-3,-3.174204E-2,1.2162059E-2,-7.4675553E-3,-2.9454327E-3,6.904072E-2,-6.825037E-2,7.893674E-3,3.3656694E-2,-5.42359E-3,-3.6653746E-2,-7.3610297E-3,-1.0341976E-2,2.3573417E-2,-2.0460311E-2,1.3600571E-2,-1.995989E-3,5.3876783E-3,-4.3754587E-3,1.2955509E-4,-2.105359E-4,4.400385E-3,2.9887145E-3,-3.910031E-3,-5.7947705E-3,5.2058655E-3,1.0385237E-2,-2.6695991E-3,-9.494155E-3,5.175243E-4,1.4920735E-3,-1.1133197E-3,4.931839E-3,-9.420207E-4,5.9809955E-4,-7.053009E-4,-5.2924654E-3,8.1007177E-4,-7.0539606E-4,-1.3540081E-3,-1.8792981E-3,-5.4570707E-4,4.115944E-3,-2.8136565E-4,-2.8917722E-3,4.7109495E-3,3.7197066E-3,-6.8882327E-3],"categories":[],"categories_nodes":[],"categories_segments":[],"categories_sizes":[],"default_left":[0,0,0,0,0,0,0,0,0,0,0,0,0,0,0,0,0,0,0,0,0,0,0,0,0,0,0,0,0,0,0,0,0,0,0,0,0,0,0,0,0,0,0,0,0,0,0,0,0,0,0,0,0,0,0,0,0,0,0,0,0,0,0],"id":24,"left_children":[1,3,5,7,9,11,13,15,17,19,21,23,25,27,29,31,33,35,37,39,41,43,45,47,49,51,53,55,57,59,61,-1,-1,-1,-1,-1,-1,-1,-1,-1,-1,-1,-1,-1,-1,-1,-1,-1,-1,-1,-1,-1,-1,-1,-1,-1,-1,-1,-1,-1,-1,-1,-1],"loss_changes":[2.2969224E0,2.8262768E0,5.649266E-1,3.6956384E0,2.2058046E1,1.3279753E0,1.059969E0,1.1947317E1,5.380045E0,1.1193987E1,9.342127E0,4.399758E0,2.469297E0,2.3470278E0,1.504108E0,3.524335E1,5.1438313E0,1.902936E1,2.4749271E1,9.808175E0,2.1602339E1,6.352253E0,4.2868423E-1,2.1870296E0,4.8172808E-1,2.3605113E0,4.8642993E-2,1.5152755E-1,2.13054E0,2.223792E0,3.7881289E0,0E0,0E0,0E0,0E0,0E0,0E0,0E0,0E0,0E0,0E0,0E0,0E0,0E0,0E0,0E0,0E0,0E0,0E0,0E0,0E0,0E0,0E0,0E0,0E0,0E0,0E0,0E0,0E0,0E0,0E0,0E0,0E0],"parents":[2147483647,0,0,1,1,2,2,3,3,4,4,5,5,6,6,7,7,8,8,9,9,10,10,11,11,12,12,13,13,14,14,15,15,16,16,17,17,18,18,19,19,20,20,21,21,22,22,23,23,24,24,25,25,26,26,27,27,28,28,29,29,30,30],"right_children":[2,4,6,8,10,12,14,16,18,20,22,24,26,28,30,32,34,36,38,40,42,44,46,48,50,52,54,56,58,60,62,-1,-1,-1,-1,-1,-1,-1,-1,-1,-1,-1,-1,-1,-1,-1,-1,-1,-1,-1,-1,-1,-1,-1,-1,-1,-1,-1,-1,-1,-1,-1,-1],"split_conditions":[1.5E1,1.3E1,1.2E1,3E0,6E0,3E0,4E0,9E0,1.2E1,2E0,1.2E1,1.6E1,1.6E1,1.9E1,6E0,6E0,5E0,9E0,6E0,1.4E1,5E0,5E0,5E0,5E0,1.7E1,5E0,7.4929476E-1,4.703246E-1,2.2E1,2.3E1,2.2E1,-1.995989E-3,5.3876783E-3,-4.3754587E-3,1.2955509E-4,-2.105359E-4,4.400385E-3,2.9887145E-3,-3.910031E-3,-5.7947705E-3,5.2058655E-3,1.0385237E-2,-2.6695991E-3,-9.494155E-3,5.175243E-4,1.4920735E-3,-1.1133197E-3,4.931839E-3,-9.420207E-4,5.9809955E-4,-7.053009E-4,-5.2924654E-3,8.1007177E-4,-7.0539606E-4,-1.3540081E-3,-1.8792981E-3,-5.4570707E-4,4.115944E-3,-2.8136565E-4,-2.8917722E-3,4.7109495E-3,3.7197066E-3,-6.8882327E-3],"split_indices":[0,0,6,6,6,6,1,0,6,6,6,0,0,0,1,0,1,0,0,0,1,1,1,1,0,1,5,5,0,0,0,0,0,0,0,0,0,0,0,0,0,0,0,0,0,0,0,0,0,0,0,0,0,0,0,0,0,0,0,0,0,0,0],"split_type":[0,0,0,0,0,0,0,0,0,0,0,0,0,0,0,0,0,0,0,0,0,0,0,0,0,0,0,0,0,0,0,0,0,0,0,0,0,0,0,0,0,0,0,0,0,0,0,0,0,0,0,0,0,0,0,0,0,0,0,0,0,0,0],"sum_hessian":[1.93149E5,1.20969E5,7.218E4,1.04805E5,1.6164E4,5.8086E4,1.4094E4,4.1976E4,6.2829E4,9.72E3,6.444E3,2.916E4,2.8926E4,8.262E3,5.832E3,2.9016E4,1.296E4,4.1886E4,2.0943E4,3.24E3,6.48E3,3.24E3,3.204E3,3.24E3,2.592E4,3.24E3,2.5686E4,3.672E3,4.59E3,3.888E3,1.944E3,1.9296E4,9.72E3,9.504E3,3.456E3,2.8926E4,1.296E4,9.603E3,1.134E4,1.62E3,1.62E3,4.752E3,1.728E3,2.376E3,8.64E2,2.34E3,8.64E2,2.376E3,8.64E2,3.24E3,2.268E4,2.376E3,8.64E2,2.4472E4,1.214E3,1.344E3,2.328E3,2.754E3,1.836E3,3.456E3,4.32E2,1.512E3,4.32E2],"tree_param":{"num_deleted":"0","num_feature":"7","num_nodes":"63","size_leaf_vector":"1"}},{"base_weights":[-2.8217426E-7,2.3971314E-3,-4.0181694E-3,5.1695593E-3,-5.181534E-3,-5.258419E-3,1.0933174E-3,2.8419124E-3,2.0246457E-2,-4.3002465E-3,-9.864523E-3,-9.7216567E-4,-9.579163E-3,7.6506073E-3,-8.195896E-3,-5.3978167E-3,8.351191E-3,5.772187E-2,-3.6395997E-2,-6.6006687E-3,-1.7598836E-3,2.1772948E-3,-1.3075419E-2,3.0292233E-2,-4.8812334E-3,-3.298975E-2,-6.6250116E-3,-9.308434E-3,2.1216912E-2,-1.8413806E-2,1.2238885E-2,9.808724E-4,-3.9379587E-3,1.6378537E-3,-7.7035226E-4,-1.3782284E-3,9.346932E-3,-8.545138E-3,1.3429305E-3,-8.6295506E-4,1.5150393E-4,2.4024337E-4,-8.002619E-4,-7.1554654E-4,3.9369278E-3,-1.4200087E-3,7.4597617E-4,4.43886E-3,-8.4792747E-4,-7.4665673E-4,1.6063858E-4,-4.7634416E-3,7.29158E-4,-6.4293074E-4,-1.5709585E-3,-1.907287E-3,-5.8364833E-4,3.7044992E-3,-2.5324454E-4,-2.602678E-3,4.2409436E-3,3.3479815E-3,-6.200999E-3],"categories":[],"categories_nodes":[],"categories_segments":[],"categories_sizes":[],"default_left":[0,0,0,0,0,0,0,0,0,0,0,0,0,0,0,0,0,0,0,0,0,0,0,0,0,0,0,0,0,0,0,0,0,0,0,0,0,0,0,0,0,0,0,0,0,0,0,0,0,0,0,0,0,0,0,0,0,0,0,0,0,0,0],"id":25,"left_children":[1,3,5,7,9,11,13,15,17,19,21,23,25,27,29,31,33,35,37,39,41,43,45,47,49,51,53,55,57,59,61,-1,-1,-1,-1,-1,-1,-1,-1,-1,-1,-1,-1,-1,-1,-1,-1,-1,-1,-1,-1,-1,-1,-1,-1,-1,-1,-1,-1,-1,-1,-1,-1],"loss_changes":[1.8605341E0,2.5417643E0,4.5759857E-1,3.1081908E0,1.3367844E-1,1.0757506E0,8.586182E-1,3.4830186E0,2.5145473E1,1.5935767E-1,1.984187E-1,3.5640497E0,2.0003276E0,1.9012786E0,1.21816E0,1.5887716E1,5.9261365E0,1.8223663E1,1.1530435E1,2.3565531E-1,3.3680102E-1,3.75501E-1,9.3664885E-2,1.7717042E0,4.3477613E-1,1.9122345E0,4.556763E-2,1.2440941E-1,1.7258816E0,1.8018886E0,3.0695648E0,0E0,0E0,0E0,0E0,0E0,0E0,0E0,0E0,0E0,0E0,0E0,0E0,0E0,0E0,0E0,0E0,0E0,0E0,0E0,0E0,0E0,0E0,0E0,0E0,0E0,0E0,0E0,0E0,0E0,0E0,0E0,0E0],"parents":[2147483647,0,0,1,1,2,2,3,3,4,4,5,5,6,6,7,7,8,8,9,9,10,10,11,11,12,12,13,13,14,14,15,15,16,16,17,17,18,18,19,19,20,20,21,21,22,22,23,23,24,24,25,25,26,26,27,27,28,28,29,29,30,30],"right_children":[2,4,6,8,10,12,14,16,18,20,22,24,26,28,30,32,34,36,38,40,42,44,46,48,50,52,54,56,58,60,62,-1,-1,-1,-1,-1,-1,-1,-1,-1,-1,-1,-1,-1,-1,-1,-1,-1,-1,-1,-1,-1,-1,-1,-1,-1,-1,-1,-1,-1,-1,-1,-1],"split_conditions":[1.5E1,5E0,1.2E1,1.3E1,1.5E-1,3E0,4E0,3E0,6E0,8E0,3E0,1.6E1,1.6E1,1.9E1,6E0,9E0,1.2E1,2E0,1.2E1,1.2E1,6E0,1.2E1,6.435178E-1,5E0,4.0482774E-1,5E0,4.5E-1,4.1927585E-1,2.2E1,2.3E1,2.2E1,9.808724E-4,-3.9379587E-3,1.6378537E-3,-7.7035226E-4,-1.3782284E-3,9.346932E-3,-8.545138E-3,1.3429305E-3,-8.6295506E-4,1.5150393E-4,2.4024337E-4,-8.002619E-4,-7.1554654E-4,3.9369278E-3,-1.4200087E-3,7.4597617E-4,4.43886E-3,-8.4792747E-4,-7.4665673E-4,1.6063858E-4,-4.7634416E-3,7.29158E-4,-6.4293074E-4,-1.5709585E-3,-1.907287E-3,-5.8364833E-4,3.7044992E-3,-2.5324454E-4,-2.602678E-3,4.2409436E-3,3.3479815E-3,-6.200999E-3],"split_indices":[0,1,6,0,3,6,1,6,6,0,0,0,0,0,1,0,6,6,6,6,6,6,5,1,5,1,3,5,0,0,0,0,0,0,0,0,0,0,0,0,0,0,0,0,0,0,0,0,0,0,0,0,0,0,0,0,0,0,0,0,0,0,0],"split_type":[0,0,0,0,0,0,0,0,0,0,0,0,0,0,0,0,0,0,0,0,0,0,0,0,0,0,0,0,0,0,0,0,0,0,0,0,0,0,0,0,0,0,0,0,0,0,0,0,0,0,0,0,0,0,0,0,0,0,0,0,0,0,0],"sum_hessian":[1.93149E5,1.20969E5,7.218E4,8.8569E4,3.24E4,5.8086E4,1.4094E4,7.6725E4,1.1844E4,2.727E4,5.13E3,2.916E4,2.8926E4,8.262E3,5.832E3,3.0744E4,4.5981E4,7.128E3,4.716E3,1.431E4,1.296E4,1.08E3,4.05E3,3.24E3,2.592E4,3.24E3,2.5686E4,3.672E3,4.59E3,3.888E3,1.944E3,2.124E4,9.504E3,3.0654E4,1.5327E4,2.376E3,4.752E3,2.376E3,2.34E3,1.1448E4,2.862E3,7.776E3,5.184E3,8.64E2,2.16E2,3.84E3,2.1E2,2.376E3,8.64E2,1.8534E4,7.386E3,2.376E3,8.64E2,2.5146E4,5.4E2,9.62E2,2.71E3,2.754E3,1.836E3,3.456E3,4.32E2,1.512E3,4.32E2],"tree_param":{"num_deleted":"0","num_feature":"7","num_nodes":"63","size_leaf_vector":"1"}},{"base_weights":[-2.7204632E-7,2.15742E-3,-3.6164036E-3,4.65259E-3,-4.6633384E-3,9.789487E-4,-4.7795987E-3,-5.4112957E-3,8.237947E-3,-4.430836E-3,-2.112458E-2,2.5748963E-2,-6.0998444E-3,-6.646717E-3,9.839686E-4,-2.0800602E-2,1.7821813E-2,2.2373678E-2,2.9326691E-3,-4.4947257E-3,5.2334182E-2,-1.9152757E-3,-3.3876464E-2,4.2712033E-2,-2.0894932E-2,-9.3956594E-4,-8.163585E-3,-2.7285872E-3,-8.621467E-3,6.8856636E-3,-7.376513E-3,-9.614058E-4,-4.3383962E-3,3.111906E-4,6.0483566E-3,-2.6374944E-3,3.4561828E-3,1.0012154E-3,-2.5490995E-3,-6.260399E-4,-2.717114E-4,-4.5409645E-3,9.16745E-3,-1.5214047E-3,5.818873E-3,-5.4600844E-3,7.716829E-4,4.9428726E-3,3.7081E-3,-8.037739E-5,-4.0937834E-3,-4.2088228E-4,2.0271246E-3,-8.428285E-4,8.127025E-3,2.674226E-3,-6.4142223E-4,-2.9692017E-3,-5.962602E-4,-8.378268E-4,1.9095974E-3,-1.6572E-3,1.1013527E-3],"categories":[],"categories_nodes":[],"categories_segments":[],"categories_sizes":[],"default_left":[0,0,0,0,0,0,0,0,0,0,0,0,0,0,0,0,0,0,0,0,0,0,0,0,0,0,0,0,0,0,0,0,0,0,0,0,0,0,0,0,0,0,0,0,0,0,0,0,0,0,0,0,0,0,0,0,0,0,0,0,0,0,0],"id":26,"left_children":[1,3,5,7,9,11,13,15,17,19,21,23,25,27,29,31,33,35,37,39,41,43,45,47,49,51,53,55,57,59,61,-1,-1,-1,-1,-1,-1,-1,-1,-1,-1,-1,-1,-1,-1,-1,-1,-1,-1,-1,-1,-1,-1,-1,-1,-1,-1,-1,-1,-1,-1,-1,-1],"loss_changes":[1.5070602E0,2.0588043E0,3.8583326E-1,3.1958823E0,1.2391406E-1,2.5568159E0,6.19866E-1,8.31893E0,4.8974156E0,1.1611229E-1,1.1040975E-1,2.5652485E0,1.2076804E-1,3.3660412E-1,6.955123E-1,3.535389E0,5.8178315E0,1.0589357E1,9.555419E0,1.0015714E-1,1.425927E-1,1.4556031E-1,2.3402205E-1,8.8069916E-2,3.482897E-1,2.2482789E-1,1.924612E-1,1.5839418E0,1.6204221E0,1.5401961E0,9.865742E-1,0E0,0E0,0E0,0E0,0E0,0E0,0E0,0E0,0E0,0E0,0E0,0E0,0E0,0E0,0E0,0E0,0E0,0E0,0E0,0E0,0E0,0E0,0E0,0E0,0E0,0E0,0E0,0E0,0E0,0E0,0E0,0E0],"parents":[2147483647,0,0,1,1,2,2,3,3,4,4,5,5,6,6,7,7,8,8,9,9,10,10,11,11,12,12,13,13,14,14,15,15,16,16,17,17,18,18,19,19,20,20,21,21,22,22,23,23,24,24,25,25,26,26,27,27,28,28,29,29,30,30],"right_children":[2,4,6,8,10,12,14,16,18,20,22,24,26,28,30,32,34,36,38,40,42,44,46,48,50,52,54,56,58,60,62,-1,-1,-1,-1,-1,-1,-1,-1,-1,-1,-1,-1,-1,-1,-1,-1,-1,-1,-1,-1,-1,-1,-1,-1,-1,-1,-1,-1,-1,-1,-1,-1],"split_conditions":[1.5E1,5E0,2E0,4E0,4.5E-1,1.7E1,1.2E1,6E0,7E0,1E0,3E0,5E0,1.9E1,3E0,4E0,3E0,3E0,2E0,1.2E1,6E0,6E0,6.216229E-1,1.2E1,2E0,1.6E1,6E0,8.955293E-1,1.6E1,1.6E1,1.9E1,6E0,-9.614058E-4,-4.3383962E-3,3.111906E-4,6.0483566E-3,-2.6374944E-3,3.4561828E-3,